=== Run information ===

Scheme:       weka.classifiers.trees.RandomTree -K 0 -M 1.0 -V 0.001 -S 1
Relation:     bank-oner
Instances:    45211
Attributes:   5
              age
              martial
              education
              housing
              y
Test mode:    10-fold cross-validation

=== Classifier model (full training set) ===


RandomTree
==========

age < 60.5
|   education = tertiary
|   |   housing = yes
|   |   |   martial = married
|   |   |   |   age < 59.5
|   |   |   |   |   age < 42.5
|   |   |   |   |   |   age < 25.5
|   |   |   |   |   |   |   age < 23.5 : no (4/1)
|   |   |   |   |   |   |   age >= 23.5
|   |   |   |   |   |   |   |   age < 24.5 : no (1/0)
|   |   |   |   |   |   |   |   age >= 24.5 : no (18/3)
|   |   |   |   |   |   age >= 25.5
|   |   |   |   |   |   |   age < 26.5 : no (21/0)
|   |   |   |   |   |   |   age >= 26.5
|   |   |   |   |   |   |   |   age < 29.5
|   |   |   |   |   |   |   |   |   age < 28.5
|   |   |   |   |   |   |   |   |   |   age < 27.5 : no (23/1)
|   |   |   |   |   |   |   |   |   |   age >= 27.5 : no (40/2)
|   |   |   |   |   |   |   |   |   age >= 28.5 : no (88/5)
|   |   |   |   |   |   |   |   age >= 29.5
|   |   |   |   |   |   |   |   |   age < 41.5
|   |   |   |   |   |   |   |   |   |   age < 39.5
|   |   |   |   |   |   |   |   |   |   |   age < 38.5
|   |   |   |   |   |   |   |   |   |   |   |   age < 35.5
|   |   |   |   |   |   |   |   |   |   |   |   |   age < 33.5
|   |   |   |   |   |   |   |   |   |   |   |   |   |   age < 32.5
|   |   |   |   |   |   |   |   |   |   |   |   |   |   |   age < 31.5
|   |   |   |   |   |   |   |   |   |   |   |   |   |   |   |   age < 30.5 : no (114/11)
|   |   |   |   |   |   |   |   |   |   |   |   |   |   |   |   age >= 30.5 : no (147/14)
|   |   |   |   |   |   |   |   |   |   |   |   |   |   |   age >= 31.5 : no (160/13)
|   |   |   |   |   |   |   |   |   |   |   |   |   |   age >= 32.5 : no (209/12)
|   |   |   |   |   |   |   |   |   |   |   |   |   age >= 33.5
|   |   |   |   |   |   |   |   |   |   |   |   |   |   age < 34.5 : no (209/23)
|   |   |   |   |   |   |   |   |   |   |   |   |   |   age >= 34.5 : no (185/17)
|   |   |   |   |   |   |   |   |   |   |   |   age >= 35.5
|   |   |   |   |   |   |   |   |   |   |   |   |   age < 37.5
|   |   |   |   |   |   |   |   |   |   |   |   |   |   age < 36.5 : no (191/12)
|   |   |   |   |   |   |   |   |   |   |   |   |   |   age >= 36.5 : no (168/10)
|   |   |   |   |   |   |   |   |   |   |   |   |   age >= 37.5 : no (132/12)
|   |   |   |   |   |   |   |   |   |   |   age >= 38.5 : no (128/16)
|   |   |   |   |   |   |   |   |   |   age >= 39.5
|   |   |   |   |   |   |   |   |   |   |   age < 40.5 : no (121/8)
|   |   |   |   |   |   |   |   |   |   |   age >= 40.5 : no (112/6)
|   |   |   |   |   |   |   |   |   age >= 41.5 : no (105/11)
|   |   |   |   |   age >= 42.5
|   |   |   |   |   |   age < 55.5
|   |   |   |   |   |   |   age < 51.5
|   |   |   |   |   |   |   |   age < 47.5
|   |   |   |   |   |   |   |   |   age < 46.5
|   |   |   |   |   |   |   |   |   |   age < 45.5
|   |   |   |   |   |   |   |   |   |   |   age < 43.5 : no (97/6)
|   |   |   |   |   |   |   |   |   |   |   age >= 43.5 : no (182/11)
|   |   |   |   |   |   |   |   |   |   age >= 45.5 : no (87/4)
|   |   |   |   |   |   |   |   |   age >= 46.5 : no (65/0)
|   |   |   |   |   |   |   |   age >= 47.5
|   |   |   |   |   |   |   |   |   age < 49.5
|   |   |   |   |   |   |   |   |   |   age < 48.5 : no (60/6)
|   |   |   |   |   |   |   |   |   |   age >= 48.5 : no (84/10)
|   |   |   |   |   |   |   |   |   age >= 49.5
|   |   |   |   |   |   |   |   |   |   age < 50.5 : no (75/3)
|   |   |   |   |   |   |   |   |   |   age >= 50.5 : no (69/5)
|   |   |   |   |   |   |   age >= 51.5
|   |   |   |   |   |   |   |   age < 54.5
|   |   |   |   |   |   |   |   |   age < 53.5 : no (130/2)
|   |   |   |   |   |   |   |   |   age >= 53.5 : no (53/0)
|   |   |   |   |   |   |   |   age >= 54.5 : no (42/2)
|   |   |   |   |   |   age >= 55.5
|   |   |   |   |   |   |   age < 57.5
|   |   |   |   |   |   |   |   age < 56.5 : no (40/3)
|   |   |   |   |   |   |   |   age >= 56.5 : no (44/4)
|   |   |   |   |   |   |   age >= 57.5
|   |   |   |   |   |   |   |   age < 58.5 : no (48/5)
|   |   |   |   |   |   |   |   age >= 58.5 : no (40/5)
|   |   |   |   age >= 59.5 : no (24/6)
|   |   |   martial = single
|   |   |   |   age < 29.5
|   |   |   |   |   age < 21.5 : no (4/0)
|   |   |   |   |   age >= 21.5
|   |   |   |   |   |   age < 23.5
|   |   |   |   |   |   |   age < 22.5 : no (4/1)
|   |   |   |   |   |   |   age >= 22.5 : no (7/2)
|   |   |   |   |   |   age >= 23.5
|   |   |   |   |   |   |   age < 25.5
|   |   |   |   |   |   |   |   age < 24.5 : no (23/4)
|   |   |   |   |   |   |   |   age >= 24.5 : no (47/5)
|   |   |   |   |   |   |   age >= 25.5
|   |   |   |   |   |   |   |   age < 27.5
|   |   |   |   |   |   |   |   |   age < 26.5 : no (77/12)
|   |   |   |   |   |   |   |   |   age >= 26.5 : no (93/17)
|   |   |   |   |   |   |   |   age >= 27.5
|   |   |   |   |   |   |   |   |   age < 28.5 : no (134/19)
|   |   |   |   |   |   |   |   |   age >= 28.5 : no (133/19)
|   |   |   |   age >= 29.5
|   |   |   |   |   age < 31.5
|   |   |   |   |   |   age < 30.5 : no (185/16)
|   |   |   |   |   |   age >= 30.5 : no (216/18)
|   |   |   |   |   age >= 31.5
|   |   |   |   |   |   age < 33.5
|   |   |   |   |   |   |   age < 32.5 : no (207/28)
|   |   |   |   |   |   |   age >= 32.5 : no (173/31)
|   |   |   |   |   |   age >= 33.5
|   |   |   |   |   |   |   age < 54.5
|   |   |   |   |   |   |   |   age < 36.5
|   |   |   |   |   |   |   |   |   age < 34.5 : no (152/14)
|   |   |   |   |   |   |   |   |   age >= 34.5
|   |   |   |   |   |   |   |   |   |   age < 35.5 : no (157/17)
|   |   |   |   |   |   |   |   |   |   age >= 35.5 : no (105/10)
|   |   |   |   |   |   |   |   age >= 36.5
|   |   |   |   |   |   |   |   |   age < 51.5
|   |   |   |   |   |   |   |   |   |   age < 49.5
|   |   |   |   |   |   |   |   |   |   |   age < 48.5
|   |   |   |   |   |   |   |   |   |   |   |   age < 39.5
|   |   |   |   |   |   |   |   |   |   |   |   |   age < 37.5 : no (82/12)
|   |   |   |   |   |   |   |   |   |   |   |   |   age >= 37.5
|   |   |   |   |   |   |   |   |   |   |   |   |   |   age < 38.5 : no (87/11)
|   |   |   |   |   |   |   |   |   |   |   |   |   |   age >= 38.5 : no (68/9)
|   |   |   |   |   |   |   |   |   |   |   |   age >= 39.5
|   |   |   |   |   |   |   |   |   |   |   |   |   age < 44.5
|   |   |   |   |   |   |   |   |   |   |   |   |   |   age < 43.5
|   |   |   |   |   |   |   |   |   |   |   |   |   |   |   age < 42.5
|   |   |   |   |   |   |   |   |   |   |   |   |   |   |   |   age < 41.5 : no (83/9)
|   |   |   |   |   |   |   |   |   |   |   |   |   |   |   |   age >= 41.5 : no (34/3)
|   |   |   |   |   |   |   |   |   |   |   |   |   |   |   age >= 42.5 : no (25/3)
|   |   |   |   |   |   |   |   |   |   |   |   |   |   age >= 43.5 : no (30/2)
|   |   |   |   |   |   |   |   |   |   |   |   |   age >= 44.5
|   |   |   |   |   |   |   |   |   |   |   |   |   |   age < 47.5
|   |   |   |   |   |   |   |   |   |   |   |   |   |   |   age < 45.5 : no (16/2)
|   |   |   |   |   |   |   |   |   |   |   |   |   |   |   age >= 45.5
|   |   |   |   |   |   |   |   |   |   |   |   |   |   |   |   age < 46.5 : no (18/3)
|   |   |   |   |   |   |   |   |   |   |   |   |   |   |   |   age >= 46.5 : no (11/2)
|   |   |   |   |   |   |   |   |   |   |   |   |   |   age >= 47.5 : no (17/2)
|   |   |   |   |   |   |   |   |   |   |   age >= 48.5 : no (14/4)
|   |   |   |   |   |   |   |   |   |   age >= 49.5
|   |   |   |   |   |   |   |   |   |   |   age < 50.5 : no (13/0)
|   |   |   |   |   |   |   |   |   |   |   age >= 50.5 : no (21/2)
|   |   |   |   |   |   |   |   |   age >= 51.5
|   |   |   |   |   |   |   |   |   |   age < 52.5 : no (9/2)
|   |   |   |   |   |   |   |   |   |   age >= 52.5
|   |   |   |   |   |   |   |   |   |   |   age < 53.5 : no (6/1)
|   |   |   |   |   |   |   |   |   |   |   age >= 53.5 : no (10/2)
|   |   |   |   |   |   |   age >= 54.5
|   |   |   |   |   |   |   |   age < 59.5 : no (25/0)
|   |   |   |   |   |   |   |   age >= 59.5 : no (3/1)
|   |   |   martial = divorced
|   |   |   |   age < 59.5
|   |   |   |   |   age < 31.5
|   |   |   |   |   |   age < 27 : no (4/0)
|   |   |   |   |   |   age >= 27
|   |   |   |   |   |   |   age < 28.5 : no (2/1)
|   |   |   |   |   |   |   age >= 28.5
|   |   |   |   |   |   |   |   age < 30.5
|   |   |   |   |   |   |   |   |   age < 29.5 : no (4/0)
|   |   |   |   |   |   |   |   |   age >= 29.5 : no (10/1)
|   |   |   |   |   |   |   |   age >= 30.5 : no (17/4)
|   |   |   |   |   age >= 31.5
|   |   |   |   |   |   age < 34.5
|   |   |   |   |   |   |   age < 32.5 : no (25/2)
|   |   |   |   |   |   |   age >= 32.5
|   |   |   |   |   |   |   |   age < 33.5 : no (22/1)
|   |   |   |   |   |   |   |   age >= 33.5 : no (25/1)
|   |   |   |   |   |   age >= 34.5
|   |   |   |   |   |   |   age < 35.5 : no (38/7)
|   |   |   |   |   |   |   age >= 35.5
|   |   |   |   |   |   |   |   age < 36.5 : no (32/1)
|   |   |   |   |   |   |   |   age >= 36.5
|   |   |   |   |   |   |   |   |   age < 46.5
|   |   |   |   |   |   |   |   |   |   age < 42.5
|   |   |   |   |   |   |   |   |   |   |   age < 37.5 : no (31/3)
|   |   |   |   |   |   |   |   |   |   |   age >= 37.5
|   |   |   |   |   |   |   |   |   |   |   |   age < 39.5
|   |   |   |   |   |   |   |   |   |   |   |   |   age < 38.5 : no (30/2)
|   |   |   |   |   |   |   |   |   |   |   |   |   age >= 38.5 : no (28/1)
|   |   |   |   |   |   |   |   |   |   |   |   age >= 39.5
|   |   |   |   |   |   |   |   |   |   |   |   |   age < 41.5
|   |   |   |   |   |   |   |   |   |   |   |   |   |   age < 40.5 : no (19/2)
|   |   |   |   |   |   |   |   |   |   |   |   |   |   age >= 40.5 : no (28/2)
|   |   |   |   |   |   |   |   |   |   |   |   |   age >= 41.5 : no (23/1)
|   |   |   |   |   |   |   |   |   |   age >= 42.5
|   |   |   |   |   |   |   |   |   |   |   age < 44.5
|   |   |   |   |   |   |   |   |   |   |   |   age < 43.5 : no (25/3)
|   |   |   |   |   |   |   |   |   |   |   |   age >= 43.5 : no (32/5)
|   |   |   |   |   |   |   |   |   |   |   age >= 44.5
|   |   |   |   |   |   |   |   |   |   |   |   age < 45.5 : no (26/2)
|   |   |   |   |   |   |   |   |   |   |   |   age >= 45.5 : no (31/4)
|   |   |   |   |   |   |   |   |   age >= 46.5
|   |   |   |   |   |   |   |   |   |   age < 51.5
|   |   |   |   |   |   |   |   |   |   |   age < 50.5
|   |   |   |   |   |   |   |   |   |   |   |   age < 47.5 : no (24/1)
|   |   |   |   |   |   |   |   |   |   |   |   age >= 47.5
|   |   |   |   |   |   |   |   |   |   |   |   |   age < 49.5
|   |   |   |   |   |   |   |   |   |   |   |   |   |   age < 48.5 : no (28/2)
|   |   |   |   |   |   |   |   |   |   |   |   |   |   age >= 48.5 : no (23/2)
|   |   |   |   |   |   |   |   |   |   |   |   |   age >= 49.5 : no (21/1)
|   |   |   |   |   |   |   |   |   |   |   age >= 50.5 : no (26/0)
|   |   |   |   |   |   |   |   |   |   age >= 51.5
|   |   |   |   |   |   |   |   |   |   |   age < 54.5
|   |   |   |   |   |   |   |   |   |   |   |   age < 53.5
|   |   |   |   |   |   |   |   |   |   |   |   |   age < 52.5 : no (18/2)
|   |   |   |   |   |   |   |   |   |   |   |   |   age >= 52.5 : no (24/2)
|   |   |   |   |   |   |   |   |   |   |   |   age >= 53.5 : no (26/4)
|   |   |   |   |   |   |   |   |   |   |   age >= 54.5
|   |   |   |   |   |   |   |   |   |   |   |   age < 56.5
|   |   |   |   |   |   |   |   |   |   |   |   |   age < 55.5 : no (25/1)
|   |   |   |   |   |   |   |   |   |   |   |   |   age >= 55.5 : no (19/1)
|   |   |   |   |   |   |   |   |   |   |   |   age >= 56.5
|   |   |   |   |   |   |   |   |   |   |   |   |   age < 57.5 : no (14/2)
|   |   |   |   |   |   |   |   |   |   |   |   |   age >= 57.5
|   |   |   |   |   |   |   |   |   |   |   |   |   |   age < 58.5 : no (15/1)
|   |   |   |   |   |   |   |   |   |   |   |   |   |   age >= 58.5 : no (19/1)
|   |   |   |   age >= 59.5 : no (11/3)
|   |   housing = no
|   |   |   age < 29.5
|   |   |   |   martial = married
|   |   |   |   |   age < 27.5
|   |   |   |   |   |   age < 26.5
|   |   |   |   |   |   |   age < 25.5
|   |   |   |   |   |   |   |   age < 24 : no (2/0)
|   |   |   |   |   |   |   |   age >= 24 : no (6/3)
|   |   |   |   |   |   |   age >= 25.5 : no (13/1)
|   |   |   |   |   |   age >= 26.5 : no (19/7)
|   |   |   |   |   age >= 27.5
|   |   |   |   |   |   age < 28.5 : no (20/2)
|   |   |   |   |   |   age >= 28.5 : no (47/7)
|   |   |   |   martial = single
|   |   |   |   |   age < 24.5
|   |   |   |   |   |   age < 21.5 : no (5/1)
|   |   |   |   |   |   age >= 21.5
|   |   |   |   |   |   |   age < 23.5
|   |   |   |   |   |   |   |   age < 22.5 : yes (10/4)
|   |   |   |   |   |   |   |   age >= 22.5 : no (20/8)
|   |   |   |   |   |   |   age >= 23.5 : yes (20/8)
|   |   |   |   |   age >= 24.5
|   |   |   |   |   |   age < 27.5
|   |   |   |   |   |   |   age < 26.5
|   |   |   |   |   |   |   |   age < 25.5 : no (73/21)
|   |   |   |   |   |   |   |   age >= 25.5 : no (128/41)
|   |   |   |   |   |   |   age >= 26.5 : no (127/34)
|   |   |   |   |   |   age >= 27.5
|   |   |   |   |   |   |   age < 28.5 : no (119/44)
|   |   |   |   |   |   |   age >= 28.5 : no (129/49)
|   |   |   |   martial = divorced
|   |   |   |   |   age < 28.5 : no (7/0)
|   |   |   |   |   age >= 28.5 : no (2/1)
|   |   |   age >= 29.5
|   |   |   |   martial = married
|   |   |   |   |   age < 52.5
|   |   |   |   |   |   age < 33.5
|   |   |   |   |   |   |   age < 31.5
|   |   |   |   |   |   |   |   age < 30.5 : no (100/13)
|   |   |   |   |   |   |   |   age >= 30.5 : no (120/25)
|   |   |   |   |   |   |   age >= 31.5
|   |   |   |   |   |   |   |   age < 32.5 : no (142/13)
|   |   |   |   |   |   |   |   age >= 32.5 : no (158/23)
|   |   |   |   |   |   age >= 33.5
|   |   |   |   |   |   |   age < 38.5
|   |   |   |   |   |   |   |   age < 35.5
|   |   |   |   |   |   |   |   |   age < 34.5 : no (180/30)
|   |   |   |   |   |   |   |   |   age >= 34.5 : no (152/24)
|   |   |   |   |   |   |   |   age >= 35.5
|   |   |   |   |   |   |   |   |   age < 37.5
|   |   |   |   |   |   |   |   |   |   age < 36.5 : no (165/35)
|   |   |   |   |   |   |   |   |   |   age >= 36.5 : no (156/37)
|   |   |   |   |   |   |   |   |   age >= 37.5 : no (117/23)
|   |   |   |   |   |   |   age >= 38.5
|   |   |   |   |   |   |   |   age < 50.5
|   |   |   |   |   |   |   |   |   age < 49.5
|   |   |   |   |   |   |   |   |   |   age < 40.5
|   |   |   |   |   |   |   |   |   |   |   age < 39.5 : no (129/19)
|   |   |   |   |   |   |   |   |   |   |   age >= 39.5 : no (99/12)
|   |   |   |   |   |   |   |   |   |   age >= 40.5
|   |   |   |   |   |   |   |   |   |   |   age < 45.5
|   |   |   |   |   |   |   |   |   |   |   |   age < 43.5
|   |   |   |   |   |   |   |   |   |   |   |   |   age < 41.5 : no (105/16)
|   |   |   |   |   |   |   |   |   |   |   |   |   age >= 41.5
|   |   |   |   |   |   |   |   |   |   |   |   |   |   age < 42.5 : no (103/18)
|   |   |   |   |   |   |   |   |   |   |   |   |   |   age >= 42.5 : no (117/19)
|   |   |   |   |   |   |   |   |   |   |   |   age >= 43.5
|   |   |   |   |   |   |   |   |   |   |   |   |   age < 44.5 : no (92/14)
|   |   |   |   |   |   |   |   |   |   |   |   |   age >= 44.5 : no (106/15)
|   |   |   |   |   |   |   |   |   |   |   age >= 45.5
|   |   |   |   |   |   |   |   |   |   |   |   age < 47.5
|   |   |   |   |   |   |   |   |   |   |   |   |   age < 46.5 : no (86/15)
|   |   |   |   |   |   |   |   |   |   |   |   |   age >= 46.5 : no (89/18)
|   |   |   |   |   |   |   |   |   |   |   |   age >= 47.5
|   |   |   |   |   |   |   |   |   |   |   |   |   age < 48.5 : no (87/12)
|   |   |   |   |   |   |   |   |   |   |   |   |   age >= 48.5 : no (97/17)
|   |   |   |   |   |   |   |   |   age >= 49.5 : no (105/13)
|   |   |   |   |   |   |   |   age >= 50.5
|   |   |   |   |   |   |   |   |   age < 51.5 : no (94/17)
|   |   |   |   |   |   |   |   |   age >= 51.5 : no (96/20)
|   |   |   |   |   age >= 52.5
|   |   |   |   |   |   age < 58.5
|   |   |   |   |   |   |   age < 54.5 : no (195/30)
|   |   |   |   |   |   |   age >= 54.5
|   |   |   |   |   |   |   |   age < 56.5
|   |   |   |   |   |   |   |   |   age < 55.5 : no (80/7)
|   |   |   |   |   |   |   |   |   age >= 55.5 : no (77/8)
|   |   |   |   |   |   |   |   age >= 56.5
|   |   |   |   |   |   |   |   |   age < 57.5 : no (104/19)
|   |   |   |   |   |   |   |   |   age >= 57.5 : no (95/10)
|   |   |   |   |   |   age >= 58.5
|   |   |   |   |   |   |   age < 59.5 : no (84/14)
|   |   |   |   |   |   |   age >= 59.5 : no (64/13)
|   |   |   |   martial = single
|   |   |   |   |   age < 50.5
|   |   |   |   |   |   age < 30.5 : no (273/65)
|   |   |   |   |   |   age >= 30.5
|   |   |   |   |   |   |   age < 39.5
|   |   |   |   |   |   |   |   age < 37.5
|   |   |   |   |   |   |   |   |   age < 34.5
|   |   |   |   |   |   |   |   |   |   age < 32.5
|   |   |   |   |   |   |   |   |   |   |   age < 31.5 : no (233/46)
|   |   |   |   |   |   |   |   |   |   |   age >= 31.5 : no (226/47)
|   |   |   |   |   |   |   |   |   |   age >= 32.5
|   |   |   |   |   |   |   |   |   |   |   age < 33.5 : no (178/32)
|   |   |   |   |   |   |   |   |   |   |   age >= 33.5 : no (133/22)
|   |   |   |   |   |   |   |   |   age >= 34.5
|   |   |   |   |   |   |   |   |   |   age < 35.5 : no (126/33)
|   |   |   |   |   |   |   |   |   |   age >= 35.5
|   |   |   |   |   |   |   |   |   |   |   age < 36.5 : no (108/22)
|   |   |   |   |   |   |   |   |   |   |   age >= 36.5 : no (88/17)
|   |   |   |   |   |   |   |   age >= 37.5
|   |   |   |   |   |   |   |   |   age < 38.5 : no (63/7)
|   |   |   |   |   |   |   |   |   age >= 38.5 : no (55/9)
|   |   |   |   |   |   |   age >= 39.5
|   |   |   |   |   |   |   |   age < 40.5 : no (36/14)
|   |   |   |   |   |   |   |   age >= 40.5
|   |   |   |   |   |   |   |   |   age < 46.5
|   |   |   |   |   |   |   |   |   |   age < 45.5
|   |   |   |   |   |   |   |   |   |   |   age < 42.5
|   |   |   |   |   |   |   |   |   |   |   |   age < 41.5 : no (43/9)
|   |   |   |   |   |   |   |   |   |   |   |   age >= 41.5 : no (32/4)
|   |   |   |   |   |   |   |   |   |   |   age >= 42.5
|   |   |   |   |   |   |   |   |   |   |   |   age < 44.5
|   |   |   |   |   |   |   |   |   |   |   |   |   age < 43.5 : no (28/6)
|   |   |   |   |   |   |   |   |   |   |   |   |   age >= 43.5 : no (17/6)
|   |   |   |   |   |   |   |   |   |   |   |   age >= 44.5 : no (31/6)
|   |   |   |   |   |   |   |   |   |   age >= 45.5 : no (29/4)
|   |   |   |   |   |   |   |   |   age >= 46.5
|   |   |   |   |   |   |   |   |   |   age < 48.5
|   |   |   |   |   |   |   |   |   |   |   age < 47.5 : no (31/10)
|   |   |   |   |   |   |   |   |   |   |   age >= 47.5 : no (18/5)
|   |   |   |   |   |   |   |   |   |   age >= 48.5
|   |   |   |   |   |   |   |   |   |   |   age < 49.5 : no (17/2)
|   |   |   |   |   |   |   |   |   |   |   age >= 49.5 : no (9/2)
|   |   |   |   |   age >= 50.5
|   |   |   |   |   |   age < 57.5
|   |   |   |   |   |   |   age < 53.5
|   |   |   |   |   |   |   |   age < 52.5
|   |   |   |   |   |   |   |   |   age < 51.5 : no (12/1)
|   |   |   |   |   |   |   |   |   age >= 51.5 : no (14/1)
|   |   |   |   |   |   |   |   age >= 52.5 : no (5/0)
|   |   |   |   |   |   |   age >= 53.5
|   |   |   |   |   |   |   |   age < 54.5 : no (7/2)
|   |   |   |   |   |   |   |   age >= 54.5
|   |   |   |   |   |   |   |   |   age < 55.5 : no (10/0)
|   |   |   |   |   |   |   |   |   age >= 55.5
|   |   |   |   |   |   |   |   |   |   age < 56.5 : no (8/1)
|   |   |   |   |   |   |   |   |   |   age >= 56.5 : no (4/1)
|   |   |   |   |   |   age >= 57.5
|   |   |   |   |   |   |   age < 59.5 : no (13/0)
|   |   |   |   |   |   |   age >= 59.5 : no (8/1)
|   |   |   |   martial = divorced
|   |   |   |   |   age < 37.5
|   |   |   |   |   |   age < 30.5 : no (4/0)
|   |   |   |   |   |   age >= 30.5
|   |   |   |   |   |   |   age < 32.5
|   |   |   |   |   |   |   |   age < 31.5 : no (16/6)
|   |   |   |   |   |   |   |   age >= 31.5 : no (16/5)
|   |   |   |   |   |   |   age >= 32.5
|   |   |   |   |   |   |   |   age < 34.5
|   |   |   |   |   |   |   |   |   age < 33.5 : no (20/5)
|   |   |   |   |   |   |   |   |   age >= 33.5 : no (19/2)
|   |   |   |   |   |   |   |   age >= 34.5
|   |   |   |   |   |   |   |   |   age < 36.5
|   |   |   |   |   |   |   |   |   |   age < 35.5 : no (15/4)
|   |   |   |   |   |   |   |   |   |   age >= 35.5 : no (34/9)
|   |   |   |   |   |   |   |   |   age >= 36.5 : no (12/3)
|   |   |   |   |   age >= 37.5
|   |   |   |   |   |   age < 52.5
|   |   |   |   |   |   |   age < 46.5
|   |   |   |   |   |   |   |   age < 45.5
|   |   |   |   |   |   |   |   |   age < 41.5
|   |   |   |   |   |   |   |   |   |   age < 38.5 : no (21/2)
|   |   |   |   |   |   |   |   |   |   age >= 38.5
|   |   |   |   |   |   |   |   |   |   |   age < 39.5 : no (22/4)
|   |   |   |   |   |   |   |   |   |   |   age >= 39.5
|   |   |   |   |   |   |   |   |   |   |   |   age < 40.5 : no (16/2)
|   |   |   |   |   |   |   |   |   |   |   |   age >= 40.5 : no (20/3)
|   |   |   |   |   |   |   |   |   age >= 41.5
|   |   |   |   |   |   |   |   |   |   age < 43.5
|   |   |   |   |   |   |   |   |   |   |   age < 42.5 : no (27/2)
|   |   |   |   |   |   |   |   |   |   |   age >= 42.5 : no (29/3)
|   |   |   |   |   |   |   |   |   |   age >= 43.5
|   |   |   |   |   |   |   |   |   |   |   age < 44.5 : no (23/3)
|   |   |   |   |   |   |   |   |   |   |   age >= 44.5 : no (20/3)
|   |   |   |   |   |   |   |   age >= 45.5 : no (27/8)
|   |   |   |   |   |   |   age >= 46.5
|   |   |   |   |   |   |   |   age < 51.5
|   |   |   |   |   |   |   |   |   age < 48.5
|   |   |   |   |   |   |   |   |   |   age < 47.5 : no (20/1)
|   |   |   |   |   |   |   |   |   |   age >= 47.5 : no (26/2)
|   |   |   |   |   |   |   |   |   age >= 48.5
|   |   |   |   |   |   |   |   |   |   age < 49.5 : no (22/4)
|   |   |   |   |   |   |   |   |   |   age >= 49.5
|   |   |   |   |   |   |   |   |   |   |   age < 50.5 : no (29/2)
|   |   |   |   |   |   |   |   |   |   |   age >= 50.5 : no (22/3)
|   |   |   |   |   |   |   |   age >= 51.5 : no (21/1)
|   |   |   |   |   |   age >= 52.5
|   |   |   |   |   |   |   age < 58.5
|   |   |   |   |   |   |   |   age < 56.5
|   |   |   |   |   |   |   |   |   age < 55.5
|   |   |   |   |   |   |   |   |   |   age < 54.5
|   |   |   |   |   |   |   |   |   |   |   age < 53.5 : no (20/4)
|   |   |   |   |   |   |   |   |   |   |   age >= 53.5 : no (36/5)
|   |   |   |   |   |   |   |   |   |   age >= 54.5 : no (33/9)
|   |   |   |   |   |   |   |   |   age >= 55.5 : no (36/5)
|   |   |   |   |   |   |   |   age >= 56.5
|   |   |   |   |   |   |   |   |   age < 57.5 : no (21/5)
|   |   |   |   |   |   |   |   |   age >= 57.5 : no (20/6)
|   |   |   |   |   |   |   age >= 58.5
|   |   |   |   |   |   |   |   age < 59.5 : no (24/2)
|   |   |   |   |   |   |   |   age >= 59.5 : no (14/3)
|   education = secondary
|   |   housing = yes
|   |   |   martial = married
|   |   |   |   age < 23.5 : no (27/0)
|   |   |   |   age >= 23.5
|   |   |   |   |   age < 24.5 : no (40/7)
|   |   |   |   |   age >= 24.5
|   |   |   |   |   |   age < 32.5
|   |   |   |   |   |   |   age < 31.5
|   |   |   |   |   |   |   |   age < 27.5
|   |   |   |   |   |   |   |   |   age < 25.5 : no (52/3)
|   |   |   |   |   |   |   |   |   age >= 25.5
|   |   |   |   |   |   |   |   |   |   age < 26.5 : no (83/7)
|   |   |   |   |   |   |   |   |   |   age >= 26.5 : no (126/11)
|   |   |   |   |   |   |   |   age >= 27.5
|   |   |   |   |   |   |   |   |   age < 28.5 : no (179/9)
|   |   |   |   |   |   |   |   |   age >= 28.5
|   |   |   |   |   |   |   |   |   |   age < 30.5
|   |   |   |   |   |   |   |   |   |   |   age < 29.5 : no (200/14)
|   |   |   |   |   |   |   |   |   |   |   age >= 29.5 : no (275/22)
|   |   |   |   |   |   |   |   |   |   age >= 30.5 : no (373/24)
|   |   |   |   |   |   |   age >= 31.5 : no (424/36)
|   |   |   |   |   |   age >= 32.5
|   |   |   |   |   |   |   age < 57.5
|   |   |   |   |   |   |   |   age < 45.5
|   |   |   |   |   |   |   |   |   age < 42.5
|   |   |   |   |   |   |   |   |   |   age < 35.5
|   |   |   |   |   |   |   |   |   |   |   age < 33.5 : no (416/26)
|   |   |   |   |   |   |   |   |   |   |   age >= 33.5
|   |   |   |   |   |   |   |   |   |   |   |   age < 34.5 : no (450/30)
|   |   |   |   |   |   |   |   |   |   |   |   age >= 34.5 : no (428/30)
|   |   |   |   |   |   |   |   |   |   age >= 35.5
|   |   |   |   |   |   |   |   |   |   |   age < 37.5
|   |   |   |   |   |   |   |   |   |   |   |   age < 36.5 : no (398/19)
|   |   |   |   |   |   |   |   |   |   |   |   age >= 36.5 : no (382/21)
|   |   |   |   |   |   |   |   |   |   |   age >= 37.5
|   |   |   |   |   |   |   |   |   |   |   |   age < 41.5
|   |   |   |   |   |   |   |   |   |   |   |   |   age < 40.5
|   |   |   |   |   |   |   |   |   |   |   |   |   |   age < 39.5
|   |   |   |   |   |   |   |   |   |   |   |   |   |   |   age < 38.5 : no (322/20)
|   |   |   |   |   |   |   |   |   |   |   |   |   |   |   age >= 38.5 : no (325/22)
|   |   |   |   |   |   |   |   |   |   |   |   |   |   age >= 39.5 : no (329/20)
|   |   |   |   |   |   |   |   |   |   |   |   |   age >= 40.5 : no (307/22)
|   |   |   |   |   |   |   |   |   |   |   |   age >= 41.5 : no (287/17)
|   |   |   |   |   |   |   |   |   age >= 42.5
|   |   |   |   |   |   |   |   |   |   age < 44.5
|   |   |   |   |   |   |   |   |   |   |   age < 43.5 : no (251/12)
|   |   |   |   |   |   |   |   |   |   |   age >= 43.5 : no (259/7)
|   |   |   |   |   |   |   |   |   |   age >= 44.5 : no (276/15)
|   |   |   |   |   |   |   |   age >= 45.5
|   |   |   |   |   |   |   |   |   age < 49.5
|   |   |   |   |   |   |   |   |   |   age < 46.5 : no (241/18)
|   |   |   |   |   |   |   |   |   |   age >= 46.5
|   |   |   |   |   |   |   |   |   |   |   age < 47.5 : no (238/24)
|   |   |   |   |   |   |   |   |   |   |   age >= 47.5
|   |   |   |   |   |   |   |   |   |   |   |   age < 48.5 : no (199/13)
|   |   |   |   |   |   |   |   |   |   |   |   age >= 48.5 : no (175/16)
|   |   |   |   |   |   |   |   |   age >= 49.5
|   |   |   |   |   |   |   |   |   |   age < 54.5
|   |   |   |   |   |   |   |   |   |   |   age < 53.5
|   |   |   |   |   |   |   |   |   |   |   |   age < 51.5
|   |   |   |   |   |   |   |   |   |   |   |   |   age < 50.5 : no (178/8)
|   |   |   |   |   |   |   |   |   |   |   |   |   age >= 50.5 : no (158/8)
|   |   |   |   |   |   |   |   |   |   |   |   age >= 51.5
|   |   |   |   |   |   |   |   |   |   |   |   |   age < 52.5 : no (155/11)
|   |   |   |   |   |   |   |   |   |   |   |   |   age >= 52.5 : no (155/8)
|   |   |   |   |   |   |   |   |   |   |   age >= 53.5 : no (137/5)
|   |   |   |   |   |   |   |   |   |   age >= 54.5
|   |   |   |   |   |   |   |   |   |   |   age < 56.5
|   |   |   |   |   |   |   |   |   |   |   |   age < 55.5 : no (127/9)
|   |   |   |   |   |   |   |   |   |   |   |   age >= 55.5 : no (105/7)
|   |   |   |   |   |   |   |   |   |   |   age >= 56.5 : no (107/5)
|   |   |   |   |   |   |   age >= 57.5
|   |   |   |   |   |   |   |   age < 59.5
|   |   |   |   |   |   |   |   |   age < 58.5 : no (101/8)
|   |   |   |   |   |   |   |   |   age >= 58.5 : no (70/9)
|   |   |   |   |   |   |   |   age >= 59.5 : no (51/3)
|   |   |   martial = single
|   |   |   |   age < 30.5
|   |   |   |   |   age < 20.5 : no (8/2)
|   |   |   |   |   age >= 20.5
|   |   |   |   |   |   age < 21.5 : no (15/0)
|   |   |   |   |   |   age >= 21.5
|   |   |   |   |   |   |   age < 27.5
|   |   |   |   |   |   |   |   age < 26.5
|   |   |   |   |   |   |   |   |   age < 24.5
|   |   |   |   |   |   |   |   |   |   age < 22.5 : no (41/3)
|   |   |   |   |   |   |   |   |   |   age >= 22.5 : no (189/16)
|   |   |   |   |   |   |   |   |   age >= 24.5
|   |   |   |   |   |   |   |   |   |   age < 25.5 : no (138/14)
|   |   |   |   |   |   |   |   |   |   age >= 25.5 : no (173/18)
|   |   |   |   |   |   |   |   age >= 26.5 : no (201/16)
|   |   |   |   |   |   |   age >= 27.5
|   |   |   |   |   |   |   |   age < 28.5 : no (232/27)
|   |   |   |   |   |   |   |   age >= 28.5
|   |   |   |   |   |   |   |   |   age < 29.5 : no (223/20)
|   |   |   |   |   |   |   |   |   age >= 29.5 : no (271/30)
|   |   |   |   age >= 30.5
|   |   |   |   |   age < 34.5
|   |   |   |   |   |   age < 31.5 : no (299/17)
|   |   |   |   |   |   age >= 31.5
|   |   |   |   |   |   |   age < 32.5 : no (290/23)
|   |   |   |   |   |   |   age >= 32.5
|   |   |   |   |   |   |   |   age < 33.5 : no (224/12)
|   |   |   |   |   |   |   |   age >= 33.5 : no (196/14)
|   |   |   |   |   age >= 34.5
|   |   |   |   |   |   age < 55.5
|   |   |   |   |   |   |   age < 53.5
|   |   |   |   |   |   |   |   age < 36.5
|   |   |   |   |   |   |   |   |   age < 35.5 : no (191/18)
|   |   |   |   |   |   |   |   |   age >= 35.5 : no (172/22)
|   |   |   |   |   |   |   |   age >= 36.5
|   |   |   |   |   |   |   |   |   age < 50.5
|   |   |   |   |   |   |   |   |   |   age < 49.5
|   |   |   |   |   |   |   |   |   |   |   age < 43.5
|   |   |   |   |   |   |   |   |   |   |   |   age < 40.5
|   |   |   |   |   |   |   |   |   |   |   |   |   age < 38.5
|   |   |   |   |   |   |   |   |   |   |   |   |   |   age < 37.5 : no (147/12)
|   |   |   |   |   |   |   |   |   |   |   |   |   |   age >= 37.5 : no (114/7)
|   |   |   |   |   |   |   |   |   |   |   |   |   age >= 38.5
|   |   |   |   |   |   |   |   |   |   |   |   |   |   age < 39.5 : no (112/12)
|   |   |   |   |   |   |   |   |   |   |   |   |   |   age >= 39.5 : no (98/7)
|   |   |   |   |   |   |   |   |   |   |   |   age >= 40.5
|   |   |   |   |   |   |   |   |   |   |   |   |   age < 42.5
|   |   |   |   |   |   |   |   |   |   |   |   |   |   age < 41.5 : no (76/8)
|   |   |   |   |   |   |   |   |   |   |   |   |   |   age >= 41.5 : no (69/7)
|   |   |   |   |   |   |   |   |   |   |   |   |   age >= 42.5 : no (64/9)
|   |   |   |   |   |   |   |   |   |   |   age >= 43.5
|   |   |   |   |   |   |   |   |   |   |   |   age < 46.5
|   |   |   |   |   |   |   |   |   |   |   |   |   age < 45.5
|   |   |   |   |   |   |   |   |   |   |   |   |   |   age < 44.5 : no (57/3)
|   |   |   |   |   |   |   |   |   |   |   |   |   |   age >= 44.5 : no (40/2)
|   |   |   |   |   |   |   |   |   |   |   |   |   age >= 45.5 : no (35/2)
|   |   |   |   |   |   |   |   |   |   |   |   age >= 46.5
|   |   |   |   |   |   |   |   |   |   |   |   |   age < 47.5 : no (21/3)
|   |   |   |   |   |   |   |   |   |   |   |   |   age >= 47.5
|   |   |   |   |   |   |   |   |   |   |   |   |   |   age < 48.5 : no (31/2)
|   |   |   |   |   |   |   |   |   |   |   |   |   |   age >= 48.5 : no (31/3)
|   |   |   |   |   |   |   |   |   |   age >= 49.5 : no (19/0)
|   |   |   |   |   |   |   |   |   age >= 50.5
|   |   |   |   |   |   |   |   |   |   age < 52.5
|   |   |   |   |   |   |   |   |   |   |   age < 51.5 : no (17/2)
|   |   |   |   |   |   |   |   |   |   |   age >= 51.5 : no (16/3)
|   |   |   |   |   |   |   |   |   |   age >= 52.5 : no (22/2)
|   |   |   |   |   |   |   age >= 53.5 : no (25/0)
|   |   |   |   |   |   age >= 55.5
|   |   |   |   |   |   |   age < 59.5
|   |   |   |   |   |   |   |   age < 58.5
|   |   |   |   |   |   |   |   |   age < 56.5 : no (15/2)
|   |   |   |   |   |   |   |   |   age >= 56.5 : no (18/3)
|   |   |   |   |   |   |   |   age >= 58.5 : no (8/2)
|   |   |   |   |   |   |   age >= 59.5 : no (5/0)
|   |   |   martial = divorced
|   |   |   |   age < 45.5
|   |   |   |   |   age < 29.5
|   |   |   |   |   |   age < 26.5 : no (13/0)
|   |   |   |   |   |   age >= 26.5
|   |   |   |   |   |   |   age < 28.5
|   |   |   |   |   |   |   |   age < 27.5 : no (12/2)
|   |   |   |   |   |   |   |   age >= 27.5 : no (6/3)
|   |   |   |   |   |   |   age >= 28.5 : no (22/4)
|   |   |   |   |   age >= 29.5
|   |   |   |   |   |   age < 44.5
|   |   |   |   |   |   |   age < 39.5
|   |   |   |   |   |   |   |   age < 34.5
|   |   |   |   |   |   |   |   |   age < 30.5 : no (38/4)
|   |   |   |   |   |   |   |   |   age >= 30.5
|   |   |   |   |   |   |   |   |   |   age < 32.5
|   |   |   |   |   |   |   |   |   |   |   age < 31.5 : no (42/3)
|   |   |   |   |   |   |   |   |   |   |   age >= 31.5 : no (59/1)
|   |   |   |   |   |   |   |   |   |   age >= 32.5 : no (140/10)
|   |   |   |   |   |   |   |   age >= 34.5
|   |   |   |   |   |   |   |   |   age < 37.5
|   |   |   |   |   |   |   |   |   |   age < 35.5 : no (66/6)
|   |   |   |   |   |   |   |   |   |   age >= 35.5
|   |   |   |   |   |   |   |   |   |   |   age < 36.5 : no (75/8)
|   |   |   |   |   |   |   |   |   |   |   age >= 36.5 : no (87/9)
|   |   |   |   |   |   |   |   |   age >= 37.5
|   |   |   |   |   |   |   |   |   |   age < 38.5 : no (71/10)
|   |   |   |   |   |   |   |   |   |   age >= 38.5 : no (76/8)
|   |   |   |   |   |   |   age >= 39.5
|   |   |   |   |   |   |   |   age < 40.5 : no (66/2)
|   |   |   |   |   |   |   |   age >= 40.5
|   |   |   |   |   |   |   |   |   age < 42.5
|   |   |   |   |   |   |   |   |   |   age < 41.5 : no (76/5)
|   |   |   |   |   |   |   |   |   |   age >= 41.5 : no (68/7)
|   |   |   |   |   |   |   |   |   age >= 42.5
|   |   |   |   |   |   |   |   |   |   age < 43.5 : no (59/1)
|   |   |   |   |   |   |   |   |   |   age >= 43.5 : no (79/7)
|   |   |   |   |   |   age >= 44.5 : no (56/9)
|   |   |   |   age >= 45.5
|   |   |   |   |   age < 58.5
|   |   |   |   |   |   age < 51.5
|   |   |   |   |   |   |   age < 50.5
|   |   |   |   |   |   |   |   age < 46.5 : no (59/2)
|   |   |   |   |   |   |   |   age >= 46.5
|   |   |   |   |   |   |   |   |   age < 48.5
|   |   |   |   |   |   |   |   |   |   age < 47.5 : no (47/2)
|   |   |   |   |   |   |   |   |   |   age >= 47.5 : no (50/3)
|   |   |   |   |   |   |   |   |   age >= 48.5
|   |   |   |   |   |   |   |   |   |   age < 49.5 : no (51/2)
|   |   |   |   |   |   |   |   |   |   age >= 49.5 : no (47/2)
|   |   |   |   |   |   |   age >= 50.5 : no (45/0)
|   |   |   |   |   |   age >= 51.5
|   |   |   |   |   |   |   age < 55.5
|   |   |   |   |   |   |   |   age < 54.5
|   |   |   |   |   |   |   |   |   age < 52.5 : no (37/3)
|   |   |   |   |   |   |   |   |   age >= 52.5
|   |   |   |   |   |   |   |   |   |   age < 53.5 : no (48/3)
|   |   |   |   |   |   |   |   |   |   age >= 53.5 : no (45/3)
|   |   |   |   |   |   |   |   age >= 54.5 : no (31/4)
|   |   |   |   |   |   |   age >= 55.5
|   |   |   |   |   |   |   |   age < 57.5
|   |   |   |   |   |   |   |   |   age < 56.5 : no (29/1)
|   |   |   |   |   |   |   |   |   age >= 56.5 : no (36/0)
|   |   |   |   |   |   |   |   age >= 57.5 : no (22/2)
|   |   |   |   |   age >= 58.5
|   |   |   |   |   |   age < 59.5 : no (18/2)
|   |   |   |   |   |   age >= 59.5 : no (24/5)
|   |   housing = no
|   |   |   martial = married
|   |   |   |   age < 59.5
|   |   |   |   |   age < 34.5
|   |   |   |   |   |   age < 32.5
|   |   |   |   |   |   |   age < 28.5
|   |   |   |   |   |   |   |   age < 23.5 : yes (1/0)
|   |   |   |   |   |   |   |   age >= 23.5
|   |   |   |   |   |   |   |   |   age < 27.5
|   |   |   |   |   |   |   |   |   |   age < 26.5
|   |   |   |   |   |   |   |   |   |   |   age < 24.5 : no (4/1)
|   |   |   |   |   |   |   |   |   |   |   age >= 24.5
|   |   |   |   |   |   |   |   |   |   |   |   age < 25.5 : no (11/2)
|   |   |   |   |   |   |   |   |   |   |   |   age >= 25.5 : no (28/5)
|   |   |   |   |   |   |   |   |   |   age >= 26.5 : no (33/7)
|   |   |   |   |   |   |   |   |   age >= 27.5 : no (39/6)
|   |   |   |   |   |   |   age >= 28.5
|   |   |   |   |   |   |   |   age < 31.5
|   |   |   |   |   |   |   |   |   age < 30.5
|   |   |   |   |   |   |   |   |   |   age < 29.5 : no (58/6)
|   |   |   |   |   |   |   |   |   |   age >= 29.5 : no (95/10)
|   |   |   |   |   |   |   |   |   age >= 30.5 : no (129/13)
|   |   |   |   |   |   |   |   age >= 31.5 : no (142/18)
|   |   |   |   |   |   age >= 32.5
|   |   |   |   |   |   |   age < 33.5 : no (153/31)
|   |   |   |   |   |   |   age >= 33.5 : no (144/24)
|   |   |   |   |   age >= 34.5
|   |   |   |   |   |   age < 44.5
|   |   |   |   |   |   |   age < 43.5
|   |   |   |   |   |   |   |   age < 40.5
|   |   |   |   |   |   |   |   |   age < 35.5 : no (157/16)
|   |   |   |   |   |   |   |   |   age >= 35.5
|   |   |   |   |   |   |   |   |   |   age < 39.5
|   |   |   |   |   |   |   |   |   |   |   age < 38.5
|   |   |   |   |   |   |   |   |   |   |   |   age < 37.5
|   |   |   |   |   |   |   |   |   |   |   |   |   age < 36.5 : no (163/19)
|   |   |   |   |   |   |   |   |   |   |   |   |   age >= 36.5 : no (175/22)
|   |   |   |   |   |   |   |   |   |   |   |   age >= 37.5 : no (167/18)
|   |   |   |   |   |   |   |   |   |   |   age >= 38.5 : no (166/22)
|   |   |   |   |   |   |   |   |   |   age >= 39.5 : no (168/18)
|   |   |   |   |   |   |   |   age >= 40.5
|   |   |   |   |   |   |   |   |   age < 42.5
|   |   |   |   |   |   |   |   |   |   age < 41.5 : no (144/14)
|   |   |   |   |   |   |   |   |   |   age >= 41.5 : no (139/6)
|   |   |   |   |   |   |   |   |   age >= 42.5 : no (123/17)
|   |   |   |   |   |   |   age >= 43.5 : no (141/6)
|   |   |   |   |   |   age >= 44.5
|   |   |   |   |   |   |   age < 47.5
|   |   |   |   |   |   |   |   age < 46.5
|   |   |   |   |   |   |   |   |   age < 45.5 : no (184/24)
|   |   |   |   |   |   |   |   |   age >= 45.5 : no (187/27)
|   |   |   |   |   |   |   |   age >= 46.5 : no (197/32)
|   |   |   |   |   |   |   age >= 47.5
|   |   |   |   |   |   |   |   age < 49.5
|   |   |   |   |   |   |   |   |   age < 48.5 : no (173/14)
|   |   |   |   |   |   |   |   |   age >= 48.5 : no (181/15)
|   |   |   |   |   |   |   |   age >= 49.5
|   |   |   |   |   |   |   |   |   age < 54.5
|   |   |   |   |   |   |   |   |   |   age < 53.5
|   |   |   |   |   |   |   |   |   |   |   age < 51.5
|   |   |   |   |   |   |   |   |   |   |   |   age < 50.5 : no (148/18)
|   |   |   |   |   |   |   |   |   |   |   |   age >= 50.5 : no (162/14)
|   |   |   |   |   |   |   |   |   |   |   age >= 51.5
|   |   |   |   |   |   |   |   |   |   |   |   age < 52.5 : no (191/23)
|   |   |   |   |   |   |   |   |   |   |   |   age >= 52.5 : no (145/19)
|   |   |   |   |   |   |   |   |   |   age >= 53.5 : no (125/25)
|   |   |   |   |   |   |   |   |   age >= 54.5
|   |   |   |   |   |   |   |   |   |   age < 58.5
|   |   |   |   |   |   |   |   |   |   |   age < 57.5
|   |   |   |   |   |   |   |   |   |   |   |   age < 56.5
|   |   |   |   |   |   |   |   |   |   |   |   |   age < 55.5 : no (158/16)
|   |   |   |   |   |   |   |   |   |   |   |   |   age >= 55.5 : no (157/15)
|   |   |   |   |   |   |   |   |   |   |   |   age >= 56.5 : no (170/15)
|   |   |   |   |   |   |   |   |   |   |   age >= 57.5 : no (150/16)
|   |   |   |   |   |   |   |   |   |   age >= 58.5 : no (169/23)
|   |   |   |   age >= 59.5 : no (147/32)
|   |   |   martial = single
|   |   |   |   age < 25.5
|   |   |   |   |   age < 20.5
|   |   |   |   |   |   age < 18.5 : no (2/0)
|   |   |   |   |   |   age >= 18.5
|   |   |   |   |   |   |   age < 19.5 : no (17/5)
|   |   |   |   |   |   |   age >= 19.5 : no (18/6)
|   |   |   |   |   age >= 20.5
|   |   |   |   |   |   age < 24.5
|   |   |   |   |   |   |   age < 21.5 : no (36/14)
|   |   |   |   |   |   |   age >= 21.5
|   |   |   |   |   |   |   |   age < 23.5
|   |   |   |   |   |   |   |   |   age < 22.5 : yes (47/23)
|   |   |   |   |   |   |   |   |   age >= 22.5 : no (43/21)
|   |   |   |   |   |   |   |   age >= 23.5 : no (68/29)
|   |   |   |   |   |   age >= 24.5 : no (127/48)
|   |   |   |   age >= 25.5
|   |   |   |   |   age < 29.5
|   |   |   |   |   |   age < 26.5 : no (193/45)
|   |   |   |   |   |   age >= 26.5
|   |   |   |   |   |   |   age < 27.5 : no (173/35)
|   |   |   |   |   |   |   age >= 27.5
|   |   |   |   |   |   |   |   age < 28.5 : no (168/39)
|   |   |   |   |   |   |   |   age >= 28.5 : no (145/33)
|   |   |   |   |   age >= 29.5
|   |   |   |   |   |   age < 59.5
|   |   |   |   |   |   |   age < 50.5
|   |   |   |   |   |   |   |   age < 38.5
|   |   |   |   |   |   |   |   |   age < 30.5 : no (224/34)
|   |   |   |   |   |   |   |   |   age >= 30.5
|   |   |   |   |   |   |   |   |   |   age < 37.5
|   |   |   |   |   |   |   |   |   |   |   age < 36.5
|   |   |   |   |   |   |   |   |   |   |   |   age < 32.5
|   |   |   |   |   |   |   |   |   |   |   |   |   age < 31.5 : no (205/25)
|   |   |   |   |   |   |   |   |   |   |   |   |   age >= 31.5 : no (150/19)
|   |   |   |   |   |   |   |   |   |   |   |   age >= 32.5
|   |   |   |   |   |   |   |   |   |   |   |   |   age < 33.5 : no (122/14)
|   |   |   |   |   |   |   |   |   |   |   |   |   age >= 33.5
|   |   |   |   |   |   |   |   |   |   |   |   |   |   age < 34.5 : no (114/14)
|   |   |   |   |   |   |   |   |   |   |   |   |   |   age >= 34.5
|   |   |   |   |   |   |   |   |   |   |   |   |   |   |   age < 35.5 : no (92/11)
|   |   |   |   |   |   |   |   |   |   |   |   |   |   |   age >= 35.5 : no (98/12)
|   |   |   |   |   |   |   |   |   |   |   age >= 36.5 : no (90/12)
|   |   |   |   |   |   |   |   |   |   age >= 37.5 : no (76/12)
|   |   |   |   |   |   |   |   age >= 38.5
|   |   |   |   |   |   |   |   |   age < 43.5
|   |   |   |   |   |   |   |   |   |   age < 41.5
|   |   |   |   |   |   |   |   |   |   |   age < 40.5
|   |   |   |   |   |   |   |   |   |   |   |   age < 39.5 : no (62/6)
|   |   |   |   |   |   |   |   |   |   |   |   age >= 39.5 : no (41/4)
|   |   |   |   |   |   |   |   |   |   |   age >= 40.5 : no (47/5)
|   |   |   |   |   |   |   |   |   |   age >= 41.5
|   |   |   |   |   |   |   |   |   |   |   age < 42.5 : no (40/2)
|   |   |   |   |   |   |   |   |   |   |   age >= 42.5 : no (28/2)
|   |   |   |   |   |   |   |   |   age >= 43.5
|   |   |   |   |   |   |   |   |   |   age < 44.5 : no (29/8)
|   |   |   |   |   |   |   |   |   |   age >= 44.5
|   |   |   |   |   |   |   |   |   |   |   age < 45.5 : no (32/1)
|   |   |   |   |   |   |   |   |   |   |   age >= 45.5
|   |   |   |   |   |   |   |   |   |   |   |   age < 48.5
|   |   |   |   |   |   |   |   |   |   |   |   |   age < 47.5
|   |   |   |   |   |   |   |   |   |   |   |   |   |   age < 46.5 : no (26/3)
|   |   |   |   |   |   |   |   |   |   |   |   |   |   age >= 46.5 : no (19/2)
|   |   |   |   |   |   |   |   |   |   |   |   |   age >= 47.5 : no (26/1)
|   |   |   |   |   |   |   |   |   |   |   |   age >= 48.5
|   |   |   |   |   |   |   |   |   |   |   |   |   age < 49.5 : no (15/3)
|   |   |   |   |   |   |   |   |   |   |   |   |   age >= 49.5 : no (21/2)
|   |   |   |   |   |   |   age >= 50.5
|   |   |   |   |   |   |   |   age < 54.5
|   |   |   |   |   |   |   |   |   age < 51.5 : no (11/3)
|   |   |   |   |   |   |   |   |   age >= 51.5
|   |   |   |   |   |   |   |   |   |   age < 52.5 : no (9/1)
|   |   |   |   |   |   |   |   |   |   age >= 52.5
|   |   |   |   |   |   |   |   |   |   |   age < 53.5 : no (18/4)
|   |   |   |   |   |   |   |   |   |   |   age >= 53.5 : no (16/4)
|   |   |   |   |   |   |   |   age >= 54.5
|   |   |   |   |   |   |   |   |   age < 55.5 : no (12/0)
|   |   |   |   |   |   |   |   |   age >= 55.5
|   |   |   |   |   |   |   |   |   |   age < 56.5 : no (6/2)
|   |   |   |   |   |   |   |   |   |   age >= 56.5
|   |   |   |   |   |   |   |   |   |   |   age < 58.5
|   |   |   |   |   |   |   |   |   |   |   |   age < 57.5 : no (13/2)
|   |   |   |   |   |   |   |   |   |   |   |   age >= 57.5 : no (9/0)
|   |   |   |   |   |   |   |   |   |   |   age >= 58.5 : no (14/3)
|   |   |   |   |   |   age >= 59.5 : no (8/0)
|   |   |   martial = divorced
|   |   |   |   age < 53.5
|   |   |   |   |   age < 31.5
|   |   |   |   |   |   age < 30.5
|   |   |   |   |   |   |   age < 29.5 : no (16/0)
|   |   |   |   |   |   |   age >= 29.5 : no (10/1)
|   |   |   |   |   |   age >= 30.5 : no (17/0)
|   |   |   |   |   age >= 31.5
|   |   |   |   |   |   age < 41.5
|   |   |   |   |   |   |   age < 40.5
|   |   |   |   |   |   |   |   age < 36.5
|   |   |   |   |   |   |   |   |   age < 35.5
|   |   |   |   |   |   |   |   |   |   age < 33.5
|   |   |   |   |   |   |   |   |   |   |   age < 32.5 : no (23/2)
|   |   |   |   |   |   |   |   |   |   |   age >= 32.5 : no (26/3)
|   |   |   |   |   |   |   |   |   |   age >= 33.5
|   |   |   |   |   |   |   |   |   |   |   age < 34.5 : no (26/2)
|   |   |   |   |   |   |   |   |   |   |   age >= 34.5 : no (42/4)
|   |   |   |   |   |   |   |   |   age >= 35.5 : no (33/5)
|   |   |   |   |   |   |   |   age >= 36.5
|   |   |   |   |   |   |   |   |   age < 37.5 : no (29/0)
|   |   |   |   |   |   |   |   |   age >= 37.5
|   |   |   |   |   |   |   |   |   |   age < 38.5 : no (31/4)
|   |   |   |   |   |   |   |   |   |   age >= 38.5
|   |   |   |   |   |   |   |   |   |   |   age < 39.5 : no (37/2)
|   |   |   |   |   |   |   |   |   |   |   age >= 39.5 : no (41/5)
|   |   |   |   |   |   |   age >= 40.5 : no (27/1)
|   |   |   |   |   |   age >= 41.5
|   |   |   |   |   |   |   age < 51.5
|   |   |   |   |   |   |   |   age < 50.5
|   |   |   |   |   |   |   |   |   age < 46.5
|   |   |   |   |   |   |   |   |   |   age < 45.5
|   |   |   |   |   |   |   |   |   |   |   age < 44.5
|   |   |   |   |   |   |   |   |   |   |   |   age < 43.5
|   |   |   |   |   |   |   |   |   |   |   |   |   age < 42.5 : no (44/6)
|   |   |   |   |   |   |   |   |   |   |   |   |   age >= 42.5 : no (29/4)
|   |   |   |   |   |   |   |   |   |   |   |   age >= 43.5 : no (31/5)
|   |   |   |   |   |   |   |   |   |   |   age >= 44.5 : no (38/3)
|   |   |   |   |   |   |   |   |   |   age >= 45.5 : no (45/8)
|   |   |   |   |   |   |   |   |   age >= 46.5
|   |   |   |   |   |   |   |   |   |   age < 47.5 : no (48/3)
|   |   |   |   |   |   |   |   |   |   age >= 47.5
|   |   |   |   |   |   |   |   |   |   |   age < 48.5 : no (36/6)
|   |   |   |   |   |   |   |   |   |   |   age >= 48.5
|   |   |   |   |   |   |   |   |   |   |   |   age < 49.5 : no (37/5)
|   |   |   |   |   |   |   |   |   |   |   |   age >= 49.5 : no (35/4)
|   |   |   |   |   |   |   |   age >= 50.5 : no (29/5)
|   |   |   |   |   |   |   age >= 51.5
|   |   |   |   |   |   |   |   age < 52.5 : no (40/2)
|   |   |   |   |   |   |   |   age >= 52.5 : no (36/3)
|   |   |   |   age >= 53.5
|   |   |   |   |   age < 59.5
|   |   |   |   |   |   age < 55.5
|   |   |   |   |   |   |   age < 54.5 : no (36/9)
|   |   |   |   |   |   |   age >= 54.5 : no (41/9)
|   |   |   |   |   |   age >= 55.5
|   |   |   |   |   |   |   age < 57.5
|   |   |   |   |   |   |   |   age < 56.5 : no (36/3)
|   |   |   |   |   |   |   |   age >= 56.5 : no (27/3)
|   |   |   |   |   |   |   age >= 57.5
|   |   |   |   |   |   |   |   age < 58.5 : no (32/6)
|   |   |   |   |   |   |   |   age >= 58.5 : no (44/7)
|   |   |   |   |   age >= 59.5 : no (31/10)
|   education = unknown
|   |   housing = yes
|   |   |   age < 55.5
|   |   |   |   age < 53.5
|   |   |   |   |   age < 32.5
|   |   |   |   |   |   age < 29.5
|   |   |   |   |   |   |   age < 22 : no (4/0)
|   |   |   |   |   |   |   age >= 22
|   |   |   |   |   |   |   |   martial = married
|   |   |   |   |   |   |   |   |   age < 27.5
|   |   |   |   |   |   |   |   |   |   age < 25.5 : no (2/1)
|   |   |   |   |   |   |   |   |   |   age >= 25.5
|   |   |   |   |   |   |   |   |   |   |   age < 26.5 : no (3/0)
|   |   |   |   |   |   |   |   |   |   |   age >= 26.5 : no (5/1)
|   |   |   |   |   |   |   |   |   age >= 27.5 : no (10/0)
|   |   |   |   |   |   |   |   martial = single
|   |   |   |   |   |   |   |   |   age < 27.5
|   |   |   |   |   |   |   |   |   |   age < 23.5 : no (6/1)
|   |   |   |   |   |   |   |   |   |   age >= 23.5 : no (22/0)
|   |   |   |   |   |   |   |   |   age >= 27.5
|   |   |   |   |   |   |   |   |   |   age < 28.5 : no (9/2)
|   |   |   |   |   |   |   |   |   |   age >= 28.5 : no (5/1)
|   |   |   |   |   |   |   |   martial = divorced : no (4/0)
|   |   |   |   |   |   age >= 29.5 : no (64/0)
|   |   |   |   |   age >= 32.5
|   |   |   |   |   |   age < 33.5
|   |   |   |   |   |   |   martial = married : no (7/0)
|   |   |   |   |   |   |   martial = single : no (9/3)
|   |   |   |   |   |   |   martial = divorced : no (3/1)
|   |   |   |   |   |   age >= 33.5
|   |   |   |   |   |   |   age < 35.5
|   |   |   |   |   |   |   |   martial = married
|   |   |   |   |   |   |   |   |   age < 34.5 : no (15/0)
|   |   |   |   |   |   |   |   |   age >= 34.5 : no (15/3)
|   |   |   |   |   |   |   |   martial = single
|   |   |   |   |   |   |   |   |   age < 34.5 : no (8/2)
|   |   |   |   |   |   |   |   |   age >= 34.5 : no (10/0)
|   |   |   |   |   |   |   |   martial = divorced : no (3/0)
|   |   |   |   |   |   |   age >= 35.5
|   |   |   |   |   |   |   |   age < 38.5
|   |   |   |   |   |   |   |   |   age < 36.5
|   |   |   |   |   |   |   |   |   |   martial = married : no (16/0)
|   |   |   |   |   |   |   |   |   |   martial = single : no (6/1)
|   |   |   |   |   |   |   |   |   |   martial = divorced : no (1/0)
|   |   |   |   |   |   |   |   |   age >= 36.5 : no (58/0)
|   |   |   |   |   |   |   |   age >= 38.5
|   |   |   |   |   |   |   |   |   age < 46.5
|   |   |   |   |   |   |   |   |   |   martial = married
|   |   |   |   |   |   |   |   |   |   |   age < 43.5
|   |   |   |   |   |   |   |   |   |   |   |   age < 42.5
|   |   |   |   |   |   |   |   |   |   |   |   |   age < 40.5
|   |   |   |   |   |   |   |   |   |   |   |   |   |   age < 39.5 : no (14/2)
|   |   |   |   |   |   |   |   |   |   |   |   |   |   age >= 39.5 : no (19/2)
|   |   |   |   |   |   |   |   |   |   |   |   |   age >= 40.5
|   |   |   |   |   |   |   |   |   |   |   |   |   |   age < 41.5 : no (19/0)
|   |   |   |   |   |   |   |   |   |   |   |   |   |   age >= 41.5 : no (27/3)
|   |   |   |   |   |   |   |   |   |   |   |   age >= 42.5 : no (21/0)
|   |   |   |   |   |   |   |   |   |   |   age >= 43.5
|   |   |   |   |   |   |   |   |   |   |   |   age < 44.5 : no (17/3)
|   |   |   |   |   |   |   |   |   |   |   |   age >= 44.5
|   |   |   |   |   |   |   |   |   |   |   |   |   age < 45.5 : no (23/2)
|   |   |   |   |   |   |   |   |   |   |   |   |   age >= 45.5 : no (27/3)
|   |   |   |   |   |   |   |   |   |   martial = single
|   |   |   |   |   |   |   |   |   |   |   age < 41.5
|   |   |   |   |   |   |   |   |   |   |   |   age < 39.5 : no (9/1)
|   |   |   |   |   |   |   |   |   |   |   |   age >= 39.5
|   |   |   |   |   |   |   |   |   |   |   |   |   age < 40.5 : no (11/1)
|   |   |   |   |   |   |   |   |   |   |   |   |   age >= 40.5 : no (10/1)
|   |   |   |   |   |   |   |   |   |   |   age >= 41.5 : no (23/0)
|   |   |   |   |   |   |   |   |   |   martial = divorced
|   |   |   |   |   |   |   |   |   |   |   age < 40.5 : no (11/0)
|   |   |   |   |   |   |   |   |   |   |   age >= 40.5
|   |   |   |   |   |   |   |   |   |   |   |   age < 41.5 : yes (1/0)
|   |   |   |   |   |   |   |   |   |   |   |   age >= 41.5 : no (8/0)
|   |   |   |   |   |   |   |   |   age >= 46.5
|   |   |   |   |   |   |   |   |   |   age < 48.5
|   |   |   |   |   |   |   |   |   |   |   age < 47.5
|   |   |   |   |   |   |   |   |   |   |   |   martial = married : no (29/1)
|   |   |   |   |   |   |   |   |   |   |   |   martial = single : no (2/0)
|   |   |   |   |   |   |   |   |   |   |   |   martial = divorced : no (3/0)
|   |   |   |   |   |   |   |   |   |   |   age >= 47.5 : no (23/0)
|   |   |   |   |   |   |   |   |   |   age >= 48.5
|   |   |   |   |   |   |   |   |   |   |   martial = married
|   |   |   |   |   |   |   |   |   |   |   |   age < 49.5 : no (12/0)
|   |   |   |   |   |   |   |   |   |   |   |   age >= 49.5
|   |   |   |   |   |   |   |   |   |   |   |   |   age < 51.5
|   |   |   |   |   |   |   |   |   |   |   |   |   |   age < 50.5 : no (12/1)
|   |   |   |   |   |   |   |   |   |   |   |   |   |   age >= 50.5 : no (27/2)
|   |   |   |   |   |   |   |   |   |   |   |   |   age >= 51.5
|   |   |   |   |   |   |   |   |   |   |   |   |   |   age < 52.5 : no (19/2)
|   |   |   |   |   |   |   |   |   |   |   |   |   |   age >= 52.5 : no (13/1)
|   |   |   |   |   |   |   |   |   |   |   martial = single : no (6/0)
|   |   |   |   |   |   |   |   |   |   |   martial = divorced
|   |   |   |   |   |   |   |   |   |   |   |   age < 49.5 : no (3/1)
|   |   |   |   |   |   |   |   |   |   |   |   age >= 49.5 : no (12/0)
|   |   |   |   age >= 53.5
|   |   |   |   |   martial = married
|   |   |   |   |   |   age < 54.5 : no (17/2)
|   |   |   |   |   |   age >= 54.5 : no (20/3)
|   |   |   |   |   martial = single : no (2/0)
|   |   |   |   |   martial = divorced
|   |   |   |   |   |   age < 54.5 : no (4/1)
|   |   |   |   |   |   age >= 54.5 : no (6/0)
|   |   |   age >= 55.5
|   |   |   |   age < 59.5 : no (54/0)
|   |   |   |   age >= 59.5
|   |   |   |   |   martial = married : no (16/2)
|   |   |   |   |   martial = single : no (0/0)
|   |   |   |   |   martial = divorced : no (3/0)
|   |   housing = no
|   |   |   age < 29.5
|   |   |   |   martial = married
|   |   |   |   |   age < 25.5
|   |   |   |   |   |   age < 24.5
|   |   |   |   |   |   |   age < 22 : no (2/1)
|   |   |   |   |   |   |   age >= 22 : no (3/1)
|   |   |   |   |   |   age >= 24.5 : yes (1/0)
|   |   |   |   |   age >= 25.5 : no (4/0)
|   |   |   |   martial = single
|   |   |   |   |   age < 18.5 : yes (7/2)
|   |   |   |   |   age >= 18.5
|   |   |   |   |   |   age < 21.5
|   |   |   |   |   |   |   age < 19.5 : no (9/3)
|   |   |   |   |   |   |   age >= 19.5
|   |   |   |   |   |   |   |   age < 20.5 : no (12/5)
|   |   |   |   |   |   |   |   age >= 20.5 : no (6/3)
|   |   |   |   |   |   age >= 21.5
|   |   |   |   |   |   |   age < 27.5
|   |   |   |   |   |   |   |   age < 25.5
|   |   |   |   |   |   |   |   |   age < 24.5
|   |   |   |   |   |   |   |   |   |   age < 23.5
|   |   |   |   |   |   |   |   |   |   |   age < 22.5 : no (11/3)
|   |   |   |   |   |   |   |   |   |   |   age >= 22.5 : no (3/1)
|   |   |   |   |   |   |   |   |   |   age >= 23.5 : no (11/2)
|   |   |   |   |   |   |   |   |   age >= 24.5 : no (15/6)
|   |   |   |   |   |   |   |   age >= 25.5
|   |   |   |   |   |   |   |   |   age < 26.5 : no (9/1)
|   |   |   |   |   |   |   |   |   age >= 26.5 : no (14/3)
|   |   |   |   |   |   |   age >= 27.5
|   |   |   |   |   |   |   |   age < 28.5 : no (7/3)
|   |   |   |   |   |   |   |   age >= 28.5 : no (18/6)
|   |   |   |   martial = divorced : no (1/0)
|   |   |   age >= 29.5
|   |   |   |   martial = married
|   |   |   |   |   age < 44.5
|   |   |   |   |   |   age < 34.5
|   |   |   |   |   |   |   age < 33.5
|   |   |   |   |   |   |   |   age < 30.5 : no (4/0)
|   |   |   |   |   |   |   |   age >= 30.5
|   |   |   |   |   |   |   |   |   age < 31.5 : no (5/1)
|   |   |   |   |   |   |   |   |   age >= 31.5
|   |   |   |   |   |   |   |   |   |   age < 32.5 : no (7/0)
|   |   |   |   |   |   |   |   |   |   age >= 32.5 : no (5/1)
|   |   |   |   |   |   |   age >= 33.5 : no (8/0)
|   |   |   |   |   |   age >= 34.5
|   |   |   |   |   |   |   age < 43.5
|   |   |   |   |   |   |   |   age < 42.5
|   |   |   |   |   |   |   |   |   age < 38.5
|   |   |   |   |   |   |   |   |   |   age < 37.5
|   |   |   |   |   |   |   |   |   |   |   age < 35.5 : no (12/3)
|   |   |   |   |   |   |   |   |   |   |   age >= 35.5
|   |   |   |   |   |   |   |   |   |   |   |   age < 36.5 : no (14/2)
|   |   |   |   |   |   |   |   |   |   |   |   age >= 36.5 : no (16/3)
|   |   |   |   |   |   |   |   |   |   age >= 37.5 : no (16/4)
|   |   |   |   |   |   |   |   |   age >= 38.5
|   |   |   |   |   |   |   |   |   |   age < 40.5
|   |   |   |   |   |   |   |   |   |   |   age < 39.5 : no (13/1)
|   |   |   |   |   |   |   |   |   |   |   age >= 39.5 : no (4/0)
|   |   |   |   |   |   |   |   |   |   age >= 40.5
|   |   |   |   |   |   |   |   |   |   |   age < 41.5 : no (10/2)
|   |   |   |   |   |   |   |   |   |   |   age >= 41.5 : no (23/4)
|   |   |   |   |   |   |   |   age >= 42.5 : no (10/0)
|   |   |   |   |   |   |   age >= 43.5 : no (10/3)
|   |   |   |   |   age >= 44.5
|   |   |   |   |   |   age < 53.5
|   |   |   |   |   |   |   age < 47.5
|   |   |   |   |   |   |   |   age < 45.5 : no (29/2)
|   |   |   |   |   |   |   |   age >= 45.5
|   |   |   |   |   |   |   |   |   age < 46.5 : no (26/4)
|   |   |   |   |   |   |   |   |   age >= 46.5 : no (30/3)
|   |   |   |   |   |   |   age >= 47.5
|   |   |   |   |   |   |   |   age < 49.5 : no (31/0)
|   |   |   |   |   |   |   |   age >= 49.5
|   |   |   |   |   |   |   |   |   age < 52.5
|   |   |   |   |   |   |   |   |   |   age < 51.5
|   |   |   |   |   |   |   |   |   |   |   age < 50.5 : no (18/2)
|   |   |   |   |   |   |   |   |   |   |   age >= 50.5 : no (22/1)
|   |   |   |   |   |   |   |   |   |   age >= 51.5 : no (19/3)
|   |   |   |   |   |   |   |   |   age >= 52.5 : no (29/1)
|   |   |   |   |   |   age >= 53.5
|   |   |   |   |   |   |   age < 55.5
|   |   |   |   |   |   |   |   age < 54.5 : no (24/3)
|   |   |   |   |   |   |   |   age >= 54.5 : no (20/6)
|   |   |   |   |   |   |   age >= 55.5
|   |   |   |   |   |   |   |   age < 59.5
|   |   |   |   |   |   |   |   |   age < 58.5
|   |   |   |   |   |   |   |   |   |   age < 56.5 : no (30/2)
|   |   |   |   |   |   |   |   |   |   age >= 56.5
|   |   |   |   |   |   |   |   |   |   |   age < 57.5 : no (26/4)
|   |   |   |   |   |   |   |   |   |   |   age >= 57.5 : no (25/3)
|   |   |   |   |   |   |   |   |   age >= 58.5 : no (28/1)
|   |   |   |   |   |   |   |   age >= 59.5 : no (24/4)
|   |   |   |   martial = single
|   |   |   |   |   age < 48.5
|   |   |   |   |   |   age < 40.5
|   |   |   |   |   |   |   age < 37.5
|   |   |   |   |   |   |   |   age < 35.5
|   |   |   |   |   |   |   |   |   age < 33.5
|   |   |   |   |   |   |   |   |   |   age < 31.5
|   |   |   |   |   |   |   |   |   |   |   age < 30.5 : no (10/2)
|   |   |   |   |   |   |   |   |   |   |   age >= 30.5 : no (12/1)
|   |   |   |   |   |   |   |   |   |   age >= 31.5
|   |   |   |   |   |   |   |   |   |   |   age < 32.5 : no (16/3)
|   |   |   |   |   |   |   |   |   |   |   age >= 32.5 : no (10/2)
|   |   |   |   |   |   |   |   |   age >= 33.5 : no (24/2)
|   |   |   |   |   |   |   |   age >= 35.5
|   |   |   |   |   |   |   |   |   age < 36.5 : no (13/4)
|   |   |   |   |   |   |   |   |   age >= 36.5 : no (8/3)
|   |   |   |   |   |   |   age >= 37.5 : no (17/0)
|   |   |   |   |   |   age >= 40.5
|   |   |   |   |   |   |   age < 43.5
|   |   |   |   |   |   |   |   age < 41.5 : no (7/2)
|   |   |   |   |   |   |   |   age >= 41.5 : no (21/7)
|   |   |   |   |   |   |   age >= 43.5
|   |   |   |   |   |   |   |   age < 44.5 : no (8/1)
|   |   |   |   |   |   |   |   age >= 44.5
|   |   |   |   |   |   |   |   |   age < 45.5 : no (3/1)
|   |   |   |   |   |   |   |   |   age >= 45.5
|   |   |   |   |   |   |   |   |   |   age < 47.5
|   |   |   |   |   |   |   |   |   |   |   age < 46.5 : no (6/1)
|   |   |   |   |   |   |   |   |   |   |   age >= 46.5 : no (5/1)
|   |   |   |   |   |   |   |   |   |   age >= 47.5 : no (4/1)
|   |   |   |   |   age >= 48.5
|   |   |   |   |   |   age < 52.5
|   |   |   |   |   |   |   age < 51.5 : no (13/0)
|   |   |   |   |   |   |   age >= 51.5 : no (3/1)
|   |   |   |   |   |   age >= 52.5 : no (16/0)
|   |   |   |   martial = divorced
|   |   |   |   |   age < 53.5
|   |   |   |   |   |   age < 52.5
|   |   |   |   |   |   |   age < 50.5
|   |   |   |   |   |   |   |   age < 46.5
|   |   |   |   |   |   |   |   |   age < 43.5
|   |   |   |   |   |   |   |   |   |   age < 42.5
|   |   |   |   |   |   |   |   |   |   |   age < 38.5
|   |   |   |   |   |   |   |   |   |   |   |   age < 36.5
|   |   |   |   |   |   |   |   |   |   |   |   |   age < 32.5 : no (1/0)
|   |   |   |   |   |   |   |   |   |   |   |   |   age >= 32.5
|   |   |   |   |   |   |   |   |   |   |   |   |   |   age < 34.5 : no (2/1)
|   |   |   |   |   |   |   |   |   |   |   |   |   |   age >= 34.5 : no (3/1)
|   |   |   |   |   |   |   |   |   |   |   |   age >= 36.5 : yes (1/0)
|   |   |   |   |   |   |   |   |   |   |   age >= 38.5
|   |   |   |   |   |   |   |   |   |   |   |   age < 41.5 : no (6/0)
|   |   |   |   |   |   |   |   |   |   |   |   age >= 41.5 : no (3/1)
|   |   |   |   |   |   |   |   |   |   age >= 42.5 : no (6/3)
|   |   |   |   |   |   |   |   |   age >= 43.5
|   |   |   |   |   |   |   |   |   |   age < 44.5 : no (4/0)
|   |   |   |   |   |   |   |   |   |   age >= 44.5
|   |   |   |   |   |   |   |   |   |   |   age < 45.5 : no (4/1)
|   |   |   |   |   |   |   |   |   |   |   age >= 45.5 : no (3/0)
|   |   |   |   |   |   |   |   age >= 46.5
|   |   |   |   |   |   |   |   |   age < 47.5 : yes (1/0)
|   |   |   |   |   |   |   |   |   age >= 47.5
|   |   |   |   |   |   |   |   |   |   age < 48.5 : no (3/1)
|   |   |   |   |   |   |   |   |   |   age >= 48.5 : no (6/3)
|   |   |   |   |   |   |   age >= 50.5 : no (3/0)
|   |   |   |   |   |   age >= 52.5 : yes (1/0)
|   |   |   |   |   age >= 53.5
|   |   |   |   |   |   age < 56.5 : no (11/0)
|   |   |   |   |   |   age >= 56.5
|   |   |   |   |   |   |   age < 58.5
|   |   |   |   |   |   |   |   age < 57.5 : no (12/3)
|   |   |   |   |   |   |   |   age >= 57.5 : no (2/1)
|   |   |   |   |   |   |   age >= 58.5 : no (2/0)
|   education = primary
|   |   age < 25.5
|   |   |   housing = yes
|   |   |   |   martial = married
|   |   |   |   |   age < 21.5
|   |   |   |   |   |   age < 20.5 : no (1/0)
|   |   |   |   |   |   age >= 20.5 : yes (1/0)
|   |   |   |   |   age >= 21.5
|   |   |   |   |   |   age < 23.5 : no (4/0)
|   |   |   |   |   |   age >= 23.5
|   |   |   |   |   |   |   age < 24.5 : no (4/1)
|   |   |   |   |   |   |   age >= 24.5 : no (6/1)
|   |   |   |   martial = single
|   |   |   |   |   age < 24.5
|   |   |   |   |   |   age < 23.5
|   |   |   |   |   |   |   age < 22.5 : no (4/0)
|   |   |   |   |   |   |   age >= 22.5 : no (9/1)
|   |   |   |   |   |   age >= 23.5 : no (9/0)
|   |   |   |   |   age >= 24.5 : no (13/3)
|   |   |   |   martial = divorced : no (0/0)
|   |   |   housing = no
|   |   |   |   martial = married : no (5/0)
|   |   |   |   martial = single
|   |   |   |   |   age < 18.5 : yes (3/1)
|   |   |   |   |   age >= 18.5
|   |   |   |   |   |   age < 21.5
|   |   |   |   |   |   |   age < 20.5
|   |   |   |   |   |   |   |   age < 19.5 : no (9/3)
|   |   |   |   |   |   |   |   age >= 19.5 : no (5/1)
|   |   |   |   |   |   |   age >= 20.5 : no (8/3)
|   |   |   |   |   |   age >= 21.5
|   |   |   |   |   |   |   age < 22.5 : yes (3/0)
|   |   |   |   |   |   |   age >= 22.5
|   |   |   |   |   |   |   |   age < 23.5 : no (4/1)
|   |   |   |   |   |   |   |   age >= 23.5
|   |   |   |   |   |   |   |   |   age < 24.5 : no (5/2)
|   |   |   |   |   |   |   |   |   age >= 24.5 : no (4/2)
|   |   |   |   martial = divorced : no (0/0)
|   |   age >= 25.5
|   |   |   martial = married
|   |   |   |   housing = yes
|   |   |   |   |   age < 33.5
|   |   |   |   |   |   age < 26.5 : no (16/0)
|   |   |   |   |   |   age >= 26.5
|   |   |   |   |   |   |   age < 32.5
|   |   |   |   |   |   |   |   age < 30.5
|   |   |   |   |   |   |   |   |   age < 27.5 : no (17/1)
|   |   |   |   |   |   |   |   |   age >= 27.5
|   |   |   |   |   |   |   |   |   |   age < 29.5
|   |   |   |   |   |   |   |   |   |   |   age < 28.5 : no (36/1)
|   |   |   |   |   |   |   |   |   |   |   age >= 28.5 : no (48/0)
|   |   |   |   |   |   |   |   |   |   age >= 29.5 : no (71/2)
|   |   |   |   |   |   |   |   age >= 30.5
|   |   |   |   |   |   |   |   |   age < 31.5 : no (75/3)
|   |   |   |   |   |   |   |   |   age >= 31.5 : no (102/5)
|   |   |   |   |   |   |   age >= 32.5 : no (105/2)
|   |   |   |   |   age >= 33.5
|   |   |   |   |   |   age < 42.5
|   |   |   |   |   |   |   age < 39.5
|   |   |   |   |   |   |   |   age < 38.5
|   |   |   |   |   |   |   |   |   age < 36.5
|   |   |   |   |   |   |   |   |   |   age < 35.5
|   |   |   |   |   |   |   |   |   |   |   age < 34.5 : no (107/8)
|   |   |   |   |   |   |   |   |   |   |   age >= 34.5 : no (95/5)
|   |   |   |   |   |   |   |   |   |   age >= 35.5 : no (91/9)
|   |   |   |   |   |   |   |   |   age >= 36.5
|   |   |   |   |   |   |   |   |   |   age < 37.5 : no (119/5)
|   |   |   |   |   |   |   |   |   |   age >= 37.5 : no (96/7)
|   |   |   |   |   |   |   |   age >= 38.5 : no (135/3)
|   |   |   |   |   |   |   age >= 39.5
|   |   |   |   |   |   |   |   age < 41.5
|   |   |   |   |   |   |   |   |   age < 40.5 : no (154/13)
|   |   |   |   |   |   |   |   |   age >= 40.5 : no (133/8)
|   |   |   |   |   |   |   |   age >= 41.5 : no (123/11)
|   |   |   |   |   |   age >= 42.5
|   |   |   |   |   |   |   age < 48.5
|   |   |   |   |   |   |   |   age < 46.5
|   |   |   |   |   |   |   |   |   age < 43.5 : no (137/4)
|   |   |   |   |   |   |   |   |   age >= 43.5
|   |   |   |   |   |   |   |   |   |   age < 45.5
|   |   |   |   |   |   |   |   |   |   |   age < 44.5 : no (115/5)
|   |   |   |   |   |   |   |   |   |   |   age >= 44.5 : no (111/5)
|   |   |   |   |   |   |   |   |   |   age >= 45.5 : no (117/6)
|   |   |   |   |   |   |   |   age >= 46.5
|   |   |   |   |   |   |   |   |   age < 47.5 : no (93/2)
|   |   |   |   |   |   |   |   |   age >= 47.5 : no (76/2)
|   |   |   |   |   |   |   age >= 48.5
|   |   |   |   |   |   |   |   age < 53.5
|   |   |   |   |   |   |   |   |   age < 50.5
|   |   |   |   |   |   |   |   |   |   age < 49.5 : no (97/6)
|   |   |   |   |   |   |   |   |   |   age >= 49.5 : no (89/7)
|   |   |   |   |   |   |   |   |   age >= 50.5
|   |   |   |   |   |   |   |   |   |   age < 52.5
|   |   |   |   |   |   |   |   |   |   |   age < 51.5 : no (93/5)
|   |   |   |   |   |   |   |   |   |   |   age >= 51.5 : no (67/2)
|   |   |   |   |   |   |   |   |   |   age >= 52.5 : no (72/5)
|   |   |   |   |   |   |   |   age >= 53.5
|   |   |   |   |   |   |   |   |   age < 54.5 : no (63/0)
|   |   |   |   |   |   |   |   |   age >= 54.5
|   |   |   |   |   |   |   |   |   |   age < 56.5
|   |   |   |   |   |   |   |   |   |   |   age < 55.5 : no (52/1)
|   |   |   |   |   |   |   |   |   |   |   age >= 55.5 : no (61/2)
|   |   |   |   |   |   |   |   |   |   age >= 56.5
|   |   |   |   |   |   |   |   |   |   |   age < 59.5
|   |   |   |   |   |   |   |   |   |   |   |   age < 57.5 : no (68/3)
|   |   |   |   |   |   |   |   |   |   |   |   age >= 57.5
|   |   |   |   |   |   |   |   |   |   |   |   |   age < 58.5 : no (62/3)
|   |   |   |   |   |   |   |   |   |   |   |   |   age >= 58.5 : no (61/3)
|   |   |   |   |   |   |   |   |   |   |   age >= 59.5 : no (40/3)
|   |   |   |   housing = no
|   |   |   |   |   age < 48.5
|   |   |   |   |   |   age < 36.5
|   |   |   |   |   |   |   age < 31.5
|   |   |   |   |   |   |   |   age < 30.5
|   |   |   |   |   |   |   |   |   age < 26.5 : no (5/0)
|   |   |   |   |   |   |   |   |   age >= 26.5
|   |   |   |   |   |   |   |   |   |   age < 29.5
|   |   |   |   |   |   |   |   |   |   |   age < 27.5 : no (10/1)
|   |   |   |   |   |   |   |   |   |   |   age >= 27.5
|   |   |   |   |   |   |   |   |   |   |   |   age < 28.5 : no (6/0)
|   |   |   |   |   |   |   |   |   |   |   |   age >= 28.5 : no (14/1)
|   |   |   |   |   |   |   |   |   |   age >= 29.5 : no (9/1)
|   |   |   |   |   |   |   |   age >= 30.5 : no (22/0)
|   |   |   |   |   |   |   age >= 31.5
|   |   |   |   |   |   |   |   age < 33.5 : no (44/4)
|   |   |   |   |   |   |   |   age >= 33.5
|   |   |   |   |   |   |   |   |   age < 34.5 : no (18/3)
|   |   |   |   |   |   |   |   |   age >= 34.5
|   |   |   |   |   |   |   |   |   |   age < 35.5 : no (33/3)
|   |   |   |   |   |   |   |   |   |   age >= 35.5 : no (38/4)
|   |   |   |   |   |   age >= 36.5
|   |   |   |   |   |   |   age < 37.5 : no (37/0)
|   |   |   |   |   |   |   age >= 37.5
|   |   |   |   |   |   |   |   age < 44.5
|   |   |   |   |   |   |   |   |   age < 42.5
|   |   |   |   |   |   |   |   |   |   age < 41.5
|   |   |   |   |   |   |   |   |   |   |   age < 40.5
|   |   |   |   |   |   |   |   |   |   |   |   age < 39.5
|   |   |   |   |   |   |   |   |   |   |   |   |   age < 38.5 : no (40/2)
|   |   |   |   |   |   |   |   |   |   |   |   |   age >= 38.5 : no (50/2)
|   |   |   |   |   |   |   |   |   |   |   |   age >= 39.5 : no (35/0)
|   |   |   |   |   |   |   |   |   |   |   age >= 40.5 : no (45/4)
|   |   |   |   |   |   |   |   |   |   age >= 41.5 : no (33/0)
|   |   |   |   |   |   |   |   |   age >= 42.5 : no (98/8)
|   |   |   |   |   |   |   |   age >= 44.5
|   |   |   |   |   |   |   |   |   age < 45.5 : no (81/0)
|   |   |   |   |   |   |   |   |   age >= 45.5
|   |   |   |   |   |   |   |   |   |   age < 47.5
|   |   |   |   |   |   |   |   |   |   |   age < 46.5 : no (81/3)
|   |   |   |   |   |   |   |   |   |   |   age >= 46.5 : no (85/3)
|   |   |   |   |   |   |   |   |   |   age >= 47.5 : no (77/4)
|   |   |   |   |   age >= 48.5
|   |   |   |   |   |   age < 55.5
|   |   |   |   |   |   |   age < 53.5
|   |   |   |   |   |   |   |   age < 52.5
|   |   |   |   |   |   |   |   |   age < 51.5
|   |   |   |   |   |   |   |   |   |   age < 49.5 : no (75/7)
|   |   |   |   |   |   |   |   |   |   age >= 49.5
|   |   |   |   |   |   |   |   |   |   |   age < 50.5 : no (74/5)
|   |   |   |   |   |   |   |   |   |   |   age >= 50.5 : no (85/7)
|   |   |   |   |   |   |   |   |   age >= 51.5 : no (87/5)
|   |   |   |   |   |   |   |   age >= 52.5 : no (74/9)
|   |   |   |   |   |   |   age >= 53.5
|   |   |   |   |   |   |   |   age < 54.5 : no (69/3)
|   |   |   |   |   |   |   |   age >= 54.5 : no (90/6)
|   |   |   |   |   |   age >= 55.5
|   |   |   |   |   |   |   age < 56.5 : no (84/12)
|   |   |   |   |   |   |   age >= 56.5
|   |   |   |   |   |   |   |   age < 57.5 : no (111/8)
|   |   |   |   |   |   |   |   age >= 57.5
|   |   |   |   |   |   |   |   |   age < 59.5
|   |   |   |   |   |   |   |   |   |   age < 58.5 : no (90/9)
|   |   |   |   |   |   |   |   |   |   age >= 58.5 : no (128/11)
|   |   |   |   |   |   |   |   |   age >= 59.5 : no (99/10)
|   |   |   martial = single
|   |   |   |   age < 59.5
|   |   |   |   |   age < 33.5
|   |   |   |   |   |   housing = yes
|   |   |   |   |   |   |   age < 31.5
|   |   |   |   |   |   |   |   age < 30.5
|   |   |   |   |   |   |   |   |   age < 29.5
|   |   |   |   |   |   |   |   |   |   age < 26.5 : no (24/3)
|   |   |   |   |   |   |   |   |   |   age >= 26.5
|   |   |   |   |   |   |   |   |   |   |   age < 27.5 : no (24/2)
|   |   |   |   |   |   |   |   |   |   |   age >= 27.5
|   |   |   |   |   |   |   |   |   |   |   |   age < 28.5 : no (17/1)
|   |   |   |   |   |   |   |   |   |   |   |   age >= 28.5 : no (18/1)
|   |   |   |   |   |   |   |   |   age >= 29.5 : no (24/3)
|   |   |   |   |   |   |   |   age >= 30.5 : no (28/1)
|   |   |   |   |   |   |   age >= 31.5
|   |   |   |   |   |   |   |   age < 32.5 : no (30/4)
|   |   |   |   |   |   |   |   age >= 32.5 : no (24/2)
|   |   |   |   |   |   housing = no
|   |   |   |   |   |   |   age < 31.5
|   |   |   |   |   |   |   |   age < 27.5
|   |   |   |   |   |   |   |   |   age < 26.5 : no (9/1)
|   |   |   |   |   |   |   |   |   age >= 26.5 : no (18/3)
|   |   |   |   |   |   |   |   age >= 27.5
|   |   |   |   |   |   |   |   |   age < 29.5
|   |   |   |   |   |   |   |   |   |   age < 28.5 : no (11/3)
|   |   |   |   |   |   |   |   |   |   age >= 28.5 : no (12/4)
|   |   |   |   |   |   |   |   |   age >= 29.5
|   |   |   |   |   |   |   |   |   |   age < 30.5 : no (12/1)
|   |   |   |   |   |   |   |   |   |   age >= 30.5 : no (9/3)
|   |   |   |   |   |   |   age >= 31.5
|   |   |   |   |   |   |   |   age < 32.5 : no (13/0)
|   |   |   |   |   |   |   |   age >= 32.5 : no (6/1)
|   |   |   |   |   age >= 33.5
|   |   |   |   |   |   age < 40.5
|   |   |   |   |   |   |   age < 39.5
|   |   |   |   |   |   |   |   age < 35.5
|   |   |   |   |   |   |   |   |   housing = yes
|   |   |   |   |   |   |   |   |   |   age < 34.5 : no (20/1)
|   |   |   |   |   |   |   |   |   |   age >= 34.5 : no (25/1)
|   |   |   |   |   |   |   |   |   housing = no
|   |   |   |   |   |   |   |   |   |   age < 34.5 : no (15/1)
|   |   |   |   |   |   |   |   |   |   age >= 34.5 : no (18/3)
|   |   |   |   |   |   |   |   age >= 35.5
|   |   |   |   |   |   |   |   |   age < 36.5 : no (36/0)
|   |   |   |   |   |   |   |   |   age >= 36.5
|   |   |   |   |   |   |   |   |   |   age < 38.5
|   |   |   |   |   |   |   |   |   |   |   housing = yes
|   |   |   |   |   |   |   |   |   |   |   |   age < 37.5 : no (15/1)
|   |   |   |   |   |   |   |   |   |   |   |   age >= 37.5 : no (28/1)
|   |   |   |   |   |   |   |   |   |   |   housing = no : no (19/0)
|   |   |   |   |   |   |   |   |   |   age >= 38.5
|   |   |   |   |   |   |   |   |   |   |   housing = yes : no (20/2)
|   |   |   |   |   |   |   |   |   |   |   housing = no : no (14/1)
|   |   |   |   |   |   |   age >= 39.5 : no (24/0)
|   |   |   |   |   |   age >= 40.5
|   |   |   |   |   |   |   age < 49.5
|   |   |   |   |   |   |   |   housing = yes
|   |   |   |   |   |   |   |   |   age < 43.5
|   |   |   |   |   |   |   |   |   |   age < 41.5 : no (11/1)
|   |   |   |   |   |   |   |   |   |   age >= 41.5
|   |   |   |   |   |   |   |   |   |   |   age < 42.5 : no (18/1)
|   |   |   |   |   |   |   |   |   |   |   age >= 42.5 : no (14/1)
|   |   |   |   |   |   |   |   |   age >= 43.5
|   |   |   |   |   |   |   |   |   |   age < 44.5 : no (12/2)
|   |   |   |   |   |   |   |   |   |   age >= 44.5
|   |   |   |   |   |   |   |   |   |   |   age < 46.5
|   |   |   |   |   |   |   |   |   |   |   |   age < 45.5 : no (9/1)
|   |   |   |   |   |   |   |   |   |   |   |   age >= 45.5 : no (6/0)
|   |   |   |   |   |   |   |   |   |   |   age >= 46.5
|   |   |   |   |   |   |   |   |   |   |   |   age < 47.5 : no (5/1)
|   |   |   |   |   |   |   |   |   |   |   |   age >= 47.5
|   |   |   |   |   |   |   |   |   |   |   |   |   age < 48.5 : no (11/1)
|   |   |   |   |   |   |   |   |   |   |   |   |   age >= 48.5 : no (13/2)
|   |   |   |   |   |   |   |   housing = no
|   |   |   |   |   |   |   |   |   age < 48.5
|   |   |   |   |   |   |   |   |   |   age < 47.5
|   |   |   |   |   |   |   |   |   |   |   age < 44.5
|   |   |   |   |   |   |   |   |   |   |   |   age < 41.5 : no (10/1)
|   |   |   |   |   |   |   |   |   |   |   |   age >= 41.5
|   |   |   |   |   |   |   |   |   |   |   |   |   age < 43.5
|   |   |   |   |   |   |   |   |   |   |   |   |   |   age < 42.5 : no (7/1)
|   |   |   |   |   |   |   |   |   |   |   |   |   |   age >= 42.5 : no (12/2)
|   |   |   |   |   |   |   |   |   |   |   |   |   age >= 43.5 : no (10/2)
|   |   |   |   |   |   |   |   |   |   |   age >= 44.5
|   |   |   |   |   |   |   |   |   |   |   |   age < 46.5
|   |   |   |   |   |   |   |   |   |   |   |   |   age < 45.5 : no (11/1)
|   |   |   |   |   |   |   |   |   |   |   |   |   age >= 45.5 : no (7/0)
|   |   |   |   |   |   |   |   |   |   |   |   age >= 46.5 : no (6/1)
|   |   |   |   |   |   |   |   |   |   age >= 47.5 : no (12/3)
|   |   |   |   |   |   |   |   |   age >= 48.5 : no (5/0)
|   |   |   |   |   |   |   age >= 49.5
|   |   |   |   |   |   |   |   age < 55.5 : no (50/0)
|   |   |   |   |   |   |   |   age >= 55.5
|   |   |   |   |   |   |   |   |   age < 58.5
|   |   |   |   |   |   |   |   |   |   age < 56.5
|   |   |   |   |   |   |   |   |   |   |   housing = yes : no (5/0)
|   |   |   |   |   |   |   |   |   |   |   housing = no : no (5/1)
|   |   |   |   |   |   |   |   |   |   age >= 56.5 : no (9/0)
|   |   |   |   |   |   |   |   |   age >= 58.5
|   |   |   |   |   |   |   |   |   |   housing = yes : no (2/0)
|   |   |   |   |   |   |   |   |   |   housing = no : no (2/1)
|   |   |   |   age >= 59.5
|   |   |   |   |   housing = yes : yes (1/0)
|   |   |   |   |   housing = no : no (2/1)
|   |   |   martial = divorced
|   |   |   |   age < 59.5
|   |   |   |   |   housing = yes
|   |   |   |   |   |   age < 53.5
|   |   |   |   |   |   |   age < 29.5 : no (7/0)
|   |   |   |   |   |   |   age >= 29.5
|   |   |   |   |   |   |   |   age < 31.5
|   |   |   |   |   |   |   |   |   age < 30.5 : no (7/1)
|   |   |   |   |   |   |   |   |   age >= 30.5 : no (5/2)
|   |   |   |   |   |   |   |   age >= 31.5
|   |   |   |   |   |   |   |   |   age < 32.5 : no (9/0)
|   |   |   |   |   |   |   |   |   age >= 32.5
|   |   |   |   |   |   |   |   |   |   age < 52.5
|   |   |   |   |   |   |   |   |   |   |   age < 48.5
|   |   |   |   |   |   |   |   |   |   |   |   age < 44.5
|   |   |   |   |   |   |   |   |   |   |   |   |   age < 42.5
|   |   |   |   |   |   |   |   |   |   |   |   |   |   age < 40.5
|   |   |   |   |   |   |   |   |   |   |   |   |   |   |   age < 36.5
|   |   |   |   |   |   |   |   |   |   |   |   |   |   |   |   age < 34.5
|   |   |   |   |   |   |   |   |   |   |   |   |   |   |   |   |   age < 33.5 : no (8/1)
|   |   |   |   |   |   |   |   |   |   |   |   |   |   |   |   |   age >= 33.5 : no (6/0)
|   |   |   |   |   |   |   |   |   |   |   |   |   |   |   |   age >= 34.5
|   |   |   |   |   |   |   |   |   |   |   |   |   |   |   |   |   age < 35.5 : no (10/2)
|   |   |   |   |   |   |   |   |   |   |   |   |   |   |   |   |   age >= 35.5 : no (10/1)
|   |   |   |   |   |   |   |   |   |   |   |   |   |   |   age >= 36.5
|   |   |   |   |   |   |   |   |   |   |   |   |   |   |   |   age < 37.5 : no (8/0)
|   |   |   |   |   |   |   |   |   |   |   |   |   |   |   |   age >= 37.5
|   |   |   |   |   |   |   |   |   |   |   |   |   |   |   |   |   age < 39.5
|   |   |   |   |   |   |   |   |   |   |   |   |   |   |   |   |   |   age < 38.5 : no (7/1)
|   |   |   |   |   |   |   |   |   |   |   |   |   |   |   |   |   |   age >= 38.5 : no (9/1)
|   |   |   |   |   |   |   |   |   |   |   |   |   |   |   |   |   age >= 39.5 : no (15/1)
|   |   |   |   |   |   |   |   |   |   |   |   |   |   age >= 40.5
|   |   |   |   |   |   |   |   |   |   |   |   |   |   |   age < 41.5 : no (13/3)
|   |   |   |   |   |   |   |   |   |   |   |   |   |   |   age >= 41.5 : no (14/2)
|   |   |   |   |   |   |   |   |   |   |   |   |   age >= 42.5
|   |   |   |   |   |   |   |   |   |   |   |   |   |   age < 43.5 : no (12/0)
|   |   |   |   |   |   |   |   |   |   |   |   |   |   age >= 43.5 : no (11/1)
|   |   |   |   |   |   |   |   |   |   |   |   age >= 44.5
|   |   |   |   |   |   |   |   |   |   |   |   |   age < 46.5
|   |   |   |   |   |   |   |   |   |   |   |   |   |   age < 45.5 : no (18/3)
|   |   |   |   |   |   |   |   |   |   |   |   |   |   age >= 45.5 : no (13/3)
|   |   |   |   |   |   |   |   |   |   |   |   |   age >= 46.5
|   |   |   |   |   |   |   |   |   |   |   |   |   |   age < 47.5 : no (13/2)
|   |   |   |   |   |   |   |   |   |   |   |   |   |   age >= 47.5 : no (9/1)
|   |   |   |   |   |   |   |   |   |   |   age >= 48.5
|   |   |   |   |   |   |   |   |   |   |   |   age < 50.5
|   |   |   |   |   |   |   |   |   |   |   |   |   age < 49.5 : no (12/1)
|   |   |   |   |   |   |   |   |   |   |   |   |   age >= 49.5 : no (16/0)
|   |   |   |   |   |   |   |   |   |   |   |   age >= 50.5
|   |   |   |   |   |   |   |   |   |   |   |   |   age < 51.5 : no (13/1)
|   |   |   |   |   |   |   |   |   |   |   |   |   age >= 51.5 : no (18/2)
|   |   |   |   |   |   |   |   |   |   age >= 52.5 : no (16/3)
|   |   |   |   |   |   age >= 53.5
|   |   |   |   |   |   |   age < 57.5
|   |   |   |   |   |   |   |   age < 56.5
|   |   |   |   |   |   |   |   |   age < 55.5
|   |   |   |   |   |   |   |   |   |   age < 54.5 : no (16/1)
|   |   |   |   |   |   |   |   |   |   age >= 54.5 : no (9/0)
|   |   |   |   |   |   |   |   |   age >= 55.5 : no (14/1)
|   |   |   |   |   |   |   |   age >= 56.5 : no (10/0)
|   |   |   |   |   |   |   age >= 57.5
|   |   |   |   |   |   |   |   age < 58.5 : no (9/1)
|   |   |   |   |   |   |   |   age >= 58.5 : no (20/1)
|   |   |   |   |   housing = no
|   |   |   |   |   |   age < 40.5 : no (35/0)
|   |   |   |   |   |   age >= 40.5
|   |   |   |   |   |   |   age < 45.5
|   |   |   |   |   |   |   |   age < 41.5 : no (8/2)
|   |   |   |   |   |   |   |   age >= 41.5
|   |   |   |   |   |   |   |   |   age < 44.5
|   |   |   |   |   |   |   |   |   |   age < 42.5 : no (4/0)
|   |   |   |   |   |   |   |   |   |   age >= 42.5
|   |   |   |   |   |   |   |   |   |   |   age < 43.5 : no (10/1)
|   |   |   |   |   |   |   |   |   |   |   age >= 43.5 : no (3/0)
|   |   |   |   |   |   |   |   |   age >= 44.5 : no (14/3)
|   |   |   |   |   |   |   age >= 45.5
|   |   |   |   |   |   |   |   age < 52.5
|   |   |   |   |   |   |   |   |   age < 47.5 : no (19/0)
|   |   |   |   |   |   |   |   |   age >= 47.5
|   |   |   |   |   |   |   |   |   |   age < 51.5
|   |   |   |   |   |   |   |   |   |   |   age < 48.5 : no (12/1)
|   |   |   |   |   |   |   |   |   |   |   age >= 48.5
|   |   |   |   |   |   |   |   |   |   |   |   age < 50.5 : no (19/0)
|   |   |   |   |   |   |   |   |   |   |   |   age >= 50.5 : no (13/1)
|   |   |   |   |   |   |   |   |   |   age >= 51.5 : no (15/0)
|   |   |   |   |   |   |   |   age >= 52.5
|   |   |   |   |   |   |   |   |   age < 55.5
|   |   |   |   |   |   |   |   |   |   age < 54.5
|   |   |   |   |   |   |   |   |   |   |   age < 53.5 : no (13/2)
|   |   |   |   |   |   |   |   |   |   |   age >= 53.5 : no (10/1)
|   |   |   |   |   |   |   |   |   |   age >= 54.5 : no (15/3)
|   |   |   |   |   |   |   |   |   age >= 55.5
|   |   |   |   |   |   |   |   |   |   age < 58.5
|   |   |   |   |   |   |   |   |   |   |   age < 57.5
|   |   |   |   |   |   |   |   |   |   |   |   age < 56.5 : no (26/2)
|   |   |   |   |   |   |   |   |   |   |   |   age >= 56.5 : no (27/2)
|   |   |   |   |   |   |   |   |   |   |   age >= 57.5 : no (17/0)
|   |   |   |   |   |   |   |   |   |   age >= 58.5 : no (20/3)
|   |   |   |   age >= 59.5 : no (21/0)
age >= 60.5
|   martial = married
|   |   age < 71.5
|   |   |   age < 69.5
|   |   |   |   education = tertiary
|   |   |   |   |   age < 62.5
|   |   |   |   |   |   housing = yes
|   |   |   |   |   |   |   age < 61.5 : yes (9/4)
|   |   |   |   |   |   |   age >= 61.5 : no (6/2)
|   |   |   |   |   |   housing = no
|   |   |   |   |   |   |   age < 61.5 : no (29/14)
|   |   |   |   |   |   |   age >= 61.5 : yes (17/8)
|   |   |   |   |   age >= 62.5
|   |   |   |   |   |   age < 63.5
|   |   |   |   |   |   |   housing = yes : no (2/0)
|   |   |   |   |   |   |   housing = no : no (13/5)
|   |   |   |   |   |   age >= 63.5
|   |   |   |   |   |   |   housing = yes : no (1/0)
|   |   |   |   |   |   |   housing = no
|   |   |   |   |   |   |   |   age < 64.5 : yes (19/9)
|   |   |   |   |   |   |   |   age >= 64.5
|   |   |   |   |   |   |   |   |   age < 67.5 : no (33/12)
|   |   |   |   |   |   |   |   |   age >= 67.5
|   |   |   |   |   |   |   |   |   |   age < 68.5 : yes (6/2)
|   |   |   |   |   |   |   |   |   |   age >= 68.5 : no (6/2)
|   |   |   |   education = secondary
|   |   |   |   |   age < 67.5
|   |   |   |   |   |   age < 61.5
|   |   |   |   |   |   |   housing = yes : no (8/2)
|   |   |   |   |   |   |   housing = no : no (41/17)
|   |   |   |   |   |   age >= 61.5
|   |   |   |   |   |   |   housing = yes
|   |   |   |   |   |   |   |   age < 64.5
|   |   |   |   |   |   |   |   |   age < 63.5
|   |   |   |   |   |   |   |   |   |   age < 62.5 : yes (3/1)
|   |   |   |   |   |   |   |   |   |   age >= 62.5 : no (4/2)
|   |   |   |   |   |   |   |   |   age >= 63.5 : yes (4/1)
|   |   |   |   |   |   |   |   age >= 64.5 : no (2/1)
|   |   |   |   |   |   |   housing = no
|   |   |   |   |   |   |   |   age < 62.5 : yes (32/15)
|   |   |   |   |   |   |   |   age >= 62.5
|   |   |   |   |   |   |   |   |   age < 65.5
|   |   |   |   |   |   |   |   |   |   age < 63.5 : no (31/12)
|   |   |   |   |   |   |   |   |   |   age >= 63.5 : no (34/14)
|   |   |   |   |   |   |   |   |   age >= 65.5
|   |   |   |   |   |   |   |   |   |   age < 66.5 : no (19/9)
|   |   |   |   |   |   |   |   |   |   age >= 66.5 : no (9/4)
|   |   |   |   |   age >= 67.5
|   |   |   |   |   |   age < 68.5
|   |   |   |   |   |   |   housing = yes : yes (3/1)
|   |   |   |   |   |   |   housing = no : yes (8/2)
|   |   |   |   |   |   age >= 68.5
|   |   |   |   |   |   |   housing = yes : yes (1/0)
|   |   |   |   |   |   |   housing = no : no (12/5)
|   |   |   |   education = unknown
|   |   |   |   |   age < 66.5
|   |   |   |   |   |   age < 65.5
|   |   |   |   |   |   |   housing = yes
|   |   |   |   |   |   |   |   age < 61.5 : yes (3/1)
|   |   |   |   |   |   |   |   age >= 61.5 : no (1/0)
|   |   |   |   |   |   |   housing = no
|   |   |   |   |   |   |   |   age < 64.5
|   |   |   |   |   |   |   |   |   age < 61.5 : no (4/1)
|   |   |   |   |   |   |   |   |   age >= 61.5
|   |   |   |   |   |   |   |   |   |   age < 63.5
|   |   |   |   |   |   |   |   |   |   |   age < 62.5 : yes (3/1)
|   |   |   |   |   |   |   |   |   |   |   age >= 62.5 : no (5/2)
|   |   |   |   |   |   |   |   |   |   age >= 63.5 : yes (8/3)
|   |   |   |   |   |   |   |   age >= 64.5 : no (5/1)
|   |   |   |   |   |   age >= 65.5
|   |   |   |   |   |   |   housing = yes : yes (3/1)
|   |   |   |   |   |   |   housing = no : yes (1/0)
|   |   |   |   |   age >= 66.5
|   |   |   |   |   |   age < 68.5
|   |   |   |   |   |   |   age < 67.5 : no (7/2)
|   |   |   |   |   |   |   age >= 67.5 : no (2/0)
|   |   |   |   |   |   age >= 68.5 : yes (5/2)
|   |   |   |   education = primary
|   |   |   |   |   housing = yes : no (11/0)
|   |   |   |   |   housing = no
|   |   |   |   |   |   age < 67.5
|   |   |   |   |   |   |   age < 62.5
|   |   |   |   |   |   |   |   age < 61.5 : no (22/6)
|   |   |   |   |   |   |   |   age >= 61.5 : no (10/2)
|   |   |   |   |   |   |   age >= 62.5
|   |   |   |   |   |   |   |   age < 65.5
|   |   |   |   |   |   |   |   |   age < 63.5 : no (13/4)
|   |   |   |   |   |   |   |   |   age >= 63.5
|   |   |   |   |   |   |   |   |   |   age < 64.5 : no (16/6)
|   |   |   |   |   |   |   |   |   |   age >= 64.5 : no (14/6)
|   |   |   |   |   |   |   |   age >= 65.5
|   |   |   |   |   |   |   |   |   age < 66.5 : no (18/6)
|   |   |   |   |   |   |   |   |   age >= 66.5 : no (16/5)
|   |   |   |   |   |   age >= 67.5
|   |   |   |   |   |   |   age < 68.5 : no (7/1)
|   |   |   |   |   |   |   age >= 68.5 : no (10/2)
|   |   |   age >= 69.5
|   |   |   |   age < 70.5
|   |   |   |   |   education = tertiary : no (10/1)
|   |   |   |   |   education = secondary : no (22/6)
|   |   |   |   |   education = unknown : no (4/0)
|   |   |   |   |   education = primary : no (17/5)
|   |   |   |   age >= 70.5
|   |   |   |   |   education = tertiary
|   |   |   |   |   |   housing = yes : yes (1/0)
|   |   |   |   |   |   housing = no : no (15/6)
|   |   |   |   |   education = secondary : no (14/5)
|   |   |   |   |   education = unknown : no (2/0)
|   |   |   |   |   education = primary : no (10/5)
|   |   age >= 71.5
|   |   |   housing = yes : yes (5/0)
|   |   |   housing = no
|   |   |   |   age < 90.5
|   |   |   |   |   age < 87.5
|   |   |   |   |   |   age < 73.5
|   |   |   |   |   |   |   education = tertiary
|   |   |   |   |   |   |   |   age < 72.5 : yes (6/1)
|   |   |   |   |   |   |   |   age >= 72.5 : yes (7/3)
|   |   |   |   |   |   |   education = secondary
|   |   |   |   |   |   |   |   age < 72.5 : yes (15/7)
|   |   |   |   |   |   |   |   age >= 72.5 : no (8/1)
|   |   |   |   |   |   |   education = unknown
|   |   |   |   |   |   |   |   age < 72.5 : no (3/1)
|   |   |   |   |   |   |   |   age >= 72.5 : yes (5/1)
|   |   |   |   |   |   |   education = primary
|   |   |   |   |   |   |   |   age < 72.5 : no (20/9)
|   |   |   |   |   |   |   |   age >= 72.5 : yes (15/6)
|   |   |   |   |   |   age >= 73.5
|   |   |   |   |   |   |   education = tertiary
|   |   |   |   |   |   |   |   age < 83.5
|   |   |   |   |   |   |   |   |   age < 79
|   |   |   |   |   |   |   |   |   |   age < 74.5 : no (10/2)
|   |   |   |   |   |   |   |   |   |   age >= 74.5
|   |   |   |   |   |   |   |   |   |   |   age < 75.5 : yes (5/2)
|   |   |   |   |   |   |   |   |   |   |   age >= 75.5
|   |   |   |   |   |   |   |   |   |   |   |   age < 76.5 : no (4/1)
|   |   |   |   |   |   |   |   |   |   |   |   age >= 76.5
|   |   |   |   |   |   |   |   |   |   |   |   |   age < 77.5 : yes (9/4)
|   |   |   |   |   |   |   |   |   |   |   |   |   age >= 77.5 : no (2/1)
|   |   |   |   |   |   |   |   |   age >= 79
|   |   |   |   |   |   |   |   |   |   age < 82.5 : no (3/0)
|   |   |   |   |   |   |   |   |   |   age >= 82.5 : no (5/1)
|   |   |   |   |   |   |   |   age >= 83.5 : yes (1/0)
|   |   |   |   |   |   |   education = secondary
|   |   |   |   |   |   |   |   age < 85
|   |   |   |   |   |   |   |   |   age < 83.5
|   |   |   |   |   |   |   |   |   |   age < 82.5
|   |   |   |   |   |   |   |   |   |   |   age < 79.5
|   |   |   |   |   |   |   |   |   |   |   |   age < 74.5 : yes (8/3)
|   |   |   |   |   |   |   |   |   |   |   |   age >= 74.5
|   |   |   |   |   |   |   |   |   |   |   |   |   age < 76.5
|   |   |   |   |   |   |   |   |   |   |   |   |   |   age < 75.5 : no (10/4)
|   |   |   |   |   |   |   |   |   |   |   |   |   |   age >= 75.5 : no (6/2)
|   |   |   |   |   |   |   |   |   |   |   |   |   age >= 76.5
|   |   |   |   |   |   |   |   |   |   |   |   |   |   age < 77.5 : yes (9/3)
|   |   |   |   |   |   |   |   |   |   |   |   |   |   age >= 77.5
|   |   |   |   |   |   |   |   |   |   |   |   |   |   |   age < 78.5 : no (2/0)
|   |   |   |   |   |   |   |   |   |   |   |   |   |   |   age >= 78.5 : yes (9/4)
|   |   |   |   |   |   |   |   |   |   |   age >= 79.5
|   |   |   |   |   |   |   |   |   |   |   |   age < 81.5
|   |   |   |   |   |   |   |   |   |   |   |   |   age < 80.5 : no (12/4)
|   |   |   |   |   |   |   |   |   |   |   |   |   age >= 80.5 : no (2/0)
|   |   |   |   |   |   |   |   |   |   |   |   age >= 81.5 : yes (3/1)
|   |   |   |   |   |   |   |   |   |   age >= 82.5 : no (2/0)
|   |   |   |   |   |   |   |   |   age >= 83.5 : yes (3/0)
|   |   |   |   |   |   |   |   age >= 85 : no (2/0)
|   |   |   |   |   |   |   education = unknown
|   |   |   |   |   |   |   |   age < 78.5
|   |   |   |   |   |   |   |   |   age < 77.5
|   |   |   |   |   |   |   |   |   |   age < 74.5 : no (2/0)
|   |   |   |   |   |   |   |   |   |   age >= 74.5
|   |   |   |   |   |   |   |   |   |   |   age < 76.5
|   |   |   |   |   |   |   |   |   |   |   |   age < 75.5 : no (3/1)
|   |   |   |   |   |   |   |   |   |   |   |   age >= 75.5 : no (4/1)
|   |   |   |   |   |   |   |   |   |   |   age >= 76.5 : no (5/2)
|   |   |   |   |   |   |   |   |   age >= 77.5 : yes (5/1)
|   |   |   |   |   |   |   |   age >= 78.5 : no (5/0)
|   |   |   |   |   |   |   education = primary
|   |   |   |   |   |   |   |   age < 86.5
|   |   |   |   |   |   |   |   |   age < 79.5
|   |   |   |   |   |   |   |   |   |   age < 76.5
|   |   |   |   |   |   |   |   |   |   |   age < 74.5 : no (12/4)
|   |   |   |   |   |   |   |   |   |   |   age >= 74.5
|   |   |   |   |   |   |   |   |   |   |   |   age < 75.5 : no (9/4)
|   |   |   |   |   |   |   |   |   |   |   |   age >= 75.5 : yes (9/4)
|   |   |   |   |   |   |   |   |   |   age >= 76.5
|   |   |   |   |   |   |   |   |   |   |   age < 78.5
|   |   |   |   |   |   |   |   |   |   |   |   age < 77.5 : no (13/4)
|   |   |   |   |   |   |   |   |   |   |   |   age >= 77.5 : no (8/2)
|   |   |   |   |   |   |   |   |   |   |   age >= 78.5 : no (7/3)
|   |   |   |   |   |   |   |   |   age >= 79.5
|   |   |   |   |   |   |   |   |   |   age < 84.5
|   |   |   |   |   |   |   |   |   |   |   age < 83.5
|   |   |   |   |   |   |   |   |   |   |   |   age < 80.5 : no (15/7)
|   |   |   |   |   |   |   |   |   |   |   |   age >= 80.5
|   |   |   |   |   |   |   |   |   |   |   |   |   age < 82.5
|   |   |   |   |   |   |   |   |   |   |   |   |   |   age < 81.5 : yes (6/2)
|   |   |   |   |   |   |   |   |   |   |   |   |   |   age >= 81.5 : yes (5/2)
|   |   |   |   |   |   |   |   |   |   |   |   |   age >= 82.5 : no (4/2)
|   |   |   |   |   |   |   |   |   |   |   age >= 83.5 : no (2/0)
|   |   |   |   |   |   |   |   |   |   age >= 84.5
|   |   |   |   |   |   |   |   |   |   |   age < 85.5 : yes (3/0)
|   |   |   |   |   |   |   |   |   |   |   age >= 85.5 : no (5/2)
|   |   |   |   |   |   |   |   age >= 86.5 : yes (2/0)
|   |   |   |   |   age >= 87.5 : no (4/0)
|   |   |   |   age >= 90.5
|   |   |   |   |   age < 94 : yes (4/0)
|   |   |   |   |   age >= 94 : no (1/0)
|   martial = single
|   |   education = tertiary
|   |   |   age < 70
|   |   |   |   age < 67.5
|   |   |   |   |   age < 64.5 : no (4/2)
|   |   |   |   |   age >= 64.5
|   |   |   |   |   |   age < 66.5 : no (3/0)
|   |   |   |   |   |   age >= 66.5 : no (2/1)
|   |   |   |   age >= 67.5 : yes (3/0)
|   |   |   age >= 70 : no (5/0)
|   |   education = secondary
|   |   |   age < 69.5 : no (1/0)
|   |   |   age >= 69.5
|   |   |   |   age < 79.5 : no (2/1)
|   |   |   |   age >= 79.5 : yes (1/0)
|   |   education = unknown : no (4/0)
|   |   education = primary
|   |   |   age < 80 : no (7/0)
|   |   |   age >= 80 : no (2/1)
|   martial = divorced
|   |   age < 78.5
|   |   |   education = tertiary
|   |   |   |   age < 63.5
|   |   |   |   |   housing = yes : yes (4/0)
|   |   |   |   |   housing = no
|   |   |   |   |   |   age < 62.5
|   |   |   |   |   |   |   age < 61.5 : yes (4/1)
|   |   |   |   |   |   |   age >= 61.5 : yes (3/1)
|   |   |   |   |   |   age >= 62.5 : yes (1/0)
|   |   |   |   age >= 63.5
|   |   |   |   |   age < 64.5 : no (2/0)
|   |   |   |   |   age >= 64.5
|   |   |   |   |   |   age < 77.5
|   |   |   |   |   |   |   age < 74.5
|   |   |   |   |   |   |   |   age < 73.5
|   |   |   |   |   |   |   |   |   housing = yes : yes (2/0)
|   |   |   |   |   |   |   |   |   housing = no
|   |   |   |   |   |   |   |   |   |   age < 66 : no (2/0)
|   |   |   |   |   |   |   |   |   |   age >= 66
|   |   |   |   |   |   |   |   |   |   |   age < 70 : yes (3/0)
|   |   |   |   |   |   |   |   |   |   |   age >= 70
|   |   |   |   |   |   |   |   |   |   |   |   age < 71.5 : no (2/0)
|   |   |   |   |   |   |   |   |   |   |   |   age >= 71.5
|   |   |   |   |   |   |   |   |   |   |   |   |   age < 72.5 : no (2/1)
|   |   |   |   |   |   |   |   |   |   |   |   |   age >= 72.5 : yes (1/0)
|   |   |   |   |   |   |   |   age >= 73.5 : no (1/0)
|   |   |   |   |   |   |   age >= 74.5 : yes (2/0)
|   |   |   |   |   |   age >= 77.5 : no (1/0)
|   |   |   education = secondary
|   |   |   |   age < 76
|   |   |   |   |   age < 68.5
|   |   |   |   |   |   age < 66.5
|   |   |   |   |   |   |   age < 65.5
|   |   |   |   |   |   |   |   housing = yes
|   |   |   |   |   |   |   |   |   age < 61.5 : no (1/0)
|   |   |   |   |   |   |   |   |   age >= 61.5 : yes (1/0)
|   |   |   |   |   |   |   |   housing = no
|   |   |   |   |   |   |   |   |   age < 62 : no (9/3)
|   |   |   |   |   |   |   |   |   age >= 62
|   |   |   |   |   |   |   |   |   |   age < 64.5 : no (8/4)
|   |   |   |   |   |   |   |   |   |   age >= 64.5 : no (3/1)
|   |   |   |   |   |   |   age >= 65.5 : no (1/0)
|   |   |   |   |   |   age >= 66.5 : yes (5/0)
|   |   |   |   |   age >= 68.5
|   |   |   |   |   |   age < 70.5 : no (12/2)
|   |   |   |   |   |   age >= 70.5
|   |   |   |   |   |   |   age < 74.5
|   |   |   |   |   |   |   |   age < 73.5
|   |   |   |   |   |   |   |   |   age < 72 : yes (4/1)
|   |   |   |   |   |   |   |   |   age >= 72
|   |   |   |   |   |   |   |   |   |   housing = yes : no (2/1)
|   |   |   |   |   |   |   |   |   |   housing = no : no (1/0)
|   |   |   |   |   |   |   |   age >= 73.5 : yes (1/0)
|   |   |   |   |   |   |   age >= 74.5 : no (4/1)
|   |   |   |   age >= 76
|   |   |   |   |   age < 77.5 : yes (2/0)
|   |   |   |   |   age >= 77.5 : yes (3/1)
|   |   |   education = unknown
|   |   |   |   age < 74.5
|   |   |   |   |   age < 65.5 : no (1/0)
|   |   |   |   |   age >= 65.5
|   |   |   |   |   |   age < 68.5
|   |   |   |   |   |   |   housing = yes : no (1/0)
|   |   |   |   |   |   |   housing = no : yes (1/0)
|   |   |   |   |   |   age >= 68.5 : yes (1/0)
|   |   |   |   age >= 74.5 : no (2/0)
|   |   |   education = primary
|   |   |   |   age < 73.5
|   |   |   |   |   housing = yes : no (1/0)
|   |   |   |   |   housing = no
|   |   |   |   |   |   age < 67.5
|   |   |   |   |   |   |   age < 64.5
|   |   |   |   |   |   |   |   age < 63.5 : no (4/2)
|   |   |   |   |   |   |   |   age >= 63.5 : yes (3/1)
|   |   |   |   |   |   |   age >= 64.5
|   |   |   |   |   |   |   |   age < 65.5 : no (2/0)
|   |   |   |   |   |   |   |   age >= 65.5 : no (4/2)
|   |   |   |   |   |   age >= 67.5
|   |   |   |   |   |   |   age < 69.5 : yes (6/0)
|   |   |   |   |   |   |   age >= 69.5
|   |   |   |   |   |   |   |   age < 72.5
|   |   |   |   |   |   |   |   |   age < 71.5
|   |   |   |   |   |   |   |   |   |   age < 70.5 : yes (7/3)
|   |   |   |   |   |   |   |   |   |   age >= 70.5 : yes (3/0)
|   |   |   |   |   |   |   |   |   age >= 71.5 : no (1/0)
|   |   |   |   |   |   |   |   age >= 72.5 : yes (2/0)
|   |   |   |   age >= 73.5
|   |   |   |   |   housing = yes : yes (1/0)
|   |   |   |   |   housing = no
|   |   |   |   |   |   age < 75.5
|   |   |   |   |   |   |   age < 74.5 : no (3/1)
|   |   |   |   |   |   |   age >= 74.5 : no (6/0)
|   |   |   |   |   |   age >= 75.5
|   |   |   |   |   |   |   age < 76.5 : yes (8/2)
|   |   |   |   |   |   |   age >= 76.5
|   |   |   |   |   |   |   |   age < 77.5 : no (2/0)
|   |   |   |   |   |   |   |   age >= 77.5 : yes (6/2)
|   |   age >= 78.5
|   |   |   age < 84.5
|   |   |   |   education = tertiary
|   |   |   |   |   age < 81.5 : no (1/0)
|   |   |   |   |   age >= 81.5 : yes (1/0)
|   |   |   |   education = secondary
|   |   |   |   |   age < 80 : no (2/0)
|   |   |   |   |   age >= 80 : yes (1/0)
|   |   |   |   education = unknown : no (4/0)
|   |   |   |   education = primary
|   |   |   |   |   age < 80.5
|   |   |   |   |   |   age < 79.5 : no (5/2)
|   |   |   |   |   |   age >= 79.5 : no (2/1)
|   |   |   |   |   age >= 80.5
|   |   |   |   |   |   age < 83.5
|   |   |   |   |   |   |   age < 82.5
|   |   |   |   |   |   |   |   age < 81.5 : no (4/1)
|   |   |   |   |   |   |   |   age >= 81.5 : no (7/2)
|   |   |   |   |   |   |   age >= 82.5 : no (8/2)
|   |   |   |   |   |   age >= 83.5 : no (3/1)
|   |   |   age >= 84.5
|   |   |   |   education = tertiary : no (0/0)
|   |   |   |   education = secondary
|   |   |   |   |   age < 92 : yes (1/0)
|   |   |   |   |   age >= 92 : no (1/0)
|   |   |   |   education = unknown : no (1/0)
|   |   |   |   education = primary
|   |   |   |   |   age < 88 : yes (3/0)
|   |   |   |   |   age >= 88
|   |   |   |   |   |   age < 89.5 : no (1/0)
|   |   |   |   |   |   age >= 89.5 : yes (2/0)

Size of the tree : 1875

Time taken to build model: 0.17 seconds
