=== Run information ===

Scheme:       weka.classifiers.trees.RandomTree -K 0 -M 1.0 -V 0.001 -S 1
Relation:     Ranker_CorelationAttr_eval
Instances:    45211
Attributes:   5
              campaign
              month
              balance
              job
              class
Test mode:    10-fold cross-validation

=== Classifier model (full training set) ===


RandomTree
==========

month = may
|   job = management
|   |   balance < 2238
|   |   |   balance < 230.5
|   |   |   |   balance < 135
|   |   |   |   |   balance < -589.5 : no (43/0)
|   |   |   |   |   balance >= -589.5
|   |   |   |   |   |   campaign < 5.5
|   |   |   |   |   |   |   balance < -444.5
|   |   |   |   |   |   |   |   balance < -568.5 : yes (1/0)
|   |   |   |   |   |   |   |   balance >= -568.5
|   |   |   |   |   |   |   |   |   balance < -455
|   |   |   |   |   |   |   |   |   |   campaign < 2.5 : no (6/0)
|   |   |   |   |   |   |   |   |   |   campaign >= 2.5 : no (2/1)
|   |   |   |   |   |   |   |   |   balance >= -455 : yes (1/0)
|   |   |   |   |   |   |   balance >= -444.5
|   |   |   |   |   |   |   |   balance < -43
|   |   |   |   |   |   |   |   |   balance < -241
|   |   |   |   |   |   |   |   |   |   campaign < 3.5 : no (46/0)
|   |   |   |   |   |   |   |   |   |   campaign >= 3.5
|   |   |   |   |   |   |   |   |   |   |   balance < -248.5 : no (3/0)
|   |   |   |   |   |   |   |   |   |   |   balance >= -248.5 : yes (1/0)
|   |   |   |   |   |   |   |   |   balance >= -241 : no (57/0)
|   |   |   |   |   |   |   |   balance >= -43
|   |   |   |   |   |   |   |   |   campaign < 1.5
|   |   |   |   |   |   |   |   |   |   balance < -12.5
|   |   |   |   |   |   |   |   |   |   |   balance < -19.5
|   |   |   |   |   |   |   |   |   |   |   |   balance < -29.5 : no (5/0)
|   |   |   |   |   |   |   |   |   |   |   |   balance >= -29.5
|   |   |   |   |   |   |   |   |   |   |   |   |   balance < -26.5 : no (2/1)
|   |   |   |   |   |   |   |   |   |   |   |   |   balance >= -26.5 : no (3/0)
|   |   |   |   |   |   |   |   |   |   |   balance >= -19.5 : yes (1/0)
|   |   |   |   |   |   |   |   |   |   balance >= -12.5
|   |   |   |   |   |   |   |   |   |   |   balance < 2.5
|   |   |   |   |   |   |   |   |   |   |   |   balance < 0.5
|   |   |   |   |   |   |   |   |   |   |   |   |   balance < -0.5 : no (7/0)
|   |   |   |   |   |   |   |   |   |   |   |   |   balance >= -0.5 : no (72/2)
|   |   |   |   |   |   |   |   |   |   |   |   balance >= 0.5 : no (9/0)
|   |   |   |   |   |   |   |   |   |   |   balance >= 2.5
|   |   |   |   |   |   |   |   |   |   |   |   balance < 5.5
|   |   |   |   |   |   |   |   |   |   |   |   |   balance < 4.5
|   |   |   |   |   |   |   |   |   |   |   |   |   |   balance < 3.5 : no (6/1)
|   |   |   |   |   |   |   |   |   |   |   |   |   |   balance >= 3.5 : no (2/0)
|   |   |   |   |   |   |   |   |   |   |   |   |   balance >= 4.5 : no (2/1)
|   |   |   |   |   |   |   |   |   |   |   |   balance >= 5.5
|   |   |   |   |   |   |   |   |   |   |   |   |   balance < 114.5
|   |   |   |   |   |   |   |   |   |   |   |   |   |   balance < 113
|   |   |   |   |   |   |   |   |   |   |   |   |   |   |   balance < 101.5
|   |   |   |   |   |   |   |   |   |   |   |   |   |   |   |   balance < 80
|   |   |   |   |   |   |   |   |   |   |   |   |   |   |   |   |   balance < 77.5
|   |   |   |   |   |   |   |   |   |   |   |   |   |   |   |   |   |   balance < 51
|   |   |   |   |   |   |   |   |   |   |   |   |   |   |   |   |   |   |   balance < 49
|   |   |   |   |   |   |   |   |   |   |   |   |   |   |   |   |   |   |   |   balance < 17
|   |   |   |   |   |   |   |   |   |   |   |   |   |   |   |   |   |   |   |   |   balance < 15 : no (10/0)
|   |   |   |   |   |   |   |   |   |   |   |   |   |   |   |   |   |   |   |   |   balance >= 15 : no (3/1)
|   |   |   |   |   |   |   |   |   |   |   |   |   |   |   |   |   |   |   |   balance >= 17 : no (26/0)
|   |   |   |   |   |   |   |   |   |   |   |   |   |   |   |   |   |   |   balance >= 49 : no (2/1)
|   |   |   |   |   |   |   |   |   |   |   |   |   |   |   |   |   |   balance >= 51 : no (17/0)
|   |   |   |   |   |   |   |   |   |   |   |   |   |   |   |   |   balance >= 77.5 : yes (1/0)
|   |   |   |   |   |   |   |   |   |   |   |   |   |   |   |   balance >= 80 : no (18/0)
|   |   |   |   |   |   |   |   |   |   |   |   |   |   |   balance >= 101.5
|   |   |   |   |   |   |   |   |   |   |   |   |   |   |   |   balance < 103 : yes (1/0)
|   |   |   |   |   |   |   |   |   |   |   |   |   |   |   |   balance >= 103 : no (6/0)
|   |   |   |   |   |   |   |   |   |   |   |   |   |   balance >= 113 : yes (1/0)
|   |   |   |   |   |   |   |   |   |   |   |   |   balance >= 114.5 : no (15/0)
|   |   |   |   |   |   |   |   |   campaign >= 1.5
|   |   |   |   |   |   |   |   |   |   balance < -38.5 : yes (1/0)
|   |   |   |   |   |   |   |   |   |   balance >= -38.5
|   |   |   |   |   |   |   |   |   |   |   balance < 58.5
|   |   |   |   |   |   |   |   |   |   |   |   balance < 4.5
|   |   |   |   |   |   |   |   |   |   |   |   |   campaign < 3.5
|   |   |   |   |   |   |   |   |   |   |   |   |   |   balance < 0.5
|   |   |   |   |   |   |   |   |   |   |   |   |   |   |   campaign < 2.5
|   |   |   |   |   |   |   |   |   |   |   |   |   |   |   |   balance < -1.5 : no (9/0)
|   |   |   |   |   |   |   |   |   |   |   |   |   |   |   |   balance >= -1.5 : no (44/3)
|   |   |   |   |   |   |   |   |   |   |   |   |   |   |   campaign >= 2.5
|   |   |   |   |   |   |   |   |   |   |   |   |   |   |   |   balance < -2 : no (4/0)
|   |   |   |   |   |   |   |   |   |   |   |   |   |   |   |   balance >= -2 : no (15/1)
|   |   |   |   |   |   |   |   |   |   |   |   |   |   balance >= 0.5
|   |   |   |   |   |   |   |   |   |   |   |   |   |   |   campaign < 2.5
|   |   |   |   |   |   |   |   |   |   |   |   |   |   |   |   balance < 3.5 : no (2/0)
|   |   |   |   |   |   |   |   |   |   |   |   |   |   |   |   balance >= 3.5 : yes (3/1)
|   |   |   |   |   |   |   |   |   |   |   |   |   |   |   campaign >= 2.5
|   |   |   |   |   |   |   |   |   |   |   |   |   |   |   |   balance < 1.5 : yes (1/0)
|   |   |   |   |   |   |   |   |   |   |   |   |   |   |   |   balance >= 1.5 : no (1/0)
|   |   |   |   |   |   |   |   |   |   |   |   |   campaign >= 3.5
|   |   |   |   |   |   |   |   |   |   |   |   |   |   balance < 0.5 : no (20/0)
|   |   |   |   |   |   |   |   |   |   |   |   |   |   balance >= 0.5
|   |   |   |   |   |   |   |   |   |   |   |   |   |   |   campaign < 4.5 : no (2/0)
|   |   |   |   |   |   |   |   |   |   |   |   |   |   |   campaign >= 4.5
|   |   |   |   |   |   |   |   |   |   |   |   |   |   |   |   balance < 2 : no (2/1)
|   |   |   |   |   |   |   |   |   |   |   |   |   |   |   |   balance >= 2 : no (1/0)
|   |   |   |   |   |   |   |   |   |   |   |   balance >= 4.5
|   |   |   |   |   |   |   |   |   |   |   |   |   balance < 40 : no (48/0)
|   |   |   |   |   |   |   |   |   |   |   |   |   balance >= 40
|   |   |   |   |   |   |   |   |   |   |   |   |   |   balance < 41.5
|   |   |   |   |   |   |   |   |   |   |   |   |   |   |   campaign < 2.5 : no (1/0)
|   |   |   |   |   |   |   |   |   |   |   |   |   |   |   campaign >= 2.5 : yes (1/0)
|   |   |   |   |   |   |   |   |   |   |   |   |   |   balance >= 41.5 : no (18/0)
|   |   |   |   |   |   |   |   |   |   |   balance >= 58.5
|   |   |   |   |   |   |   |   |   |   |   |   campaign < 3.5
|   |   |   |   |   |   |   |   |   |   |   |   |   balance < 63.5
|   |   |   |   |   |   |   |   |   |   |   |   |   |   balance < 61
|   |   |   |   |   |   |   |   |   |   |   |   |   |   |   campaign < 2.5
|   |   |   |   |   |   |   |   |   |   |   |   |   |   |   |   balance < 59.5 : yes (1/0)
|   |   |   |   |   |   |   |   |   |   |   |   |   |   |   |   balance >= 59.5 : no (1/0)
|   |   |   |   |   |   |   |   |   |   |   |   |   |   |   campaign >= 2.5 : no (1/0)
|   |   |   |   |   |   |   |   |   |   |   |   |   |   balance >= 61 : yes (2/0)
|   |   |   |   |   |   |   |   |   |   |   |   |   balance >= 63.5
|   |   |   |   |   |   |   |   |   |   |   |   |   |   balance < 133.5
|   |   |   |   |   |   |   |   |   |   |   |   |   |   |   balance < 74.5 : no (11/0)
|   |   |   |   |   |   |   |   |   |   |   |   |   |   |   balance >= 74.5
|   |   |   |   |   |   |   |   |   |   |   |   |   |   |   |   balance < 77
|   |   |   |   |   |   |   |   |   |   |   |   |   |   |   |   |   campaign < 2.5 : yes (1/0)
|   |   |   |   |   |   |   |   |   |   |   |   |   |   |   |   |   campaign >= 2.5 : no (1/0)
|   |   |   |   |   |   |   |   |   |   |   |   |   |   |   |   balance >= 77
|   |   |   |   |   |   |   |   |   |   |   |   |   |   |   |   |   campaign < 2.5
|   |   |   |   |   |   |   |   |   |   |   |   |   |   |   |   |   |   balance < 98.5 : no (11/0)
|   |   |   |   |   |   |   |   |   |   |   |   |   |   |   |   |   |   balance >= 98.5
|   |   |   |   |   |   |   |   |   |   |   |   |   |   |   |   |   |   |   balance < 100.5 : yes (1/0)
|   |   |   |   |   |   |   |   |   |   |   |   |   |   |   |   |   |   |   balance >= 100.5
|   |   |   |   |   |   |   |   |   |   |   |   |   |   |   |   |   |   |   |   balance < 120.5 : no (12/0)
|   |   |   |   |   |   |   |   |   |   |   |   |   |   |   |   |   |   |   |   balance >= 120.5
|   |   |   |   |   |   |   |   |   |   |   |   |   |   |   |   |   |   |   |   |   balance < 122.5 : yes (1/0)
|   |   |   |   |   |   |   |   |   |   |   |   |   |   |   |   |   |   |   |   |   balance >= 122.5 : no (6/0)
|   |   |   |   |   |   |   |   |   |   |   |   |   |   |   |   |   campaign >= 2.5
|   |   |   |   |   |   |   |   |   |   |   |   |   |   |   |   |   |   balance < 104.5
|   |   |   |   |   |   |   |   |   |   |   |   |   |   |   |   |   |   |   balance < 102.5 : no (4/0)
|   |   |   |   |   |   |   |   |   |   |   |   |   |   |   |   |   |   |   balance >= 102.5 : yes (1/0)
|   |   |   |   |   |   |   |   |   |   |   |   |   |   |   |   |   |   balance >= 104.5 : no (10/0)
|   |   |   |   |   |   |   |   |   |   |   |   |   |   balance >= 133.5 : no (2/1)
|   |   |   |   |   |   |   |   |   |   |   |   campaign >= 3.5
|   |   |   |   |   |   |   |   |   |   |   |   |   balance < 84.5 : no (6/0)
|   |   |   |   |   |   |   |   |   |   |   |   |   balance >= 84.5
|   |   |   |   |   |   |   |   |   |   |   |   |   |   balance < 91 : yes (1/0)
|   |   |   |   |   |   |   |   |   |   |   |   |   |   balance >= 91
|   |   |   |   |   |   |   |   |   |   |   |   |   |   |   balance < 118 : no (6/0)
|   |   |   |   |   |   |   |   |   |   |   |   |   |   |   balance >= 118
|   |   |   |   |   |   |   |   |   |   |   |   |   |   |   |   balance < 120 : yes (1/0)
|   |   |   |   |   |   |   |   |   |   |   |   |   |   |   |   balance >= 120 : no (5/0)
|   |   |   |   |   |   campaign >= 5.5
|   |   |   |   |   |   |   campaign < 11.5 : no (36/0)
|   |   |   |   |   |   |   campaign >= 11.5
|   |   |   |   |   |   |   |   campaign < 12.5
|   |   |   |   |   |   |   |   |   balance < 35.5 : no (2/1)
|   |   |   |   |   |   |   |   |   balance >= 35.5 : no (1/0)
|   |   |   |   |   |   |   |   campaign >= 12.5 : no (5/0)
|   |   |   |   balance >= 135
|   |   |   |   |   campaign < 3.5 : no (104/0)
|   |   |   |   |   campaign >= 3.5
|   |   |   |   |   |   campaign < 4.5
|   |   |   |   |   |   |   balance < 203
|   |   |   |   |   |   |   |   balance < 180.5 : no (3/0)
|   |   |   |   |   |   |   |   balance >= 180.5 : yes (1/0)
|   |   |   |   |   |   |   balance >= 203 : no (4/0)
|   |   |   |   |   |   campaign >= 4.5 : no (16/0)
|   |   |   balance >= 230.5
|   |   |   |   balance < 315.5
|   |   |   |   |   balance < 313.5
|   |   |   |   |   |   balance < 272.5
|   |   |   |   |   |   |   campaign < 8.5
|   |   |   |   |   |   |   |   campaign < 2.5
|   |   |   |   |   |   |   |   |   balance < 232
|   |   |   |   |   |   |   |   |   |   campaign < 1.5 : no (2/1)
|   |   |   |   |   |   |   |   |   |   campaign >= 1.5 : no (1/0)
|   |   |   |   |   |   |   |   |   balance >= 232
|   |   |   |   |   |   |   |   |   |   balance < 242.5 : no (6/0)
|   |   |   |   |   |   |   |   |   |   balance >= 242.5
|   |   |   |   |   |   |   |   |   |   |   campaign < 1.5
|   |   |   |   |   |   |   |   |   |   |   |   balance < 243.5 : yes (1/0)
|   |   |   |   |   |   |   |   |   |   |   |   balance >= 243.5
|   |   |   |   |   |   |   |   |   |   |   |   |   balance < 264 : no (12/0)
|   |   |   |   |   |   |   |   |   |   |   |   |   balance >= 264
|   |   |   |   |   |   |   |   |   |   |   |   |   |   balance < 265.5 : yes (1/0)
|   |   |   |   |   |   |   |   |   |   |   |   |   |   balance >= 265.5 : no (4/0)
|   |   |   |   |   |   |   |   |   |   |   campaign >= 1.5
|   |   |   |   |   |   |   |   |   |   |   |   balance < 256
|   |   |   |   |   |   |   |   |   |   |   |   |   balance < 254.5 : no (6/0)
|   |   |   |   |   |   |   |   |   |   |   |   |   balance >= 254.5 : yes (1/0)
|   |   |   |   |   |   |   |   |   |   |   |   balance >= 256 : no (7/0)
|   |   |   |   |   |   |   |   campaign >= 2.5 : no (14/0)
|   |   |   |   |   |   |   campaign >= 8.5
|   |   |   |   |   |   |   |   campaign < 9.5 : yes (1/0)
|   |   |   |   |   |   |   |   campaign >= 9.5 : no (2/0)
|   |   |   |   |   |   balance >= 272.5
|   |   |   |   |   |   |   campaign < 2.5
|   |   |   |   |   |   |   |   campaign < 1.5
|   |   |   |   |   |   |   |   |   balance < 274.5 : yes (2/0)
|   |   |   |   |   |   |   |   |   balance >= 274.5
|   |   |   |   |   |   |   |   |   |   balance < 292.5
|   |   |   |   |   |   |   |   |   |   |   balance < 291.5 : no (7/0)
|   |   |   |   |   |   |   |   |   |   |   balance >= 291.5 : yes (1/0)
|   |   |   |   |   |   |   |   |   |   balance >= 292.5 : no (11/0)
|   |   |   |   |   |   |   |   campaign >= 1.5
|   |   |   |   |   |   |   |   |   balance < 295 : no (6/0)
|   |   |   |   |   |   |   |   |   balance >= 295
|   |   |   |   |   |   |   |   |   |   balance < 312.5
|   |   |   |   |   |   |   |   |   |   |   balance < 309
|   |   |   |   |   |   |   |   |   |   |   |   balance < 298 : yes (1/0)
|   |   |   |   |   |   |   |   |   |   |   |   balance >= 298
|   |   |   |   |   |   |   |   |   |   |   |   |   balance < 303 : no (1/0)
|   |   |   |   |   |   |   |   |   |   |   |   |   balance >= 303 : no (2/1)
|   |   |   |   |   |   |   |   |   |   |   balance >= 309 : yes (2/0)
|   |   |   |   |   |   |   |   |   |   balance >= 312.5 : no (1/0)
|   |   |   |   |   |   |   campaign >= 2.5
|   |   |   |   |   |   |   |   balance < 274 : yes (1/0)
|   |   |   |   |   |   |   |   balance >= 274
|   |   |   |   |   |   |   |   |   campaign < 4.5
|   |   |   |   |   |   |   |   |   |   balance < 297.5
|   |   |   |   |   |   |   |   |   |   |   campaign < 3.5 : no (1/0)
|   |   |   |   |   |   |   |   |   |   |   campaign >= 3.5
|   |   |   |   |   |   |   |   |   |   |   |   balance < 295 : no (1/0)
|   |   |   |   |   |   |   |   |   |   |   |   balance >= 295 : yes (1/0)
|   |   |   |   |   |   |   |   |   |   balance >= 297.5 : no (5/0)
|   |   |   |   |   |   |   |   |   campaign >= 4.5 : no (9/0)
|   |   |   |   |   balance >= 313.5 : yes (1/0)
|   |   |   |   balance >= 315.5
|   |   |   |   |   balance < 516.5
|   |   |   |   |   |   balance < 437.5
|   |   |   |   |   |   |   balance < 436.5
|   |   |   |   |   |   |   |   campaign < 4.5
|   |   |   |   |   |   |   |   |   balance < 387
|   |   |   |   |   |   |   |   |   |   campaign < 1.5
|   |   |   |   |   |   |   |   |   |   |   balance < 361.5
|   |   |   |   |   |   |   |   |   |   |   |   balance < 358.5
|   |   |   |   |   |   |   |   |   |   |   |   |   balance < 327
|   |   |   |   |   |   |   |   |   |   |   |   |   |   balance < 323.5 : no (2/0)
|   |   |   |   |   |   |   |   |   |   |   |   |   |   balance >= 323.5 : no (2/1)
|   |   |   |   |   |   |   |   |   |   |   |   |   balance >= 327 : no (11/0)
|   |   |   |   |   |   |   |   |   |   |   |   balance >= 358.5 : no (2/1)
|   |   |   |   |   |   |   |   |   |   |   balance >= 361.5 : no (12/0)
|   |   |   |   |   |   |   |   |   |   campaign >= 1.5
|   |   |   |   |   |   |   |   |   |   |   campaign < 3.5 : no (40/0)
|   |   |   |   |   |   |   |   |   |   |   campaign >= 3.5
|   |   |   |   |   |   |   |   |   |   |   |   balance < 345.5 : no (5/0)
|   |   |   |   |   |   |   |   |   |   |   |   balance >= 345.5
|   |   |   |   |   |   |   |   |   |   |   |   |   balance < 350 : yes (1/0)
|   |   |   |   |   |   |   |   |   |   |   |   |   balance >= 350 : no (3/0)
|   |   |   |   |   |   |   |   |   balance >= 387
|   |   |   |   |   |   |   |   |   |   campaign < 3.5
|   |   |   |   |   |   |   |   |   |   |   balance < 393.5
|   |   |   |   |   |   |   |   |   |   |   |   campaign < 2.5
|   |   |   |   |   |   |   |   |   |   |   |   |   balance < 388.5
|   |   |   |   |   |   |   |   |   |   |   |   |   |   campaign < 1.5 : yes (1/0)
|   |   |   |   |   |   |   |   |   |   |   |   |   |   campaign >= 1.5 : no (3/1)
|   |   |   |   |   |   |   |   |   |   |   |   |   balance >= 388.5 : no (3/0)
|   |   |   |   |   |   |   |   |   |   |   |   campaign >= 2.5 : yes (1/0)
|   |   |   |   |   |   |   |   |   |   |   balance >= 393.5
|   |   |   |   |   |   |   |   |   |   |   |   campaign < 2.5
|   |   |   |   |   |   |   |   |   |   |   |   |   balance < 414.5 : no (21/0)
|   |   |   |   |   |   |   |   |   |   |   |   |   balance >= 414.5
|   |   |   |   |   |   |   |   |   |   |   |   |   |   campaign < 1.5
|   |   |   |   |   |   |   |   |   |   |   |   |   |   |   balance < 415.5 : yes (1/0)
|   |   |   |   |   |   |   |   |   |   |   |   |   |   |   balance >= 415.5 : no (10/0)
|   |   |   |   |   |   |   |   |   |   |   |   |   |   campaign >= 1.5
|   |   |   |   |   |   |   |   |   |   |   |   |   |   |   balance < 428.5
|   |   |   |   |   |   |   |   |   |   |   |   |   |   |   |   balance < 425 : no (2/0)
|   |   |   |   |   |   |   |   |   |   |   |   |   |   |   |   balance >= 425 : no (2/1)
|   |   |   |   |   |   |   |   |   |   |   |   |   |   |   balance >= 428.5 : no (4/0)
|   |   |   |   |   |   |   |   |   |   |   |   campaign >= 2.5 : no (3/0)
|   |   |   |   |   |   |   |   |   |   campaign >= 3.5 : no (5/0)
|   |   |   |   |   |   |   |   campaign >= 4.5 : no (17/0)
|   |   |   |   |   |   |   balance >= 436.5 : no (2/1)
|   |   |   |   |   |   balance >= 437.5
|   |   |   |   |   |   |   campaign < 3.5 : no (72/0)
|   |   |   |   |   |   |   campaign >= 3.5
|   |   |   |   |   |   |   |   campaign < 4.5
|   |   |   |   |   |   |   |   |   balance < 484.5 : no (3/0)
|   |   |   |   |   |   |   |   |   balance >= 484.5
|   |   |   |   |   |   |   |   |   |   balance < 489 : yes (1/0)
|   |   |   |   |   |   |   |   |   |   balance >= 489 : no (1/0)
|   |   |   |   |   |   |   |   campaign >= 4.5 : no (10/0)
|   |   |   |   |   balance >= 516.5
|   |   |   |   |   |   balance < 521.5
|   |   |   |   |   |   |   campaign < 2.5
|   |   |   |   |   |   |   |   campaign < 1.5
|   |   |   |   |   |   |   |   |   balance < 517.5 : no (2/1)
|   |   |   |   |   |   |   |   |   balance >= 517.5 : no (1/0)
|   |   |   |   |   |   |   |   campaign >= 1.5 : no (1/0)
|   |   |   |   |   |   |   campaign >= 2.5 : yes (1/0)
|   |   |   |   |   |   balance >= 521.5
|   |   |   |   |   |   |   balance < 1742
|   |   |   |   |   |   |   |   balance < 1376
|   |   |   |   |   |   |   |   |   balance < 1320
|   |   |   |   |   |   |   |   |   |   campaign < 2.5
|   |   |   |   |   |   |   |   |   |   |   campaign < 1.5
|   |   |   |   |   |   |   |   |   |   |   |   balance < 1307.5
|   |   |   |   |   |   |   |   |   |   |   |   |   balance < 1064.5
|   |   |   |   |   |   |   |   |   |   |   |   |   |   balance < 1061
|   |   |   |   |   |   |   |   |   |   |   |   |   |   |   balance < 616.5
|   |   |   |   |   |   |   |   |   |   |   |   |   |   |   |   balance < 615.5
|   |   |   |   |   |   |   |   |   |   |   |   |   |   |   |   |   balance < 583.5
|   |   |   |   |   |   |   |   |   |   |   |   |   |   |   |   |   |   balance < 562.5
|   |   |   |   |   |   |   |   |   |   |   |   |   |   |   |   |   |   |   balance < 537
|   |   |   |   |   |   |   |   |   |   |   |   |   |   |   |   |   |   |   |   balance < 532.5 : no (5/0)
|   |   |   |   |   |   |   |   |   |   |   |   |   |   |   |   |   |   |   |   balance >= 532.5 : yes (1/0)
|   |   |   |   |   |   |   |   |   |   |   |   |   |   |   |   |   |   |   balance >= 537 : no (9/0)
|   |   |   |   |   |   |   |   |   |   |   |   |   |   |   |   |   |   balance >= 562.5
|   |   |   |   |   |   |   |   |   |   |   |   |   |   |   |   |   |   |   balance < 578
|   |   |   |   |   |   |   |   |   |   |   |   |   |   |   |   |   |   |   |   balance < 567 : no (2/1)
|   |   |   |   |   |   |   |   |   |   |   |   |   |   |   |   |   |   |   |   balance >= 567 : no (2/0)
|   |   |   |   |   |   |   |   |   |   |   |   |   |   |   |   |   |   |   balance >= 578
|   |   |   |   |   |   |   |   |   |   |   |   |   |   |   |   |   |   |   |   balance < 580.5 : yes (1/0)
|   |   |   |   |   |   |   |   |   |   |   |   |   |   |   |   |   |   |   |   balance >= 580.5
|   |   |   |   |   |   |   |   |   |   |   |   |   |   |   |   |   |   |   |   |   balance < 582 : no (1/0)
|   |   |   |   |   |   |   |   |   |   |   |   |   |   |   |   |   |   |   |   |   balance >= 582 : no (2/1)
|   |   |   |   |   |   |   |   |   |   |   |   |   |   |   |   |   balance >= 583.5 : no (8/0)
|   |   |   |   |   |   |   |   |   |   |   |   |   |   |   |   balance >= 615.5 : yes (1/0)
|   |   |   |   |   |   |   |   |   |   |   |   |   |   |   balance >= 616.5
|   |   |   |   |   |   |   |   |   |   |   |   |   |   |   |   balance < 940
|   |   |   |   |   |   |   |   |   |   |   |   |   |   |   |   |   balance < 938
|   |   |   |   |   |   |   |   |   |   |   |   |   |   |   |   |   |   balance < 871
|   |   |   |   |   |   |   |   |   |   |   |   |   |   |   |   |   |   |   balance < 828.5
|   |   |   |   |   |   |   |   |   |   |   |   |   |   |   |   |   |   |   |   balance < 706
|   |   |   |   |   |   |   |   |   |   |   |   |   |   |   |   |   |   |   |   |   balance < 701
|   |   |   |   |   |   |   |   |   |   |   |   |   |   |   |   |   |   |   |   |   |   balance < 662
|   |   |   |   |   |   |   |   |   |   |   |   |   |   |   |   |   |   |   |   |   |   |   balance < 656.5 : no (10/0)
|   |   |   |   |   |   |   |   |   |   |   |   |   |   |   |   |   |   |   |   |   |   |   balance >= 656.5 : yes (1/0)
|   |   |   |   |   |   |   |   |   |   |   |   |   |   |   |   |   |   |   |   |   |   balance >= 662 : no (12/0)
|   |   |   |   |   |   |   |   |   |   |   |   |   |   |   |   |   |   |   |   |   balance >= 701 : no (3/1)
|   |   |   |   |   |   |   |   |   |   |   |   |   |   |   |   |   |   |   |   balance >= 706 : no (33/0)
|   |   |   |   |   |   |   |   |   |   |   |   |   |   |   |   |   |   |   balance >= 828.5
|   |   |   |   |   |   |   |   |   |   |   |   |   |   |   |   |   |   |   |   balance < 831 : yes (3/1)
|   |   |   |   |   |   |   |   |   |   |   |   |   |   |   |   |   |   |   |   balance >= 831
|   |   |   |   |   |   |   |   |   |   |   |   |   |   |   |   |   |   |   |   |   balance < 866.5 : no (8/0)
|   |   |   |   |   |   |   |   |   |   |   |   |   |   |   |   |   |   |   |   |   balance >= 866.5 : no (2/1)
|   |   |   |   |   |   |   |   |   |   |   |   |   |   |   |   |   |   balance >= 871 : no (16/0)
|   |   |   |   |   |   |   |   |   |   |   |   |   |   |   |   |   balance >= 938 : yes (1/0)
|   |   |   |   |   |   |   |   |   |   |   |   |   |   |   |   balance >= 940 : no (14/0)
|   |   |   |   |   |   |   |   |   |   |   |   |   |   balance >= 1061 : yes (1/0)
|   |   |   |   |   |   |   |   |   |   |   |   |   balance >= 1064.5 : no (35/0)
|   |   |   |   |   |   |   |   |   |   |   |   balance >= 1307.5
|   |   |   |   |   |   |   |   |   |   |   |   |   balance < 1313 : yes (1/0)
|   |   |   |   |   |   |   |   |   |   |   |   |   balance >= 1313
|   |   |   |   |   |   |   |   |   |   |   |   |   |   balance < 1316 : no (1/0)
|   |   |   |   |   |   |   |   |   |   |   |   |   |   balance >= 1316 : yes (1/0)
|   |   |   |   |   |   |   |   |   |   |   campaign >= 1.5
|   |   |   |   |   |   |   |   |   |   |   |   balance < 799.5
|   |   |   |   |   |   |   |   |   |   |   |   |   balance < 589
|   |   |   |   |   |   |   |   |   |   |   |   |   |   balance < 586.5 : no (14/0)
|   |   |   |   |   |   |   |   |   |   |   |   |   |   balance >= 586.5 : yes (1/0)
|   |   |   |   |   |   |   |   |   |   |   |   |   balance >= 589 : no (32/0)
|   |   |   |   |   |   |   |   |   |   |   |   balance >= 799.5
|   |   |   |   |   |   |   |   |   |   |   |   |   balance < 805 : yes (1/0)
|   |   |   |   |   |   |   |   |   |   |   |   |   balance >= 805
|   |   |   |   |   |   |   |   |   |   |   |   |   |   balance < 1065
|   |   |   |   |   |   |   |   |   |   |   |   |   |   |   balance < 1049.5
|   |   |   |   |   |   |   |   |   |   |   |   |   |   |   |   balance < 1013
|   |   |   |   |   |   |   |   |   |   |   |   |   |   |   |   |   balance < 997.5
|   |   |   |   |   |   |   |   |   |   |   |   |   |   |   |   |   |   balance < 824.5 : no (4/0)
|   |   |   |   |   |   |   |   |   |   |   |   |   |   |   |   |   |   balance >= 824.5
|   |   |   |   |   |   |   |   |   |   |   |   |   |   |   |   |   |   |   balance < 859.5
|   |   |   |   |   |   |   |   |   |   |   |   |   |   |   |   |   |   |   |   balance < 834.5 : yes (1/0)
|   |   |   |   |   |   |   |   |   |   |   |   |   |   |   |   |   |   |   |   balance >= 834.5
|   |   |   |   |   |   |   |   |   |   |   |   |   |   |   |   |   |   |   |   |   balance < 846.5 : no (1/0)
|   |   |   |   |   |   |   |   |   |   |   |   |   |   |   |   |   |   |   |   |   balance >= 846.5 : yes (1/0)
|   |   |   |   |   |   |   |   |   |   |   |   |   |   |   |   |   |   |   balance >= 859.5
|   |   |   |   |   |   |   |   |   |   |   |   |   |   |   |   |   |   |   |   balance < 915 : no (7/0)
|   |   |   |   |   |   |   |   |   |   |   |   |   |   |   |   |   |   |   |   balance >= 915
|   |   |   |   |   |   |   |   |   |   |   |   |   |   |   |   |   |   |   |   |   balance < 962
|   |   |   |   |   |   |   |   |   |   |   |   |   |   |   |   |   |   |   |   |   |   balance < 955
|   |   |   |   |   |   |   |   |   |   |   |   |   |   |   |   |   |   |   |   |   |   |   balance < 925.5 : no (2/1)
|   |   |   |   |   |   |   |   |   |   |   |   |   |   |   |   |   |   |   |   |   |   |   balance >= 925.5 : no (5/0)
|   |   |   |   |   |   |   |   |   |   |   |   |   |   |   |   |   |   |   |   |   |   balance >= 955 : yes (1/0)
|   |   |   |   |   |   |   |   |   |   |   |   |   |   |   |   |   |   |   |   |   balance >= 962 : no (3/0)
|   |   |   |   |   |   |   |   |   |   |   |   |   |   |   |   |   balance >= 997.5 : yes (1/0)
|   |   |   |   |   |   |   |   |   |   |   |   |   |   |   |   balance >= 1013 : no (5/0)
|   |   |   |   |   |   |   |   |   |   |   |   |   |   |   balance >= 1049.5 : yes (1/0)
|   |   |   |   |   |   |   |   |   |   |   |   |   |   balance >= 1065
|   |   |   |   |   |   |   |   |   |   |   |   |   |   |   balance < 1273 : no (22/0)
|   |   |   |   |   |   |   |   |   |   |   |   |   |   |   balance >= 1273
|   |   |   |   |   |   |   |   |   |   |   |   |   |   |   |   balance < 1277 : yes (1/0)
|   |   |   |   |   |   |   |   |   |   |   |   |   |   |   |   balance >= 1277
|   |   |   |   |   |   |   |   |   |   |   |   |   |   |   |   |   balance < 1302 : no (3/0)
|   |   |   |   |   |   |   |   |   |   |   |   |   |   |   |   |   balance >= 1302
|   |   |   |   |   |   |   |   |   |   |   |   |   |   |   |   |   |   balance < 1307 : yes (1/0)
|   |   |   |   |   |   |   |   |   |   |   |   |   |   |   |   |   |   balance >= 1307 : no (1/0)
|   |   |   |   |   |   |   |   |   |   campaign >= 2.5
|   |   |   |   |   |   |   |   |   |   |   balance < 534
|   |   |   |   |   |   |   |   |   |   |   |   balance < 530.5 : no (3/0)
|   |   |   |   |   |   |   |   |   |   |   |   balance >= 530.5 : yes (1/0)
|   |   |   |   |   |   |   |   |   |   |   balance >= 534
|   |   |   |   |   |   |   |   |   |   |   |   balance < 1145.5
|   |   |   |   |   |   |   |   |   |   |   |   |   balance < 1144
|   |   |   |   |   |   |   |   |   |   |   |   |   |   balance < 992.5
|   |   |   |   |   |   |   |   |   |   |   |   |   |   |   balance < 983
|   |   |   |   |   |   |   |   |   |   |   |   |   |   |   |   campaign < 3.5 : no (37/0)
|   |   |   |   |   |   |   |   |   |   |   |   |   |   |   |   campaign >= 3.5
|   |   |   |   |   |   |   |   |   |   |   |   |   |   |   |   |   balance < 797.5
|   |   |   |   |   |   |   |   |   |   |   |   |   |   |   |   |   |   balance < 758
|   |   |   |   |   |   |   |   |   |   |   |   |   |   |   |   |   |   |   balance < 563.5
|   |   |   |   |   |   |   |   |   |   |   |   |   |   |   |   |   |   |   |   balance < 559.5 : no (8/0)
|   |   |   |   |   |   |   |   |   |   |   |   |   |   |   |   |   |   |   |   balance >= 559.5 : yes (1/0)
|   |   |   |   |   |   |   |   |   |   |   |   |   |   |   |   |   |   |   balance >= 563.5 : no (17/0)
|   |   |   |   |   |   |   |   |   |   |   |   |   |   |   |   |   |   balance >= 758
|   |   |   |   |   |   |   |   |   |   |   |   |   |   |   |   |   |   |   campaign < 8 : yes (2/0)
|   |   |   |   |   |   |   |   |   |   |   |   |   |   |   |   |   |   |   campaign >= 8 : no (2/0)
|   |   |   |   |   |   |   |   |   |   |   |   |   |   |   |   |   balance >= 797.5 : no (18/0)
|   |   |   |   |   |   |   |   |   |   |   |   |   |   |   balance >= 983 : yes (1/0)
|   |   |   |   |   |   |   |   |   |   |   |   |   |   balance >= 992.5 : no (17/0)
|   |   |   |   |   |   |   |   |   |   |   |   |   balance >= 1144 : yes (1/0)
|   |   |   |   |   |   |   |   |   |   |   |   balance >= 1145.5 : no (16/0)
|   |   |   |   |   |   |   |   |   balance >= 1320 : no (30/0)
|   |   |   |   |   |   |   |   balance >= 1376
|   |   |   |   |   |   |   |   |   campaign < 7
|   |   |   |   |   |   |   |   |   |   balance < 1437
|   |   |   |   |   |   |   |   |   |   |   campaign < 3.5
|   |   |   |   |   |   |   |   |   |   |   |   campaign < 1.5
|   |   |   |   |   |   |   |   |   |   |   |   |   balance < 1428.5
|   |   |   |   |   |   |   |   |   |   |   |   |   |   balance < 1403
|   |   |   |   |   |   |   |   |   |   |   |   |   |   |   balance < 1392
|   |   |   |   |   |   |   |   |   |   |   |   |   |   |   |   balance < 1383.5 : no (2/1)
|   |   |   |   |   |   |   |   |   |   |   |   |   |   |   |   balance >= 1383.5 : no (1/0)
|   |   |   |   |   |   |   |   |   |   |   |   |   |   |   balance >= 1392 : yes (1/0)
|   |   |   |   |   |   |   |   |   |   |   |   |   |   balance >= 1403 : no (3/0)
|   |   |   |   |   |   |   |   |   |   |   |   |   balance >= 1428.5 : yes (2/0)
|   |   |   |   |   |   |   |   |   |   |   |   campaign >= 1.5
|   |   |   |   |   |   |   |   |   |   |   |   |   balance < 1383 : no (2/0)
|   |   |   |   |   |   |   |   |   |   |   |   |   balance >= 1383
|   |   |   |   |   |   |   |   |   |   |   |   |   |   balance < 1401
|   |   |   |   |   |   |   |   |   |   |   |   |   |   |   balance < 1394
|   |   |   |   |   |   |   |   |   |   |   |   |   |   |   |   campaign < 2.5 : no (2/1)
|   |   |   |   |   |   |   |   |   |   |   |   |   |   |   |   campaign >= 2.5 : no (1/0)
|   |   |   |   |   |   |   |   |   |   |   |   |   |   |   balance >= 1394 : yes (1/0)
|   |   |   |   |   |   |   |   |   |   |   |   |   |   balance >= 1401
|   |   |   |   |   |   |   |   |   |   |   |   |   |   |   balance < 1424 : no (4/0)
|   |   |   |   |   |   |   |   |   |   |   |   |   |   |   balance >= 1424
|   |   |   |   |   |   |   |   |   |   |   |   |   |   |   |   balance < 1428.5 : yes (1/0)
|   |   |   |   |   |   |   |   |   |   |   |   |   |   |   |   balance >= 1428.5 : no (1/0)
|   |   |   |   |   |   |   |   |   |   |   campaign >= 3.5 : no (4/0)
|   |   |   |   |   |   |   |   |   |   balance >= 1437
|   |   |   |   |   |   |   |   |   |   |   balance < 1735
|   |   |   |   |   |   |   |   |   |   |   |   campaign < 3.5
|   |   |   |   |   |   |   |   |   |   |   |   |   balance < 1627.5
|   |   |   |   |   |   |   |   |   |   |   |   |   |   balance < 1613.5
|   |   |   |   |   |   |   |   |   |   |   |   |   |   |   campaign < 1.5 : no (18/0)
|   |   |   |   |   |   |   |   |   |   |   |   |   |   |   campaign >= 1.5
|   |   |   |   |   |   |   |   |   |   |   |   |   |   |   |   balance < 1513
|   |   |   |   |   |   |   |   |   |   |   |   |   |   |   |   |   balance < 1499 : no (4/0)
|   |   |   |   |   |   |   |   |   |   |   |   |   |   |   |   |   balance >= 1499 : yes (1/0)
|   |   |   |   |   |   |   |   |   |   |   |   |   |   |   |   balance >= 1513 : no (13/0)
|   |   |   |   |   |   |   |   |   |   |   |   |   |   balance >= 1613.5 : yes (2/0)
|   |   |   |   |   |   |   |   |   |   |   |   |   balance >= 1627.5 : no (18/0)
|   |   |   |   |   |   |   |   |   |   |   |   campaign >= 3.5
|   |   |   |   |   |   |   |   |   |   |   |   |   balance < 1508 : no (3/0)
|   |   |   |   |   |   |   |   |   |   |   |   |   balance >= 1508
|   |   |   |   |   |   |   |   |   |   |   |   |   |   campaign < 5
|   |   |   |   |   |   |   |   |   |   |   |   |   |   |   balance < 1582 : no (2/0)
|   |   |   |   |   |   |   |   |   |   |   |   |   |   |   balance >= 1582
|   |   |   |   |   |   |   |   |   |   |   |   |   |   |   |   balance < 1627.5 : yes (1/0)
|   |   |   |   |   |   |   |   |   |   |   |   |   |   |   |   balance >= 1627.5
|   |   |   |   |   |   |   |   |   |   |   |   |   |   |   |   |   balance < 1692 : no (1/0)
|   |   |   |   |   |   |   |   |   |   |   |   |   |   |   |   |   balance >= 1692 : yes (1/0)
|   |   |   |   |   |   |   |   |   |   |   |   |   |   campaign >= 5 : yes (1/0)
|   |   |   |   |   |   |   |   |   |   |   balance >= 1735 : yes (1/0)
|   |   |   |   |   |   |   |   |   campaign >= 7 : no (5/0)
|   |   |   |   |   |   |   balance >= 1742
|   |   |   |   |   |   |   |   balance < 1947 : no (41/0)
|   |   |   |   |   |   |   |   balance >= 1947
|   |   |   |   |   |   |   |   |   campaign < 2.5
|   |   |   |   |   |   |   |   |   |   campaign < 1.5
|   |   |   |   |   |   |   |   |   |   |   balance < 2065.5 : no (11/0)
|   |   |   |   |   |   |   |   |   |   |   balance >= 2065.5
|   |   |   |   |   |   |   |   |   |   |   |   balance < 2071.5 : yes (1/0)
|   |   |   |   |   |   |   |   |   |   |   |   balance >= 2071.5 : no (6/0)
|   |   |   |   |   |   |   |   |   |   campaign >= 1.5
|   |   |   |   |   |   |   |   |   |   |   balance < 2150.5
|   |   |   |   |   |   |   |   |   |   |   |   balance < 2136.5
|   |   |   |   |   |   |   |   |   |   |   |   |   balance < 1972 : no (2/1)
|   |   |   |   |   |   |   |   |   |   |   |   |   balance >= 1972 : no (4/0)
|   |   |   |   |   |   |   |   |   |   |   |   balance >= 2136.5 : yes (1/0)
|   |   |   |   |   |   |   |   |   |   |   balance >= 2150.5 : no (4/0)
|   |   |   |   |   |   |   |   |   campaign >= 2.5 : no (15/0)
|   |   balance >= 2238
|   |   |   balance < 2249 : yes (2/0)
|   |   |   balance >= 2249
|   |   |   |   balance < 2364.5
|   |   |   |   |   campaign < 9
|   |   |   |   |   |   balance < 2280.5 : no (6/0)
|   |   |   |   |   |   balance >= 2280.5
|   |   |   |   |   |   |   campaign < 6
|   |   |   |   |   |   |   |   balance < 2290.5 : yes (2/0)
|   |   |   |   |   |   |   |   balance >= 2290.5
|   |   |   |   |   |   |   |   |   balance < 2325 : no (6/0)
|   |   |   |   |   |   |   |   |   balance >= 2325
|   |   |   |   |   |   |   |   |   |   balance < 2339 : yes (1/0)
|   |   |   |   |   |   |   |   |   |   balance >= 2339
|   |   |   |   |   |   |   |   |   |   |   balance < 2362
|   |   |   |   |   |   |   |   |   |   |   |   balance < 2356
|   |   |   |   |   |   |   |   |   |   |   |   |   campaign < 1.5 : no (1/0)
|   |   |   |   |   |   |   |   |   |   |   |   |   campaign >= 1.5 : yes (1/0)
|   |   |   |   |   |   |   |   |   |   |   |   balance >= 2356 : no (3/0)
|   |   |   |   |   |   |   |   |   |   |   balance >= 2362 : yes (1/0)
|   |   |   |   |   |   |   campaign >= 6 : yes (1/0)
|   |   |   |   |   campaign >= 9 : no (2/0)
|   |   |   |   balance >= 2364.5
|   |   |   |   |   balance < 2899.5
|   |   |   |   |   |   campaign < 2.5
|   |   |   |   |   |   |   balance < 2467.5
|   |   |   |   |   |   |   |   campaign < 1.5
|   |   |   |   |   |   |   |   |   balance < 2461 : no (4/0)
|   |   |   |   |   |   |   |   |   balance >= 2461 : yes (1/0)
|   |   |   |   |   |   |   |   campaign >= 1.5 : no (6/0)
|   |   |   |   |   |   |   balance >= 2467.5 : no (37/0)
|   |   |   |   |   |   campaign >= 2.5
|   |   |   |   |   |   |   balance < 2750.5
|   |   |   |   |   |   |   |   campaign < 5.5
|   |   |   |   |   |   |   |   |   balance < 2729
|   |   |   |   |   |   |   |   |   |   campaign < 4.5
|   |   |   |   |   |   |   |   |   |   |   balance < 2453 : no (4/0)
|   |   |   |   |   |   |   |   |   |   |   balance >= 2453
|   |   |   |   |   |   |   |   |   |   |   |   balance < 2467 : yes (1/0)
|   |   |   |   |   |   |   |   |   |   |   |   balance >= 2467
|   |   |   |   |   |   |   |   |   |   |   |   |   campaign < 3.5
|   |   |   |   |   |   |   |   |   |   |   |   |   |   balance < 2617 : no (4/0)
|   |   |   |   |   |   |   |   |   |   |   |   |   |   balance >= 2617
|   |   |   |   |   |   |   |   |   |   |   |   |   |   |   balance < 2636 : yes (1/0)
|   |   |   |   |   |   |   |   |   |   |   |   |   |   |   balance >= 2636 : no (1/0)
|   |   |   |   |   |   |   |   |   |   |   |   |   campaign >= 3.5 : no (2/0)
|   |   |   |   |   |   |   |   |   |   campaign >= 4.5 : yes (1/0)
|   |   |   |   |   |   |   |   |   balance >= 2729 : yes (1/0)
|   |   |   |   |   |   |   |   campaign >= 5.5 : no (4/0)
|   |   |   |   |   |   |   balance >= 2750.5 : no (4/0)
|   |   |   |   |   balance >= 2899.5
|   |   |   |   |   |   balance < 2905.5 : yes (1/0)
|   |   |   |   |   |   balance >= 2905.5
|   |   |   |   |   |   |   campaign < 7.5
|   |   |   |   |   |   |   |   balance < 2985.5 : no (7/0)
|   |   |   |   |   |   |   |   balance >= 2985.5
|   |   |   |   |   |   |   |   |   balance < 2987.5 : yes (1/0)
|   |   |   |   |   |   |   |   |   balance >= 2987.5
|   |   |   |   |   |   |   |   |   |   balance < 18155.5
|   |   |   |   |   |   |   |   |   |   |   balance < 17955
|   |   |   |   |   |   |   |   |   |   |   |   balance < 14755.5
|   |   |   |   |   |   |   |   |   |   |   |   |   balance < 13894.5
|   |   |   |   |   |   |   |   |   |   |   |   |   |   balance < 5057
|   |   |   |   |   |   |   |   |   |   |   |   |   |   |   balance < 3955.5
|   |   |   |   |   |   |   |   |   |   |   |   |   |   |   |   balance < 3933.5
|   |   |   |   |   |   |   |   |   |   |   |   |   |   |   |   |   balance < 3838.5
|   |   |   |   |   |   |   |   |   |   |   |   |   |   |   |   |   |   campaign < 6
|   |   |   |   |   |   |   |   |   |   |   |   |   |   |   |   |   |   |   balance < 3815
|   |   |   |   |   |   |   |   |   |   |   |   |   |   |   |   |   |   |   |   balance < 3056.5
|   |   |   |   |   |   |   |   |   |   |   |   |   |   |   |   |   |   |   |   |   balance < 3029.5 : no (3/0)
|   |   |   |   |   |   |   |   |   |   |   |   |   |   |   |   |   |   |   |   |   balance >= 3029.5
|   |   |   |   |   |   |   |   |   |   |   |   |   |   |   |   |   |   |   |   |   |   campaign < 2 : no (2/1)
|   |   |   |   |   |   |   |   |   |   |   |   |   |   |   |   |   |   |   |   |   |   campaign >= 2 : yes (1/0)
|   |   |   |   |   |   |   |   |   |   |   |   |   |   |   |   |   |   |   |   balance >= 3056.5
|   |   |   |   |   |   |   |   |   |   |   |   |   |   |   |   |   |   |   |   |   balance < 3139 : no (8/0)
|   |   |   |   |   |   |   |   |   |   |   |   |   |   |   |   |   |   |   |   |   balance >= 3139
|   |   |   |   |   |   |   |   |   |   |   |   |   |   |   |   |   |   |   |   |   |   balance < 3149.5 : yes (1/0)
|   |   |   |   |   |   |   |   |   |   |   |   |   |   |   |   |   |   |   |   |   |   balance >= 3149.5
|   |   |   |   |   |   |   |   |   |   |   |   |   |   |   |   |   |   |   |   |   |   |   balance < 3560
|   |   |   |   |   |   |   |   |   |   |   |   |   |   |   |   |   |   |   |   |   |   |   |   campaign < 1.5 : no (13/0)
|   |   |   |   |   |   |   |   |   |   |   |   |   |   |   |   |   |   |   |   |   |   |   |   campaign >= 1.5
|   |   |   |   |   |   |   |   |   |   |   |   |   |   |   |   |   |   |   |   |   |   |   |   |   balance < 3236.5
|   |   |   |   |   |   |   |   |   |   |   |   |   |   |   |   |   |   |   |   |   |   |   |   |   |   campaign < 2.5 : yes (1/0)
|   |   |   |   |   |   |   |   |   |   |   |   |   |   |   |   |   |   |   |   |   |   |   |   |   |   campaign >= 2.5 : no (1/0)
|   |   |   |   |   |   |   |   |   |   |   |   |   |   |   |   |   |   |   |   |   |   |   |   |   balance >= 3236.5
|   |   |   |   |   |   |   |   |   |   |   |   |   |   |   |   |   |   |   |   |   |   |   |   |   |   campaign < 4.5 : no (10/0)
|   |   |   |   |   |   |   |   |   |   |   |   |   |   |   |   |   |   |   |   |   |   |   |   |   |   campaign >= 4.5
|   |   |   |   |   |   |   |   |   |   |   |   |   |   |   |   |   |   |   |   |   |   |   |   |   |   |   balance < 3404 : yes (1/0)
|   |   |   |   |   |   |   |   |   |   |   |   |   |   |   |   |   |   |   |   |   |   |   |   |   |   |   balance >= 3404 : no (2/0)
|   |   |   |   |   |   |   |   |   |   |   |   |   |   |   |   |   |   |   |   |   |   |   balance >= 3560
|   |   |   |   |   |   |   |   |   |   |   |   |   |   |   |   |   |   |   |   |   |   |   |   balance < 3582.5 : yes (1/0)
|   |   |   |   |   |   |   |   |   |   |   |   |   |   |   |   |   |   |   |   |   |   |   |   balance >= 3582.5
|   |   |   |   |   |   |   |   |   |   |   |   |   |   |   |   |   |   |   |   |   |   |   |   |   balance < 3631.5 : no (4/0)
|   |   |   |   |   |   |   |   |   |   |   |   |   |   |   |   |   |   |   |   |   |   |   |   |   balance >= 3631.5
|   |   |   |   |   |   |   |   |   |   |   |   |   |   |   |   |   |   |   |   |   |   |   |   |   |   balance < 3652 : yes (2/0)
|   |   |   |   |   |   |   |   |   |   |   |   |   |   |   |   |   |   |   |   |   |   |   |   |   |   balance >= 3652
|   |   |   |   |   |   |   |   |   |   |   |   |   |   |   |   |   |   |   |   |   |   |   |   |   |   |   campaign < 1.5
|   |   |   |   |   |   |   |   |   |   |   |   |   |   |   |   |   |   |   |   |   |   |   |   |   |   |   |   balance < 3720.5 : no (2/0)
|   |   |   |   |   |   |   |   |   |   |   |   |   |   |   |   |   |   |   |   |   |   |   |   |   |   |   |   balance >= 3720.5
|   |   |   |   |   |   |   |   |   |   |   |   |   |   |   |   |   |   |   |   |   |   |   |   |   |   |   |   |   balance < 3746 : yes (1/0)
|   |   |   |   |   |   |   |   |   |   |   |   |   |   |   |   |   |   |   |   |   |   |   |   |   |   |   |   |   balance >= 3746 : no (2/0)
|   |   |   |   |   |   |   |   |   |   |   |   |   |   |   |   |   |   |   |   |   |   |   |   |   |   |   campaign >= 1.5 : no (5/0)
|   |   |   |   |   |   |   |   |   |   |   |   |   |   |   |   |   |   |   balance >= 3815 : yes (2/0)
|   |   |   |   |   |   |   |   |   |   |   |   |   |   |   |   |   |   campaign >= 6 : yes (1/0)
|   |   |   |   |   |   |   |   |   |   |   |   |   |   |   |   |   balance >= 3838.5 : no (8/0)
|   |   |   |   |   |   |   |   |   |   |   |   |   |   |   |   balance >= 3933.5
|   |   |   |   |   |   |   |   |   |   |   |   |   |   |   |   |   campaign < 1.5 : yes (1/0)
|   |   |   |   |   |   |   |   |   |   |   |   |   |   |   |   |   campaign >= 1.5
|   |   |   |   |   |   |   |   |   |   |   |   |   |   |   |   |   |   balance < 3939.5 : no (1/0)
|   |   |   |   |   |   |   |   |   |   |   |   |   |   |   |   |   |   balance >= 3939.5 : yes (1/0)
|   |   |   |   |   |   |   |   |   |   |   |   |   |   |   balance >= 3955.5
|   |   |   |   |   |   |   |   |   |   |   |   |   |   |   |   balance < 4375 : no (29/0)
|   |   |   |   |   |   |   |   |   |   |   |   |   |   |   |   balance >= 4375
|   |   |   |   |   |   |   |   |   |   |   |   |   |   |   |   |   balance < 4409 : yes (1/0)
|   |   |   |   |   |   |   |   |   |   |   |   |   |   |   |   |   balance >= 4409
|   |   |   |   |   |   |   |   |   |   |   |   |   |   |   |   |   |   balance < 4703
|   |   |   |   |   |   |   |   |   |   |   |   |   |   |   |   |   |   |   balance < 4687.5 : no (8/0)
|   |   |   |   |   |   |   |   |   |   |   |   |   |   |   |   |   |   |   balance >= 4687.5 : yes (1/0)
|   |   |   |   |   |   |   |   |   |   |   |   |   |   |   |   |   |   balance >= 4703 : no (13/0)
|   |   |   |   |   |   |   |   |   |   |   |   |   |   balance >= 5057
|   |   |   |   |   |   |   |   |   |   |   |   |   |   |   balance < 5115.5 : yes (2/0)
|   |   |   |   |   |   |   |   |   |   |   |   |   |   |   balance >= 5115.5
|   |   |   |   |   |   |   |   |   |   |   |   |   |   |   |   campaign < 3.5
|   |   |   |   |   |   |   |   |   |   |   |   |   |   |   |   |   balance < 5308 : no (9/0)
|   |   |   |   |   |   |   |   |   |   |   |   |   |   |   |   |   balance >= 5308
|   |   |   |   |   |   |   |   |   |   |   |   |   |   |   |   |   |   balance < 5395 : yes (2/0)
|   |   |   |   |   |   |   |   |   |   |   |   |   |   |   |   |   |   balance >= 5395
|   |   |   |   |   |   |   |   |   |   |   |   |   |   |   |   |   |   |   balance < 6827.5
|   |   |   |   |   |   |   |   |   |   |   |   |   |   |   |   |   |   |   |   campaign < 2.5
|   |   |   |   |   |   |   |   |   |   |   |   |   |   |   |   |   |   |   |   |   balance < 5492.5
|   |   |   |   |   |   |   |   |   |   |   |   |   |   |   |   |   |   |   |   |   |   balance < 5434.5 : no (2/0)
|   |   |   |   |   |   |   |   |   |   |   |   |   |   |   |   |   |   |   |   |   |   balance >= 5434.5 : yes (1/0)
|   |   |   |   |   |   |   |   |   |   |   |   |   |   |   |   |   |   |   |   |   balance >= 5492.5
|   |   |   |   |   |   |   |   |   |   |   |   |   |   |   |   |   |   |   |   |   |   balance < 6003 : no (14/0)
|   |   |   |   |   |   |   |   |   |   |   |   |   |   |   |   |   |   |   |   |   |   balance >= 6003
|   |   |   |   |   |   |   |   |   |   |   |   |   |   |   |   |   |   |   |   |   |   |   balance < 6036.5 : yes (1/0)
|   |   |   |   |   |   |   |   |   |   |   |   |   |   |   |   |   |   |   |   |   |   |   balance >= 6036.5 : no (14/0)
|   |   |   |   |   |   |   |   |   |   |   |   |   |   |   |   |   |   |   |   campaign >= 2.5
|   |   |   |   |   |   |   |   |   |   |   |   |   |   |   |   |   |   |   |   |   balance < 5884.5 : no (3/0)
|   |   |   |   |   |   |   |   |   |   |   |   |   |   |   |   |   |   |   |   |   balance >= 5884.5
|   |   |   |   |   |   |   |   |   |   |   |   |   |   |   |   |   |   |   |   |   |   balance < 6119 : yes (1/0)
|   |   |   |   |   |   |   |   |   |   |   |   |   |   |   |   |   |   |   |   |   |   balance >= 6119 : no (3/0)
|   |   |   |   |   |   |   |   |   |   |   |   |   |   |   |   |   |   |   balance >= 6827.5
|   |   |   |   |   |   |   |   |   |   |   |   |   |   |   |   |   |   |   |   balance < 8135
|   |   |   |   |   |   |   |   |   |   |   |   |   |   |   |   |   |   |   |   |   campaign < 2.5
|   |   |   |   |   |   |   |   |   |   |   |   |   |   |   |   |   |   |   |   |   |   balance < 6891.5 : yes (1/0)
|   |   |   |   |   |   |   |   |   |   |   |   |   |   |   |   |   |   |   |   |   |   balance >= 6891.5
|   |   |   |   |   |   |   |   |   |   |   |   |   |   |   |   |   |   |   |   |   |   |   balance < 7276.5 : no (3/0)
|   |   |   |   |   |   |   |   |   |   |   |   |   |   |   |   |   |   |   |   |   |   |   balance >= 7276.5
|   |   |   |   |   |   |   |   |   |   |   |   |   |   |   |   |   |   |   |   |   |   |   |   balance < 7367 : yes (1/0)
|   |   |   |   |   |   |   |   |   |   |   |   |   |   |   |   |   |   |   |   |   |   |   |   balance >= 7367
|   |   |   |   |   |   |   |   |   |   |   |   |   |   |   |   |   |   |   |   |   |   |   |   |   campaign < 1.5
|   |   |   |   |   |   |   |   |   |   |   |   |   |   |   |   |   |   |   |   |   |   |   |   |   |   balance < 7575 : no (3/0)
|   |   |   |   |   |   |   |   |   |   |   |   |   |   |   |   |   |   |   |   |   |   |   |   |   |   balance >= 7575
|   |   |   |   |   |   |   |   |   |   |   |   |   |   |   |   |   |   |   |   |   |   |   |   |   |   |   balance < 7741 : yes (2/0)
|   |   |   |   |   |   |   |   |   |   |   |   |   |   |   |   |   |   |   |   |   |   |   |   |   |   |   balance >= 7741
|   |   |   |   |   |   |   |   |   |   |   |   |   |   |   |   |   |   |   |   |   |   |   |   |   |   |   |   balance < 7799 : no (1/0)
|   |   |   |   |   |   |   |   |   |   |   |   |   |   |   |   |   |   |   |   |   |   |   |   |   |   |   |   balance >= 7799 : yes (2/0)
|   |   |   |   |   |   |   |   |   |   |   |   |   |   |   |   |   |   |   |   |   |   |   |   |   campaign >= 1.5
|   |   |   |   |   |   |   |   |   |   |   |   |   |   |   |   |   |   |   |   |   |   |   |   |   |   balance < 7669 : yes (1/0)
|   |   |   |   |   |   |   |   |   |   |   |   |   |   |   |   |   |   |   |   |   |   |   |   |   |   balance >= 7669 : no (3/0)
|   |   |   |   |   |   |   |   |   |   |   |   |   |   |   |   |   |   |   |   |   campaign >= 2.5
|   |   |   |   |   |   |   |   |   |   |   |   |   |   |   |   |   |   |   |   |   |   balance < 8059.5 : no (4/0)
|   |   |   |   |   |   |   |   |   |   |   |   |   |   |   |   |   |   |   |   |   |   balance >= 8059.5 : yes (1/0)
|   |   |   |   |   |   |   |   |   |   |   |   |   |   |   |   |   |   |   |   balance >= 8135
|   |   |   |   |   |   |   |   |   |   |   |   |   |   |   |   |   |   |   |   |   campaign < 1.5
|   |   |   |   |   |   |   |   |   |   |   |   |   |   |   |   |   |   |   |   |   |   balance < 12049.5 : no (13/0)
|   |   |   |   |   |   |   |   |   |   |   |   |   |   |   |   |   |   |   |   |   |   balance >= 12049.5
|   |   |   |   |   |   |   |   |   |   |   |   |   |   |   |   |   |   |   |   |   |   |   balance < 12481.5 : yes (1/0)
|   |   |   |   |   |   |   |   |   |   |   |   |   |   |   |   |   |   |   |   |   |   |   balance >= 12481.5 : no (4/0)
|   |   |   |   |   |   |   |   |   |   |   |   |   |   |   |   |   |   |   |   |   campaign >= 1.5
|   |   |   |   |   |   |   |   |   |   |   |   |   |   |   |   |   |   |   |   |   |   balance < 10568.5 : no (14/0)
|   |   |   |   |   |   |   |   |   |   |   |   |   |   |   |   |   |   |   |   |   |   balance >= 10568.5
|   |   |   |   |   |   |   |   |   |   |   |   |   |   |   |   |   |   |   |   |   |   |   balance < 10895.5 : yes (2/0)
|   |   |   |   |   |   |   |   |   |   |   |   |   |   |   |   |   |   |   |   |   |   |   balance >= 10895.5
|   |   |   |   |   |   |   |   |   |   |   |   |   |   |   |   |   |   |   |   |   |   |   |   balance < 12821 : no (6/0)
|   |   |   |   |   |   |   |   |   |   |   |   |   |   |   |   |   |   |   |   |   |   |   |   balance >= 12821
|   |   |   |   |   |   |   |   |   |   |   |   |   |   |   |   |   |   |   |   |   |   |   |   |   campaign < 2.5 : no (2/0)
|   |   |   |   |   |   |   |   |   |   |   |   |   |   |   |   |   |   |   |   |   |   |   |   |   campaign >= 2.5 : yes (1/0)
|   |   |   |   |   |   |   |   |   |   |   |   |   |   |   |   campaign >= 3.5
|   |   |   |   |   |   |   |   |   |   |   |   |   |   |   |   |   balance < 5830.5 : yes (1/0)
|   |   |   |   |   |   |   |   |   |   |   |   |   |   |   |   |   balance >= 5830.5
|   |   |   |   |   |   |   |   |   |   |   |   |   |   |   |   |   |   campaign < 4.5
|   |   |   |   |   |   |   |   |   |   |   |   |   |   |   |   |   |   |   balance < 6689 : yes (2/0)
|   |   |   |   |   |   |   |   |   |   |   |   |   |   |   |   |   |   |   balance >= 6689
|   |   |   |   |   |   |   |   |   |   |   |   |   |   |   |   |   |   |   |   balance < 11291 : no (2/0)
|   |   |   |   |   |   |   |   |   |   |   |   |   |   |   |   |   |   |   |   balance >= 11291 : yes (1/0)
|   |   |   |   |   |   |   |   |   |   |   |   |   |   |   |   |   |   campaign >= 4.5
|   |   |   |   |   |   |   |   |   |   |   |   |   |   |   |   |   |   |   campaign < 5.5 : no (3/0)
|   |   |   |   |   |   |   |   |   |   |   |   |   |   |   |   |   |   |   campaign >= 5.5
|   |   |   |   |   |   |   |   |   |   |   |   |   |   |   |   |   |   |   |   campaign < 6.5
|   |   |   |   |   |   |   |   |   |   |   |   |   |   |   |   |   |   |   |   |   balance < 8094 : no (2/0)
|   |   |   |   |   |   |   |   |   |   |   |   |   |   |   |   |   |   |   |   |   balance >= 8094 : yes (1/0)
|   |   |   |   |   |   |   |   |   |   |   |   |   |   |   |   |   |   |   |   campaign >= 6.5 : no (1/0)
|   |   |   |   |   |   |   |   |   |   |   |   |   balance >= 13894.5 : yes (1/0)
|   |   |   |   |   |   |   |   |   |   |   |   balance >= 14755.5 : no (7/0)
|   |   |   |   |   |   |   |   |   |   |   balance >= 17955 : yes (1/0)
|   |   |   |   |   |   |   |   |   |   balance >= 18155.5
|   |   |   |   |   |   |   |   |   |   |   balance < 27135.5 : no (13/0)
|   |   |   |   |   |   |   |   |   |   |   balance >= 27135.5
|   |   |   |   |   |   |   |   |   |   |   |   balance < 28791.5 : yes (1/0)
|   |   |   |   |   |   |   |   |   |   |   |   balance >= 28791.5 : no (4/0)
|   |   |   |   |   |   |   campaign >= 7.5 : no (7/0)
|   job = technician
|   |   balance < 835.5
|   |   |   balance < -1822.5 : yes (1/0)
|   |   |   balance >= -1822.5
|   |   |   |   campaign < 4.5
|   |   |   |   |   balance < 742.5
|   |   |   |   |   |   balance < 741.5
|   |   |   |   |   |   |   balance < -69
|   |   |   |   |   |   |   |   balance < -241.5
|   |   |   |   |   |   |   |   |   campaign < 3.5
|   |   |   |   |   |   |   |   |   |   campaign < 1.5
|   |   |   |   |   |   |   |   |   |   |   balance < -356
|   |   |   |   |   |   |   |   |   |   |   |   balance < -362.5
|   |   |   |   |   |   |   |   |   |   |   |   |   balance < -783 : no (14/0)
|   |   |   |   |   |   |   |   |   |   |   |   |   balance >= -783
|   |   |   |   |   |   |   |   |   |   |   |   |   |   balance < -766 : yes (1/0)
|   |   |   |   |   |   |   |   |   |   |   |   |   |   balance >= -766
|   |   |   |   |   |   |   |   |   |   |   |   |   |   |   balance < -464.5
|   |   |   |   |   |   |   |   |   |   |   |   |   |   |   |   balance < -472
|   |   |   |   |   |   |   |   |   |   |   |   |   |   |   |   |   balance < -670.5
|   |   |   |   |   |   |   |   |   |   |   |   |   |   |   |   |   |   balance < -739.5 : no (2/0)
|   |   |   |   |   |   |   |   |   |   |   |   |   |   |   |   |   |   balance >= -739.5 : yes (1/0)
|   |   |   |   |   |   |   |   |   |   |   |   |   |   |   |   |   balance >= -670.5 : no (7/0)
|   |   |   |   |   |   |   |   |   |   |   |   |   |   |   |   balance >= -472 : yes (1/0)
|   |   |   |   |   |   |   |   |   |   |   |   |   |   |   balance >= -464.5 : no (9/0)
|   |   |   |   |   |   |   |   |   |   |   |   balance >= -362.5 : yes (1/0)
|   |   |   |   |   |   |   |   |   |   |   balance >= -356 : no (22/0)
|   |   |   |   |   |   |   |   |   |   campaign >= 1.5
|   |   |   |   |   |   |   |   |   |   |   balance < -244.5
|   |   |   |   |   |   |   |   |   |   |   |   balance < -519
|   |   |   |   |   |   |   |   |   |   |   |   |   balance < -526.5 : no (16/0)
|   |   |   |   |   |   |   |   |   |   |   |   |   balance >= -526.5 : yes (1/0)
|   |   |   |   |   |   |   |   |   |   |   |   balance >= -519 : no (29/0)
|   |   |   |   |   |   |   |   |   |   |   balance >= -244.5 : no (2/1)
|   |   |   |   |   |   |   |   |   campaign >= 3.5 : no (8/0)
|   |   |   |   |   |   |   |   balance >= -241.5 : no (65/0)
|   |   |   |   |   |   |   balance >= -69
|   |   |   |   |   |   |   |   balance < -65 : yes (1/0)
|   |   |   |   |   |   |   |   balance >= -65
|   |   |   |   |   |   |   |   |   campaign < 2.5
|   |   |   |   |   |   |   |   |   |   balance < 706.5
|   |   |   |   |   |   |   |   |   |   |   balance < 701.5
|   |   |   |   |   |   |   |   |   |   |   |   balance < 615.5
|   |   |   |   |   |   |   |   |   |   |   |   |   balance < 614.5
|   |   |   |   |   |   |   |   |   |   |   |   |   |   balance < 588
|   |   |   |   |   |   |   |   |   |   |   |   |   |   |   balance < 557.5
|   |   |   |   |   |   |   |   |   |   |   |   |   |   |   |   campaign < 1.5
|   |   |   |   |   |   |   |   |   |   |   |   |   |   |   |   |   balance < 556.5
|   |   |   |   |   |   |   |   |   |   |   |   |   |   |   |   |   |   balance < 231
|   |   |   |   |   |   |   |   |   |   |   |   |   |   |   |   |   |   |   balance < 193
|   |   |   |   |   |   |   |   |   |   |   |   |   |   |   |   |   |   |   |   balance < 142
|   |   |   |   |   |   |   |   |   |   |   |   |   |   |   |   |   |   |   |   |   balance < 137.5
|   |   |   |   |   |   |   |   |   |   |   |   |   |   |   |   |   |   |   |   |   |   balance < -0.5 : no (11/0)
|   |   |   |   |   |   |   |   |   |   |   |   |   |   |   |   |   |   |   |   |   |   balance >= -0.5
|   |   |   |   |   |   |   |   |   |   |   |   |   |   |   |   |   |   |   |   |   |   |   balance < 6.5
|   |   |   |   |   |   |   |   |   |   |   |   |   |   |   |   |   |   |   |   |   |   |   |   balance < 0.5 : no (42/2)
|   |   |   |   |   |   |   |   |   |   |   |   |   |   |   |   |   |   |   |   |   |   |   |   balance >= 0.5
|   |   |   |   |   |   |   |   |   |   |   |   |   |   |   |   |   |   |   |   |   |   |   |   |   balance < 1.5 : no (3/1)
|   |   |   |   |   |   |   |   |   |   |   |   |   |   |   |   |   |   |   |   |   |   |   |   |   balance >= 1.5
|   |   |   |   |   |   |   |   |   |   |   |   |   |   |   |   |   |   |   |   |   |   |   |   |   |   balance < 2.5 : no (1/0)
|   |   |   |   |   |   |   |   |   |   |   |   |   |   |   |   |   |   |   |   |   |   |   |   |   |   balance >= 2.5
|   |   |   |   |   |   |   |   |   |   |   |   |   |   |   |   |   |   |   |   |   |   |   |   |   |   |   balance < 3.5 : no (6/1)
|   |   |   |   |   |   |   |   |   |   |   |   |   |   |   |   |   |   |   |   |   |   |   |   |   |   |   balance >= 3.5
|   |   |   |   |   |   |   |   |   |   |   |   |   |   |   |   |   |   |   |   |   |   |   |   |   |   |   |   balance < 5 : no (4/1)
|   |   |   |   |   |   |   |   |   |   |   |   |   |   |   |   |   |   |   |   |   |   |   |   |   |   |   |   balance >= 5 : no (3/1)
|   |   |   |   |   |   |   |   |   |   |   |   |   |   |   |   |   |   |   |   |   |   |   balance >= 6.5
|   |   |   |   |   |   |   |   |   |   |   |   |   |   |   |   |   |   |   |   |   |   |   |   balance < 26.5 : no (29/0)
|   |   |   |   |   |   |   |   |   |   |   |   |   |   |   |   |   |   |   |   |   |   |   |   balance >= 26.5
|   |   |   |   |   |   |   |   |   |   |   |   |   |   |   |   |   |   |   |   |   |   |   |   |   balance < 27.5 : yes (1/0)
|   |   |   |   |   |   |   |   |   |   |   |   |   |   |   |   |   |   |   |   |   |   |   |   |   balance >= 27.5
|   |   |   |   |   |   |   |   |   |   |   |   |   |   |   |   |   |   |   |   |   |   |   |   |   |   balance < 52.5 : no (25/0)
|   |   |   |   |   |   |   |   |   |   |   |   |   |   |   |   |   |   |   |   |   |   |   |   |   |   balance >= 52.5
|   |   |   |   |   |   |   |   |   |   |   |   |   |   |   |   |   |   |   |   |   |   |   |   |   |   |   balance < 53.5 : yes (1/0)
|   |   |   |   |   |   |   |   |   |   |   |   |   |   |   |   |   |   |   |   |   |   |   |   |   |   |   balance >= 53.5
|   |   |   |   |   |   |   |   |   |   |   |   |   |   |   |   |   |   |   |   |   |   |   |   |   |   |   |   balance < 83.5
|   |   |   |   |   |   |   |   |   |   |   |   |   |   |   |   |   |   |   |   |   |   |   |   |   |   |   |   |   balance < 57.5
|   |   |   |   |   |   |   |   |   |   |   |   |   |   |   |   |   |   |   |   |   |   |   |   |   |   |   |   |   |   balance < 56.5 : no (7/0)
|   |   |   |   |   |   |   |   |   |   |   |   |   |   |   |   |   |   |   |   |   |   |   |   |   |   |   |   |   |   balance >= 56.5 : no (2/1)
|   |   |   |   |   |   |   |   |   |   |   |   |   |   |   |   |   |   |   |   |   |   |   |   |   |   |   |   |   balance >= 57.5 : no (27/0)
|   |   |   |   |   |   |   |   |   |   |   |   |   |   |   |   |   |   |   |   |   |   |   |   |   |   |   |   balance >= 83.5
|   |   |   |   |   |   |   |   |   |   |   |   |   |   |   |   |   |   |   |   |   |   |   |   |   |   |   |   |   balance < 94.5
|   |   |   |   |   |   |   |   |   |   |   |   |   |   |   |   |   |   |   |   |   |   |   |   |   |   |   |   |   |   balance < 93
|   |   |   |   |   |   |   |   |   |   |   |   |   |   |   |   |   |   |   |   |   |   |   |   |   |   |   |   |   |   |   balance < 88.5
|   |   |   |   |   |   |   |   |   |   |   |   |   |   |   |   |   |   |   |   |   |   |   |   |   |   |   |   |   |   |   |   balance < 87
|   |   |   |   |   |   |   |   |   |   |   |   |   |   |   |   |   |   |   |   |   |   |   |   |   |   |   |   |   |   |   |   |   balance < 85 : no (4/1)
|   |   |   |   |   |   |   |   |   |   |   |   |   |   |   |   |   |   |   |   |   |   |   |   |   |   |   |   |   |   |   |   |   balance >= 85 : no (1/0)
|   |   |   |   |   |   |   |   |   |   |   |   |   |   |   |   |   |   |   |   |   |   |   |   |   |   |   |   |   |   |   |   balance >= 87 : no (2/1)
|   |   |   |   |   |   |   |   |   |   |   |   |   |   |   |   |   |   |   |   |   |   |   |   |   |   |   |   |   |   |   balance >= 88.5 : no (3/0)
|   |   |   |   |   |   |   |   |   |   |   |   |   |   |   |   |   |   |   |   |   |   |   |   |   |   |   |   |   |   balance >= 93 : yes (1/0)
|   |   |   |   |   |   |   |   |   |   |   |   |   |   |   |   |   |   |   |   |   |   |   |   |   |   |   |   |   balance >= 94.5
|   |   |   |   |   |   |   |   |   |   |   |   |   |   |   |   |   |   |   |   |   |   |   |   |   |   |   |   |   |   balance < 131.5 : no (19/0)
|   |   |   |   |   |   |   |   |   |   |   |   |   |   |   |   |   |   |   |   |   |   |   |   |   |   |   |   |   |   balance >= 131.5
|   |   |   |   |   |   |   |   |   |   |   |   |   |   |   |   |   |   |   |   |   |   |   |   |   |   |   |   |   |   |   balance < 133.5 : no (2/1)
|   |   |   |   |   |   |   |   |   |   |   |   |   |   |   |   |   |   |   |   |   |   |   |   |   |   |   |   |   |   |   balance >= 133.5 : no (4/0)
|   |   |   |   |   |   |   |   |   |   |   |   |   |   |   |   |   |   |   |   |   balance >= 137.5
|   |   |   |   |   |   |   |   |   |   |   |   |   |   |   |   |   |   |   |   |   |   balance < 139 : yes (1/0)
|   |   |   |   |   |   |   |   |   |   |   |   |   |   |   |   |   |   |   |   |   |   balance >= 139
|   |   |   |   |   |   |   |   |   |   |   |   |   |   |   |   |   |   |   |   |   |   |   balance < 140.5 : no (1/0)
|   |   |   |   |   |   |   |   |   |   |   |   |   |   |   |   |   |   |   |   |   |   |   balance >= 140.5 : no (2/1)
|   |   |   |   |   |   |   |   |   |   |   |   |   |   |   |   |   |   |   |   balance >= 142 : no (41/0)
|   |   |   |   |   |   |   |   |   |   |   |   |   |   |   |   |   |   |   balance >= 193
|   |   |   |   |   |   |   |   |   |   |   |   |   |   |   |   |   |   |   |   balance < 206.5
|   |   |   |   |   |   |   |   |   |   |   |   |   |   |   |   |   |   |   |   |   balance < 198 : no (6/3)
|   |   |   |   |   |   |   |   |   |   |   |   |   |   |   |   |   |   |   |   |   balance >= 198
|   |   |   |   |   |   |   |   |   |   |   |   |   |   |   |   |   |   |   |   |   |   balance < 202.5 : no (2/0)
|   |   |   |   |   |   |   |   |   |   |   |   |   |   |   |   |   |   |   |   |   |   balance >= 202.5
|   |   |   |   |   |   |   |   |   |   |   |   |   |   |   |   |   |   |   |   |   |   |   balance < 204.5 : yes (1/0)
|   |   |   |   |   |   |   |   |   |   |   |   |   |   |   |   |   |   |   |   |   |   |   balance >= 204.5 : no (3/1)
|   |   |   |   |   |   |   |   |   |   |   |   |   |   |   |   |   |   |   |   balance >= 206.5
|   |   |   |   |   |   |   |   |   |   |   |   |   |   |   |   |   |   |   |   |   balance < 220.5 : no (10/0)
|   |   |   |   |   |   |   |   |   |   |   |   |   |   |   |   |   |   |   |   |   balance >= 220.5
|   |   |   |   |   |   |   |   |   |   |   |   |   |   |   |   |   |   |   |   |   |   balance < 223 : yes (1/0)
|   |   |   |   |   |   |   |   |   |   |   |   |   |   |   |   |   |   |   |   |   |   balance >= 223
|   |   |   |   |   |   |   |   |   |   |   |   |   |   |   |   |   |   |   |   |   |   |   balance < 228.5 : no (3/0)
|   |   |   |   |   |   |   |   |   |   |   |   |   |   |   |   |   |   |   |   |   |   |   balance >= 228.5 : no (2/1)
|   |   |   |   |   |   |   |   |   |   |   |   |   |   |   |   |   |   balance >= 231
|   |   |   |   |   |   |   |   |   |   |   |   |   |   |   |   |   |   |   balance < 331 : no (58/0)
|   |   |   |   |   |   |   |   |   |   |   |   |   |   |   |   |   |   |   balance >= 331
|   |   |   |   |   |   |   |   |   |   |   |   |   |   |   |   |   |   |   |   balance < 335.5 : yes (2/0)
|   |   |   |   |   |   |   |   |   |   |   |   |   |   |   |   |   |   |   |   balance >= 335.5
|   |   |   |   |   |   |   |   |   |   |   |   |   |   |   |   |   |   |   |   |   balance < 385.5 : no (20/0)
|   |   |   |   |   |   |   |   |   |   |   |   |   |   |   |   |   |   |   |   |   balance >= 385.5
|   |   |   |   |   |   |   |   |   |   |   |   |   |   |   |   |   |   |   |   |   |   balance < 387 : yes (1/0)
|   |   |   |   |   |   |   |   |   |   |   |   |   |   |   |   |   |   |   |   |   |   balance >= 387
|   |   |   |   |   |   |   |   |   |   |   |   |   |   |   |   |   |   |   |   |   |   |   balance < 483.5
|   |   |   |   |   |   |   |   |   |   |   |   |   |   |   |   |   |   |   |   |   |   |   |   balance < 410
|   |   |   |   |   |   |   |   |   |   |   |   |   |   |   |   |   |   |   |   |   |   |   |   |   balance < 407 : no (14/0)
|   |   |   |   |   |   |   |   |   |   |   |   |   |   |   |   |   |   |   |   |   |   |   |   |   balance >= 407 : no (2/1)
|   |   |   |   |   |   |   |   |   |   |   |   |   |   |   |   |   |   |   |   |   |   |   |   balance >= 410 : no (38/0)
|   |   |   |   |   |   |   |   |   |   |   |   |   |   |   |   |   |   |   |   |   |   |   balance >= 483.5
|   |   |   |   |   |   |   |   |   |   |   |   |   |   |   |   |   |   |   |   |   |   |   |   balance < 485 : yes (1/0)
|   |   |   |   |   |   |   |   |   |   |   |   |   |   |   |   |   |   |   |   |   |   |   |   balance >= 485
|   |   |   |   |   |   |   |   |   |   |   |   |   |   |   |   |   |   |   |   |   |   |   |   |   balance < 518.5
|   |   |   |   |   |   |   |   |   |   |   |   |   |   |   |   |   |   |   |   |   |   |   |   |   |   balance < 514.5 : no (8/0)
|   |   |   |   |   |   |   |   |   |   |   |   |   |   |   |   |   |   |   |   |   |   |   |   |   |   balance >= 514.5 : yes (1/0)
|   |   |   |   |   |   |   |   |   |   |   |   |   |   |   |   |   |   |   |   |   |   |   |   |   balance >= 518.5 : no (12/0)
|   |   |   |   |   |   |   |   |   |   |   |   |   |   |   |   |   balance >= 556.5 : yes (1/0)
|   |   |   |   |   |   |   |   |   |   |   |   |   |   |   |   campaign >= 1.5
|   |   |   |   |   |   |   |   |   |   |   |   |   |   |   |   |   balance < -0.5
|   |   |   |   |   |   |   |   |   |   |   |   |   |   |   |   |   |   balance < -3
|   |   |   |   |   |   |   |   |   |   |   |   |   |   |   |   |   |   |   balance < -52
|   |   |   |   |   |   |   |   |   |   |   |   |   |   |   |   |   |   |   |   balance < -55 : no (1/0)
|   |   |   |   |   |   |   |   |   |   |   |   |   |   |   |   |   |   |   |   balance >= -55 : no (2/1)
|   |   |   |   |   |   |   |   |   |   |   |   |   |   |   |   |   |   |   balance >= -52 : no (6/0)
|   |   |   |   |   |   |   |   |   |   |   |   |   |   |   |   |   |   balance >= -3 : yes (1/0)
|   |   |   |   |   |   |   |   |   |   |   |   |   |   |   |   |   balance >= -0.5
|   |   |   |   |   |   |   |   |   |   |   |   |   |   |   |   |   |   balance < 540
|   |   |   |   |   |   |   |   |   |   |   |   |   |   |   |   |   |   |   balance < 402.5
|   |   |   |   |   |   |   |   |   |   |   |   |   |   |   |   |   |   |   |   balance < 396
|   |   |   |   |   |   |   |   |   |   |   |   |   |   |   |   |   |   |   |   |   balance < 287
|   |   |   |   |   |   |   |   |   |   |   |   |   |   |   |   |   |   |   |   |   |   balance < 185.5
|   |   |   |   |   |   |   |   |   |   |   |   |   |   |   |   |   |   |   |   |   |   |   balance < 184
|   |   |   |   |   |   |   |   |   |   |   |   |   |   |   |   |   |   |   |   |   |   |   |   balance < 134.5
|   |   |   |   |   |   |   |   |   |   |   |   |   |   |   |   |   |   |   |   |   |   |   |   |   balance < 128
|   |   |   |   |   |   |   |   |   |   |   |   |   |   |   |   |   |   |   |   |   |   |   |   |   |   balance < 107.5
|   |   |   |   |   |   |   |   |   |   |   |   |   |   |   |   |   |   |   |   |   |   |   |   |   |   |   balance < 2.5
|   |   |   |   |   |   |   |   |   |   |   |   |   |   |   |   |   |   |   |   |   |   |   |   |   |   |   |   balance < 1.5
|   |   |   |   |   |   |   |   |   |   |   |   |   |   |   |   |   |   |   |   |   |   |   |   |   |   |   |   |   balance < 0.5 : no (38/3)
|   |   |   |   |   |   |   |   |   |   |   |   |   |   |   |   |   |   |   |   |   |   |   |   |   |   |   |   |   balance >= 0.5 : no (2/0)
|   |   |   |   |   |   |   |   |   |   |   |   |   |   |   |   |   |   |   |   |   |   |   |   |   |   |   |   balance >= 1.5 : no (5/1)
|   |   |   |   |   |   |   |   |   |   |   |   |   |   |   |   |   |   |   |   |   |   |   |   |   |   |   balance >= 2.5
|   |   |   |   |   |   |   |   |   |   |   |   |   |   |   |   |   |   |   |   |   |   |   |   |   |   |   |   balance < 64.5 : no (39/0)
|   |   |   |   |   |   |   |   |   |   |   |   |   |   |   |   |   |   |   |   |   |   |   |   |   |   |   |   balance >= 64.5
|   |   |   |   |   |   |   |   |   |   |   |   |   |   |   |   |   |   |   |   |   |   |   |   |   |   |   |   |   balance < 67 : yes (1/0)
|   |   |   |   |   |   |   |   |   |   |   |   |   |   |   |   |   |   |   |   |   |   |   |   |   |   |   |   |   balance >= 67 : no (32/0)
|   |   |   |   |   |   |   |   |   |   |   |   |   |   |   |   |   |   |   |   |   |   |   |   |   |   balance >= 107.5
|   |   |   |   |   |   |   |   |   |   |   |   |   |   |   |   |   |   |   |   |   |   |   |   |   |   |   balance < 116.5
|   |   |   |   |   |   |   |   |   |   |   |   |   |   |   |   |   |   |   |   |   |   |   |   |   |   |   |   balance < 111.5 : no (2/1)
|   |   |   |   |   |   |   |   |   |   |   |   |   |   |   |   |   |   |   |   |   |   |   |   |   |   |   |   balance >= 111.5
|   |   |   |   |   |   |   |   |   |   |   |   |   |   |   |   |   |   |   |   |   |   |   |   |   |   |   |   |   balance < 115 : no (1/0)
|   |   |   |   |   |   |   |   |   |   |   |   |   |   |   |   |   |   |   |   |   |   |   |   |   |   |   |   |   balance >= 115 : no (3/1)
|   |   |   |   |   |   |   |   |   |   |   |   |   |   |   |   |   |   |   |   |   |   |   |   |   |   |   balance >= 116.5 : no (5/0)
|   |   |   |   |   |   |   |   |   |   |   |   |   |   |   |   |   |   |   |   |   |   |   |   |   balance >= 128 : yes (1/0)
|   |   |   |   |   |   |   |   |   |   |   |   |   |   |   |   |   |   |   |   |   |   |   |   balance >= 134.5 : no (28/0)
|   |   |   |   |   |   |   |   |   |   |   |   |   |   |   |   |   |   |   |   |   |   |   balance >= 184 : no (2/1)
|   |   |   |   |   |   |   |   |   |   |   |   |   |   |   |   |   |   |   |   |   |   balance >= 185.5 : no (33/0)
|   |   |   |   |   |   |   |   |   |   |   |   |   |   |   |   |   |   |   |   |   balance >= 287
|   |   |   |   |   |   |   |   |   |   |   |   |   |   |   |   |   |   |   |   |   |   balance < 292 : yes (1/0)
|   |   |   |   |   |   |   |   |   |   |   |   |   |   |   |   |   |   |   |   |   |   balance >= 292
|   |   |   |   |   |   |   |   |   |   |   |   |   |   |   |   |   |   |   |   |   |   |   balance < 315.5 : no (9/0)
|   |   |   |   |   |   |   |   |   |   |   |   |   |   |   |   |   |   |   |   |   |   |   balance >= 315.5
|   |   |   |   |   |   |   |   |   |   |   |   |   |   |   |   |   |   |   |   |   |   |   |   balance < 316.5 : yes (1/0)
|   |   |   |   |   |   |   |   |   |   |   |   |   |   |   |   |   |   |   |   |   |   |   |   balance >= 316.5
|   |   |   |   |   |   |   |   |   |   |   |   |   |   |   |   |   |   |   |   |   |   |   |   |   balance < 358 : no (10/0)
|   |   |   |   |   |   |   |   |   |   |   |   |   |   |   |   |   |   |   |   |   |   |   |   |   balance >= 358
|   |   |   |   |   |   |   |   |   |   |   |   |   |   |   |   |   |   |   |   |   |   |   |   |   |   balance < 362.5 : yes (1/0)
|   |   |   |   |   |   |   |   |   |   |   |   |   |   |   |   |   |   |   |   |   |   |   |   |   |   balance >= 362.5
|   |   |   |   |   |   |   |   |   |   |   |   |   |   |   |   |   |   |   |   |   |   |   |   |   |   |   balance < 371
|   |   |   |   |   |   |   |   |   |   |   |   |   |   |   |   |   |   |   |   |   |   |   |   |   |   |   |   balance < 367.5 : no (4/0)
|   |   |   |   |   |   |   |   |   |   |   |   |   |   |   |   |   |   |   |   |   |   |   |   |   |   |   |   balance >= 367.5 : yes (1/0)
|   |   |   |   |   |   |   |   |   |   |   |   |   |   |   |   |   |   |   |   |   |   |   |   |   |   |   balance >= 371 : no (5/0)
|   |   |   |   |   |   |   |   |   |   |   |   |   |   |   |   |   |   |   |   balance >= 396
|   |   |   |   |   |   |   |   |   |   |   |   |   |   |   |   |   |   |   |   |   balance < 399.5 : yes (1/0)
|   |   |   |   |   |   |   |   |   |   |   |   |   |   |   |   |   |   |   |   |   balance >= 399.5
|   |   |   |   |   |   |   |   |   |   |   |   |   |   |   |   |   |   |   |   |   |   balance < 400.5 : no (1/0)
|   |   |   |   |   |   |   |   |   |   |   |   |   |   |   |   |   |   |   |   |   |   balance >= 400.5 : yes (1/0)
|   |   |   |   |   |   |   |   |   |   |   |   |   |   |   |   |   |   |   balance >= 402.5 : no (37/0)
|   |   |   |   |   |   |   |   |   |   |   |   |   |   |   |   |   |   balance >= 540
|   |   |   |   |   |   |   |   |   |   |   |   |   |   |   |   |   |   |   balance < 547 : yes (1/0)
|   |   |   |   |   |   |   |   |   |   |   |   |   |   |   |   |   |   |   balance >= 547 : no (2/0)
|   |   |   |   |   |   |   |   |   |   |   |   |   |   |   balance >= 557.5 : no (21/0)
|   |   |   |   |   |   |   |   |   |   |   |   |   |   balance >= 588
|   |   |   |   |   |   |   |   |   |   |   |   |   |   |   balance < 590.5
|   |   |   |   |   |   |   |   |   |   |   |   |   |   |   |   campaign < 1.5
|   |   |   |   |   |   |   |   |   |   |   |   |   |   |   |   |   balance < 589.5 : no (1/0)
|   |   |   |   |   |   |   |   |   |   |   |   |   |   |   |   |   balance >= 589.5 : yes (1/0)
|   |   |   |   |   |   |   |   |   |   |   |   |   |   |   |   campaign >= 1.5 : yes (1/0)
|   |   |   |   |   |   |   |   |   |   |   |   |   |   |   balance >= 590.5
|   |   |   |   |   |   |   |   |   |   |   |   |   |   |   |   balance < 597.5 : no (7/0)
|   |   |   |   |   |   |   |   |   |   |   |   |   |   |   |   balance >= 597.5
|   |   |   |   |   |   |   |   |   |   |   |   |   |   |   |   |   balance < 600.5
|   |   |   |   |   |   |   |   |   |   |   |   |   |   |   |   |   |   campaign < 1.5 : yes (1/0)
|   |   |   |   |   |   |   |   |   |   |   |   |   |   |   |   |   |   campaign >= 1.5 : no (2/0)
|   |   |   |   |   |   |   |   |   |   |   |   |   |   |   |   |   balance >= 600.5 : no (6/0)
|   |   |   |   |   |   |   |   |   |   |   |   |   balance >= 614.5 : yes (1/0)
|   |   |   |   |   |   |   |   |   |   |   |   balance >= 615.5 : no (44/0)
|   |   |   |   |   |   |   |   |   |   |   balance >= 701.5
|   |   |   |   |   |   |   |   |   |   |   |   balance < 704 : yes (1/0)
|   |   |   |   |   |   |   |   |   |   |   |   balance >= 704
|   |   |   |   |   |   |   |   |   |   |   |   |   campaign < 1.5
|   |   |   |   |   |   |   |   |   |   |   |   |   |   balance < 705.5 : no (2/0)
|   |   |   |   |   |   |   |   |   |   |   |   |   |   balance >= 705.5 : yes (1/0)
|   |   |   |   |   |   |   |   |   |   |   |   |   campaign >= 1.5 : yes (1/0)
|   |   |   |   |   |   |   |   |   |   balance >= 706.5 : no (14/0)
|   |   |   |   |   |   |   |   |   campaign >= 2.5
|   |   |   |   |   |   |   |   |   |   balance < 558.5
|   |   |   |   |   |   |   |   |   |   |   balance < 476.5
|   |   |   |   |   |   |   |   |   |   |   |   balance < 472.5
|   |   |   |   |   |   |   |   |   |   |   |   |   balance < 238
|   |   |   |   |   |   |   |   |   |   |   |   |   |   balance < 234
|   |   |   |   |   |   |   |   |   |   |   |   |   |   |   balance < 224
|   |   |   |   |   |   |   |   |   |   |   |   |   |   |   |   balance < 127.5
|   |   |   |   |   |   |   |   |   |   |   |   |   |   |   |   |   balance < 121.5
|   |   |   |   |   |   |   |   |   |   |   |   |   |   |   |   |   |   balance < 85.5
|   |   |   |   |   |   |   |   |   |   |   |   |   |   |   |   |   |   |   balance < 84
|   |   |   |   |   |   |   |   |   |   |   |   |   |   |   |   |   |   |   |   balance < 22.5
|   |   |   |   |   |   |   |   |   |   |   |   |   |   |   |   |   |   |   |   |   balance < 21
|   |   |   |   |   |   |   |   |   |   |   |   |   |   |   |   |   |   |   |   |   |   balance < 3.5
|   |   |   |   |   |   |   |   |   |   |   |   |   |   |   |   |   |   |   |   |   |   |   campaign < 3.5
|   |   |   |   |   |   |   |   |   |   |   |   |   |   |   |   |   |   |   |   |   |   |   |   balance < 2 : no (19/0)
|   |   |   |   |   |   |   |   |   |   |   |   |   |   |   |   |   |   |   |   |   |   |   |   balance >= 2 : yes (1/0)
|   |   |   |   |   |   |   |   |   |   |   |   |   |   |   |   |   |   |   |   |   |   |   campaign >= 3.5
|   |   |   |   |   |   |   |   |   |   |   |   |   |   |   |   |   |   |   |   |   |   |   |   balance < -5.5 : no (2/0)
|   |   |   |   |   |   |   |   |   |   |   |   |   |   |   |   |   |   |   |   |   |   |   |   balance >= -5.5
|   |   |   |   |   |   |   |   |   |   |   |   |   |   |   |   |   |   |   |   |   |   |   |   |   balance < 0.5 : no (6/1)
|   |   |   |   |   |   |   |   |   |   |   |   |   |   |   |   |   |   |   |   |   |   |   |   |   balance >= 0.5 : no (1/0)
|   |   |   |   |   |   |   |   |   |   |   |   |   |   |   |   |   |   |   |   |   |   balance >= 3.5 : no (12/0)
|   |   |   |   |   |   |   |   |   |   |   |   |   |   |   |   |   |   |   |   |   balance >= 21 : yes (1/0)
|   |   |   |   |   |   |   |   |   |   |   |   |   |   |   |   |   |   |   |   balance >= 22.5 : no (24/0)
|   |   |   |   |   |   |   |   |   |   |   |   |   |   |   |   |   |   |   balance >= 84 : yes (1/0)
|   |   |   |   |   |   |   |   |   |   |   |   |   |   |   |   |   |   balance >= 85.5 : no (9/0)
|   |   |   |   |   |   |   |   |   |   |   |   |   |   |   |   |   balance >= 121.5 : yes (1/0)
|   |   |   |   |   |   |   |   |   |   |   |   |   |   |   |   balance >= 127.5 : no (30/0)
|   |   |   |   |   |   |   |   |   |   |   |   |   |   |   balance >= 224
|   |   |   |   |   |   |   |   |   |   |   |   |   |   |   |   campaign < 3.5
|   |   |   |   |   |   |   |   |   |   |   |   |   |   |   |   |   balance < 228.5 : no (2/1)
|   |   |   |   |   |   |   |   |   |   |   |   |   |   |   |   |   balance >= 228.5 : no (1/0)
|   |   |   |   |   |   |   |   |   |   |   |   |   |   |   |   campaign >= 3.5 : no (1/0)
|   |   |   |   |   |   |   |   |   |   |   |   |   |   balance >= 234 : yes (1/0)
|   |   |   |   |   |   |   |   |   |   |   |   |   balance >= 238
|   |   |   |   |   |   |   |   |   |   |   |   |   |   balance < 409.5 : no (43/0)
|   |   |   |   |   |   |   |   |   |   |   |   |   |   balance >= 409.5
|   |   |   |   |   |   |   |   |   |   |   |   |   |   |   campaign < 3.5 : no (10/0)
|   |   |   |   |   |   |   |   |   |   |   |   |   |   |   campaign >= 3.5
|   |   |   |   |   |   |   |   |   |   |   |   |   |   |   |   balance < 415 : yes (1/0)
|   |   |   |   |   |   |   |   |   |   |   |   |   |   |   |   balance >= 415 : no (7/0)
|   |   |   |   |   |   |   |   |   |   |   |   balance >= 472.5
|   |   |   |   |   |   |   |   |   |   |   |   |   campaign < 3.5 : yes (1/0)
|   |   |   |   |   |   |   |   |   |   |   |   |   campaign >= 3.5 : no (1/0)
|   |   |   |   |   |   |   |   |   |   |   balance >= 476.5 : no (22/0)
|   |   |   |   |   |   |   |   |   |   balance >= 558.5
|   |   |   |   |   |   |   |   |   |   |   balance < 669
|   |   |   |   |   |   |   |   |   |   |   |   balance < 651
|   |   |   |   |   |   |   |   |   |   |   |   |   balance < 569 : yes (1/0)
|   |   |   |   |   |   |   |   |   |   |   |   |   balance >= 569
|   |   |   |   |   |   |   |   |   |   |   |   |   |   campaign < 3.5 : no (6/0)
|   |   |   |   |   |   |   |   |   |   |   |   |   |   campaign >= 3.5
|   |   |   |   |   |   |   |   |   |   |   |   |   |   |   balance < 625 : no (7/0)
|   |   |   |   |   |   |   |   |   |   |   |   |   |   |   balance >= 625 : yes (1/0)
|   |   |   |   |   |   |   |   |   |   |   |   balance >= 651
|   |   |   |   |   |   |   |   |   |   |   |   |   campaign < 3.5
|   |   |   |   |   |   |   |   |   |   |   |   |   |   balance < 663.5 : no (1/0)
|   |   |   |   |   |   |   |   |   |   |   |   |   |   balance >= 663.5 : yes (1/0)
|   |   |   |   |   |   |   |   |   |   |   |   |   campaign >= 3.5 : yes (1/0)
|   |   |   |   |   |   |   |   |   |   |   balance >= 669 : no (13/0)
|   |   |   |   |   |   balance >= 741.5 : yes (1/0)
|   |   |   |   |   balance >= 742.5
|   |   |   |   |   |   balance < 790 : no (36/0)
|   |   |   |   |   |   balance >= 790
|   |   |   |   |   |   |   campaign < 1.5 : no (10/0)
|   |   |   |   |   |   |   campaign >= 1.5
|   |   |   |   |   |   |   |   campaign < 2.5
|   |   |   |   |   |   |   |   |   balance < 791.5 : no (2/1)
|   |   |   |   |   |   |   |   |   balance >= 791.5 : no (4/0)
|   |   |   |   |   |   |   |   campaign >= 2.5 : no (10/0)
|   |   |   |   campaign >= 4.5
|   |   |   |   |   campaign < 7.5
|   |   |   |   |   |   balance < 304.5 : no (61/0)
|   |   |   |   |   |   balance >= 304.5
|   |   |   |   |   |   |   balance < 314.5 : yes (1/0)
|   |   |   |   |   |   |   balance >= 314.5
|   |   |   |   |   |   |   |   balance < 493 : no (15/0)
|   |   |   |   |   |   |   |   balance >= 493
|   |   |   |   |   |   |   |   |   balance < 511.5 : yes (1/0)
|   |   |   |   |   |   |   |   |   balance >= 511.5 : no (14/0)
|   |   |   |   |   campaign >= 7.5 : no (43/0)
|   |   balance >= 835.5
|   |   |   campaign < 14.5
|   |   |   |   balance < 36006.5
|   |   |   |   |   campaign < 1.5
|   |   |   |   |   |   balance < 3734.5
|   |   |   |   |   |   |   balance < 3679
|   |   |   |   |   |   |   |   balance < 956.5 : no (25/0)
|   |   |   |   |   |   |   |   balance >= 956.5
|   |   |   |   |   |   |   |   |   balance < 962.5 : yes (1/0)
|   |   |   |   |   |   |   |   |   balance >= 962.5
|   |   |   |   |   |   |   |   |   |   balance < 1127.5 : no (26/0)
|   |   |   |   |   |   |   |   |   |   balance >= 1127.5
|   |   |   |   |   |   |   |   |   |   |   balance < 1145 : no (2/1)
|   |   |   |   |   |   |   |   |   |   |   balance >= 1145
|   |   |   |   |   |   |   |   |   |   |   |   balance < 1210.5 : no (12/0)
|   |   |   |   |   |   |   |   |   |   |   |   balance >= 1210.5
|   |   |   |   |   |   |   |   |   |   |   |   |   balance < 3459
|   |   |   |   |   |   |   |   |   |   |   |   |   |   balance < 3397
|   |   |   |   |   |   |   |   |   |   |   |   |   |   |   balance < 3305
|   |   |   |   |   |   |   |   |   |   |   |   |   |   |   |   balance < 2337.5
|   |   |   |   |   |   |   |   |   |   |   |   |   |   |   |   |   balance < 2311
|   |   |   |   |   |   |   |   |   |   |   |   |   |   |   |   |   |   balance < 1222.5 : no (3/1)
|   |   |   |   |   |   |   |   |   |   |   |   |   |   |   |   |   |   balance >= 1222.5
|   |   |   |   |   |   |   |   |   |   |   |   |   |   |   |   |   |   |   balance < 1269.5 : no (6/0)
|   |   |   |   |   |   |   |   |   |   |   |   |   |   |   |   |   |   |   balance >= 1269.5
|   |   |   |   |   |   |   |   |   |   |   |   |   |   |   |   |   |   |   |   balance < 1275 : no (2/1)
|   |   |   |   |   |   |   |   |   |   |   |   |   |   |   |   |   |   |   |   balance >= 1275
|   |   |   |   |   |   |   |   |   |   |   |   |   |   |   |   |   |   |   |   |   balance < 1344 : no (13/0)
|   |   |   |   |   |   |   |   |   |   |   |   |   |   |   |   |   |   |   |   |   balance >= 1344
|   |   |   |   |   |   |   |   |   |   |   |   |   |   |   |   |   |   |   |   |   |   balance < 1357 : yes (1/0)
|   |   |   |   |   |   |   |   |   |   |   |   |   |   |   |   |   |   |   |   |   |   balance >= 1357
|   |   |   |   |   |   |   |   |   |   |   |   |   |   |   |   |   |   |   |   |   |   |   balance < 1373
|   |   |   |   |   |   |   |   |   |   |   |   |   |   |   |   |   |   |   |   |   |   |   |   balance < 1365 : no (2/0)
|   |   |   |   |   |   |   |   |   |   |   |   |   |   |   |   |   |   |   |   |   |   |   |   balance >= 1365 : yes (1/0)
|   |   |   |   |   |   |   |   |   |   |   |   |   |   |   |   |   |   |   |   |   |   |   balance >= 1373
|   |   |   |   |   |   |   |   |   |   |   |   |   |   |   |   |   |   |   |   |   |   |   |   balance < 1620
|   |   |   |   |   |   |   |   |   |   |   |   |   |   |   |   |   |   |   |   |   |   |   |   |   balance < 1446.5
|   |   |   |   |   |   |   |   |   |   |   |   |   |   |   |   |   |   |   |   |   |   |   |   |   |   balance < 1435 : no (9/0)
|   |   |   |   |   |   |   |   |   |   |   |   |   |   |   |   |   |   |   |   |   |   |   |   |   |   balance >= 1435 : yes (1/0)
|   |   |   |   |   |   |   |   |   |   |   |   |   |   |   |   |   |   |   |   |   |   |   |   |   balance >= 1446.5 : no (21/0)
|   |   |   |   |   |   |   |   |   |   |   |   |   |   |   |   |   |   |   |   |   |   |   |   balance >= 1620
|   |   |   |   |   |   |   |   |   |   |   |   |   |   |   |   |   |   |   |   |   |   |   |   |   balance < 1665.5
|   |   |   |   |   |   |   |   |   |   |   |   |   |   |   |   |   |   |   |   |   |   |   |   |   |   balance < 1633
|   |   |   |   |   |   |   |   |   |   |   |   |   |   |   |   |   |   |   |   |   |   |   |   |   |   |   balance < 1627.5 : yes (1/0)
|   |   |   |   |   |   |   |   |   |   |   |   |   |   |   |   |   |   |   |   |   |   |   |   |   |   |   balance >= 1627.5 : no (1/0)
|   |   |   |   |   |   |   |   |   |   |   |   |   |   |   |   |   |   |   |   |   |   |   |   |   |   balance >= 1633 : yes (2/0)
|   |   |   |   |   |   |   |   |   |   |   |   |   |   |   |   |   |   |   |   |   |   |   |   |   balance >= 1665.5
|   |   |   |   |   |   |   |   |   |   |   |   |   |   |   |   |   |   |   |   |   |   |   |   |   |   balance < 1741 : no (8/0)
|   |   |   |   |   |   |   |   |   |   |   |   |   |   |   |   |   |   |   |   |   |   |   |   |   |   balance >= 1741
|   |   |   |   |   |   |   |   |   |   |   |   |   |   |   |   |   |   |   |   |   |   |   |   |   |   |   balance < 1747.5 : yes (1/0)
|   |   |   |   |   |   |   |   |   |   |   |   |   |   |   |   |   |   |   |   |   |   |   |   |   |   |   balance >= 1747.5
|   |   |   |   |   |   |   |   |   |   |   |   |   |   |   |   |   |   |   |   |   |   |   |   |   |   |   |   balance < 1879.5 : no (16/0)
|   |   |   |   |   |   |   |   |   |   |   |   |   |   |   |   |   |   |   |   |   |   |   |   |   |   |   |   balance >= 1879.5
|   |   |   |   |   |   |   |   |   |   |   |   |   |   |   |   |   |   |   |   |   |   |   |   |   |   |   |   |   balance < 1881 : yes (1/0)
|   |   |   |   |   |   |   |   |   |   |   |   |   |   |   |   |   |   |   |   |   |   |   |   |   |   |   |   |   balance >= 1881
|   |   |   |   |   |   |   |   |   |   |   |   |   |   |   |   |   |   |   |   |   |   |   |   |   |   |   |   |   |   balance < 2180.5
|   |   |   |   |   |   |   |   |   |   |   |   |   |   |   |   |   |   |   |   |   |   |   |   |   |   |   |   |   |   |   balance < 1979
|   |   |   |   |   |   |   |   |   |   |   |   |   |   |   |   |   |   |   |   |   |   |   |   |   |   |   |   |   |   |   |   balance < 1965.5 : no (7/0)
|   |   |   |   |   |   |   |   |   |   |   |   |   |   |   |   |   |   |   |   |   |   |   |   |   |   |   |   |   |   |   |   balance >= 1965.5 : yes (1/0)
|   |   |   |   |   |   |   |   |   |   |   |   |   |   |   |   |   |   |   |   |   |   |   |   |   |   |   |   |   |   |   balance >= 1979 : no (16/0)
|   |   |   |   |   |   |   |   |   |   |   |   |   |   |   |   |   |   |   |   |   |   |   |   |   |   |   |   |   |   balance >= 2180.5
|   |   |   |   |   |   |   |   |   |   |   |   |   |   |   |   |   |   |   |   |   |   |   |   |   |   |   |   |   |   |   balance < 2220 : yes (1/0)
|   |   |   |   |   |   |   |   |   |   |   |   |   |   |   |   |   |   |   |   |   |   |   |   |   |   |   |   |   |   |   balance >= 2220 : no (4/0)
|   |   |   |   |   |   |   |   |   |   |   |   |   |   |   |   |   balance >= 2311 : yes (1/0)
|   |   |   |   |   |   |   |   |   |   |   |   |   |   |   |   balance >= 2337.5
|   |   |   |   |   |   |   |   |   |   |   |   |   |   |   |   |   balance < 2779 : no (20/0)
|   |   |   |   |   |   |   |   |   |   |   |   |   |   |   |   |   balance >= 2779
|   |   |   |   |   |   |   |   |   |   |   |   |   |   |   |   |   |   balance < 2834 : yes (1/0)
|   |   |   |   |   |   |   |   |   |   |   |   |   |   |   |   |   |   balance >= 2834 : no (8/0)
|   |   |   |   |   |   |   |   |   |   |   |   |   |   |   balance >= 3305
|   |   |   |   |   |   |   |   |   |   |   |   |   |   |   |   balance < 3335.5 : yes (1/0)
|   |   |   |   |   |   |   |   |   |   |   |   |   |   |   |   balance >= 3335.5 : no (2/0)
|   |   |   |   |   |   |   |   |   |   |   |   |   |   balance >= 3397 : yes (1/0)
|   |   |   |   |   |   |   |   |   |   |   |   |   balance >= 3459 : no (6/0)
|   |   |   |   |   |   |   balance >= 3679 : yes (1/0)
|   |   |   |   |   |   balance >= 3734.5 : no (57/0)
|   |   |   |   |   campaign >= 1.5
|   |   |   |   |   |   balance < 912.5
|   |   |   |   |   |   |   campaign < 2.5
|   |   |   |   |   |   |   |   balance < 892.5 : no (9/0)
|   |   |   |   |   |   |   |   balance >= 892.5 : yes (1/0)
|   |   |   |   |   |   |   campaign >= 2.5
|   |   |   |   |   |   |   |   campaign < 6.5
|   |   |   |   |   |   |   |   |   campaign < 4.5
|   |   |   |   |   |   |   |   |   |   balance < 850.5
|   |   |   |   |   |   |   |   |   |   |   balance < 842.5 : no (2/1)
|   |   |   |   |   |   |   |   |   |   |   balance >= 842.5 : yes (1/0)
|   |   |   |   |   |   |   |   |   |   balance >= 850.5
|   |   |   |   |   |   |   |   |   |   |   balance < 870.5 : no (3/0)
|   |   |   |   |   |   |   |   |   |   |   balance >= 870.5
|   |   |   |   |   |   |   |   |   |   |   |   campaign < 3.5
|   |   |   |   |   |   |   |   |   |   |   |   |   balance < 877 : yes (1/0)
|   |   |   |   |   |   |   |   |   |   |   |   |   balance >= 877
|   |   |   |   |   |   |   |   |   |   |   |   |   |   balance < 901.5 : no (2/0)
|   |   |   |   |   |   |   |   |   |   |   |   |   |   balance >= 901.5
|   |   |   |   |   |   |   |   |   |   |   |   |   |   |   balance < 904 : yes (1/0)
|   |   |   |   |   |   |   |   |   |   |   |   |   |   |   balance >= 904 : no (2/0)
|   |   |   |   |   |   |   |   |   |   |   |   campaign >= 3.5 : no (1/0)
|   |   |   |   |   |   |   |   |   campaign >= 4.5 : yes (2/0)
|   |   |   |   |   |   |   |   campaign >= 6.5 : no (2/0)
|   |   |   |   |   |   balance >= 912.5
|   |   |   |   |   |   |   balance < 2641
|   |   |   |   |   |   |   |   balance < 2277
|   |   |   |   |   |   |   |   |   balance < 2264
|   |   |   |   |   |   |   |   |   |   balance < 980 : no (13/0)
|   |   |   |   |   |   |   |   |   |   balance >= 980
|   |   |   |   |   |   |   |   |   |   |   campaign < 10.5
|   |   |   |   |   |   |   |   |   |   |   |   balance < 984.5 : yes (1/0)
|   |   |   |   |   |   |   |   |   |   |   |   balance >= 984.5
|   |   |   |   |   |   |   |   |   |   |   |   |   balance < 2049.5
|   |   |   |   |   |   |   |   |   |   |   |   |   |   balance < 2043.5
|   |   |   |   |   |   |   |   |   |   |   |   |   |   |   balance < 1187
|   |   |   |   |   |   |   |   |   |   |   |   |   |   |   |   balance < 1024
|   |   |   |   |   |   |   |   |   |   |   |   |   |   |   |   |   balance < 1019.5 : no (6/0)
|   |   |   |   |   |   |   |   |   |   |   |   |   |   |   |   |   balance >= 1019.5 : no (2/1)
|   |   |   |   |   |   |   |   |   |   |   |   |   |   |   |   balance >= 1024 : no (22/0)
|   |   |   |   |   |   |   |   |   |   |   |   |   |   |   balance >= 1187
|   |   |   |   |   |   |   |   |   |   |   |   |   |   |   |   balance < 1193 : yes (1/0)
|   |   |   |   |   |   |   |   |   |   |   |   |   |   |   |   balance >= 1193
|   |   |   |   |   |   |   |   |   |   |   |   |   |   |   |   |   campaign < 6.5
|   |   |   |   |   |   |   |   |   |   |   |   |   |   |   |   |   |   campaign < 4.5
|   |   |   |   |   |   |   |   |   |   |   |   |   |   |   |   |   |   |   balance < 1832
|   |   |   |   |   |   |   |   |   |   |   |   |   |   |   |   |   |   |   |   campaign < 3.5
|   |   |   |   |   |   |   |   |   |   |   |   |   |   |   |   |   |   |   |   |   balance < 1830.5
|   |   |   |   |   |   |   |   |   |   |   |   |   |   |   |   |   |   |   |   |   |   campaign < 2.5
|   |   |   |   |   |   |   |   |   |   |   |   |   |   |   |   |   |   |   |   |   |   |   balance < 1287 : no (11/0)
|   |   |   |   |   |   |   |   |   |   |   |   |   |   |   |   |   |   |   |   |   |   |   balance >= 1287
|   |   |   |   |   |   |   |   |   |   |   |   |   |   |   |   |   |   |   |   |   |   |   |   balance < 1298 : yes (1/0)
|   |   |   |   |   |   |   |   |   |   |   |   |   |   |   |   |   |   |   |   |   |   |   |   balance >= 1298
|   |   |   |   |   |   |   |   |   |   |   |   |   |   |   |   |   |   |   |   |   |   |   |   |   balance < 1611.5 : no (12/0)
|   |   |   |   |   |   |   |   |   |   |   |   |   |   |   |   |   |   |   |   |   |   |   |   |   balance >= 1611.5
|   |   |   |   |   |   |   |   |   |   |   |   |   |   |   |   |   |   |   |   |   |   |   |   |   |   balance < 1649.5
|   |   |   |   |   |   |   |   |   |   |   |   |   |   |   |   |   |   |   |   |   |   |   |   |   |   |   balance < 1636
|   |   |   |   |   |   |   |   |   |   |   |   |   |   |   |   |   |   |   |   |   |   |   |   |   |   |   |   balance < 1614.5 : no (2/1)
|   |   |   |   |   |   |   |   |   |   |   |   |   |   |   |   |   |   |   |   |   |   |   |   |   |   |   |   balance >= 1614.5 : no (3/0)
|   |   |   |   |   |   |   |   |   |   |   |   |   |   |   |   |   |   |   |   |   |   |   |   |   |   |   balance >= 1636 : yes (1/0)
|   |   |   |   |   |   |   |   |   |   |   |   |   |   |   |   |   |   |   |   |   |   |   |   |   |   balance >= 1649.5 : no (9/0)
|   |   |   |   |   |   |   |   |   |   |   |   |   |   |   |   |   |   |   |   |   |   campaign >= 2.5
|   |   |   |   |   |   |   |   |   |   |   |   |   |   |   |   |   |   |   |   |   |   |   balance < 1235 : yes (1/0)
|   |   |   |   |   |   |   |   |   |   |   |   |   |   |   |   |   |   |   |   |   |   |   balance >= 1235 : no (16/0)
|   |   |   |   |   |   |   |   |   |   |   |   |   |   |   |   |   |   |   |   |   balance >= 1830.5 : yes (1/0)
|   |   |   |   |   |   |   |   |   |   |   |   |   |   |   |   |   |   |   |   campaign >= 3.5 : no (8/0)
|   |   |   |   |   |   |   |   |   |   |   |   |   |   |   |   |   |   |   balance >= 1832 : no (16/0)
|   |   |   |   |   |   |   |   |   |   |   |   |   |   |   |   |   |   campaign >= 4.5
|   |   |   |   |   |   |   |   |   |   |   |   |   |   |   |   |   |   |   balance < 1354.5 : no (4/0)
|   |   |   |   |   |   |   |   |   |   |   |   |   |   |   |   |   |   |   balance >= 1354.5
|   |   |   |   |   |   |   |   |   |   |   |   |   |   |   |   |   |   |   |   balance < 1375 : yes (1/0)
|   |   |   |   |   |   |   |   |   |   |   |   |   |   |   |   |   |   |   |   balance >= 1375
|   |   |   |   |   |   |   |   |   |   |   |   |   |   |   |   |   |   |   |   |   balance < 1793.5 : no (4/0)
|   |   |   |   |   |   |   |   |   |   |   |   |   |   |   |   |   |   |   |   |   balance >= 1793.5
|   |   |   |   |   |   |   |   |   |   |   |   |   |   |   |   |   |   |   |   |   |   balance < 2019.5 : yes (1/0)
|   |   |   |   |   |   |   |   |   |   |   |   |   |   |   |   |   |   |   |   |   |   balance >= 2019.5 : no (1/0)
|   |   |   |   |   |   |   |   |   |   |   |   |   |   |   |   |   campaign >= 6.5 : no (5/0)
|   |   |   |   |   |   |   |   |   |   |   |   |   |   balance >= 2043.5 : yes (1/0)
|   |   |   |   |   |   |   |   |   |   |   |   |   balance >= 2049.5 : no (11/0)
|   |   |   |   |   |   |   |   |   |   |   campaign >= 10.5
|   |   |   |   |   |   |   |   |   |   |   |   balance < 1713 : yes (1/0)
|   |   |   |   |   |   |   |   |   |   |   |   balance >= 1713 : no (1/0)
|   |   |   |   |   |   |   |   |   balance >= 2264 : yes (1/0)
|   |   |   |   |   |   |   |   balance >= 2277 : no (25/0)
|   |   |   |   |   |   |   balance >= 2641
|   |   |   |   |   |   |   |   balance < 2695 : yes (2/0)
|   |   |   |   |   |   |   |   balance >= 2695
|   |   |   |   |   |   |   |   |   campaign < 3.5
|   |   |   |   |   |   |   |   |   |   balance < 22915.5
|   |   |   |   |   |   |   |   |   |   |   campaign < 2.5
|   |   |   |   |   |   |   |   |   |   |   |   balance < 6894.5
|   |   |   |   |   |   |   |   |   |   |   |   |   balance < 6440.5
|   |   |   |   |   |   |   |   |   |   |   |   |   |   balance < 4666
|   |   |   |   |   |   |   |   |   |   |   |   |   |   |   balance < 3133.5 : no (6/0)
|   |   |   |   |   |   |   |   |   |   |   |   |   |   |   balance >= 3133.5
|   |   |   |   |   |   |   |   |   |   |   |   |   |   |   |   balance < 3153.5 : yes (1/0)
|   |   |   |   |   |   |   |   |   |   |   |   |   |   |   |   balance >= 3153.5
|   |   |   |   |   |   |   |   |   |   |   |   |   |   |   |   |   balance < 4662.5
|   |   |   |   |   |   |   |   |   |   |   |   |   |   |   |   |   |   balance < 3278 : no (3/0)
|   |   |   |   |   |   |   |   |   |   |   |   |   |   |   |   |   |   balance >= 3278
|   |   |   |   |   |   |   |   |   |   |   |   |   |   |   |   |   |   |   balance < 3370 : yes (1/0)
|   |   |   |   |   |   |   |   |   |   |   |   |   |   |   |   |   |   |   balance >= 3370
|   |   |   |   |   |   |   |   |   |   |   |   |   |   |   |   |   |   |   |   balance < 3626.5 : no (2/0)
|   |   |   |   |   |   |   |   |   |   |   |   |   |   |   |   |   |   |   |   balance >= 3626.5
|   |   |   |   |   |   |   |   |   |   |   |   |   |   |   |   |   |   |   |   |   balance < 3698 : yes (1/0)
|   |   |   |   |   |   |   |   |   |   |   |   |   |   |   |   |   |   |   |   |   balance >= 3698
|   |   |   |   |   |   |   |   |   |   |   |   |   |   |   |   |   |   |   |   |   |   balance < 4178 : no (5/0)
|   |   |   |   |   |   |   |   |   |   |   |   |   |   |   |   |   |   |   |   |   |   balance >= 4178
|   |   |   |   |   |   |   |   |   |   |   |   |   |   |   |   |   |   |   |   |   |   |   balance < 4223.5 : yes (1/0)
|   |   |   |   |   |   |   |   |   |   |   |   |   |   |   |   |   |   |   |   |   |   |   balance >= 4223.5
|   |   |   |   |   |   |   |   |   |   |   |   |   |   |   |   |   |   |   |   |   |   |   |   balance < 4558.5 : no (3/0)
|   |   |   |   |   |   |   |   |   |   |   |   |   |   |   |   |   |   |   |   |   |   |   |   balance >= 4558.5
