=== Run information ===

Scheme:       weka.classifiers.trees.RandomTree -K 0 -M 1.0 -V 0.001 -S 1
Relation:     bank-full
Instances:    45211
Attributes:   17
              age
              job
              marital
              education
              default
              balance
              housing
              loan
              contact
              day
              month
              duration
              campaign
              pdays
              previous
              poutcome
              y
Test mode:    10-fold cross-validation

=== Classifier model (full training set) ===


RandomTree
==========

duration < 410.5
|   poutcome = unknown
|   |   duration < 130.5
|   |   |   age < 68.5
|   |   |   |   age < 28.5
|   |   |   |   |   month = may
|   |   |   |   |   |   day < 24 : no (273/0)
|   |   |   |   |   |   day >= 24
|   |   |   |   |   |   |   day < 25.5
|   |   |   |   |   |   |   |   duration < 115.5 : no (3/0)
|   |   |   |   |   |   |   |   duration >= 115.5
|   |   |   |   |   |   |   |   |   education = tertiary : yes (1/0)
|   |   |   |   |   |   |   |   |   education = secondary : no (1/0)
|   |   |   |   |   |   |   |   |   education = unknown : no (0/0)
|   |   |   |   |   |   |   |   |   education = primary : no (0/0)
|   |   |   |   |   |   |   day >= 25.5
|   |   |   |   |   |   |   |   balance < 3
|   |   |   |   |   |   |   |   |   education = tertiary
|   |   |   |   |   |   |   |   |   |   day < 27.5
|   |   |   |   |   |   |   |   |   |   |   age < 25.5 : yes (1/0)
|   |   |   |   |   |   |   |   |   |   |   age >= 25.5 : no (1/0)
|   |   |   |   |   |   |   |   |   |   day >= 27.5 : no (2/0)
|   |   |   |   |   |   |   |   |   education = secondary : no (11/0)
|   |   |   |   |   |   |   |   |   education = unknown : no (2/0)
|   |   |   |   |   |   |   |   |   education = primary : no (2/0)
|   |   |   |   |   |   |   |   balance >= 3 : no (87/0)
|   |   |   |   |   month = jun
|   |   |   |   |   |   housing = yes : no (76/0)
|   |   |   |   |   |   housing = no
|   |   |   |   |   |   |   campaign < 1.5
|   |   |   |   |   |   |   |   age < 20.5 : yes (1/0)
|   |   |   |   |   |   |   |   age >= 20.5
|   |   |   |   |   |   |   |   |   job = management
|   |   |   |   |   |   |   |   |   |   duration < 114.5 : no (4/0)
|   |   |   |   |   |   |   |   |   |   duration >= 114.5 : yes (1/0)
|   |   |   |   |   |   |   |   |   job = technician : no (3/0)
|   |   |   |   |   |   |   |   |   job = entrepreneur : no (0/0)
|   |   |   |   |   |   |   |   |   job = blue-collar : no (2/0)
|   |   |   |   |   |   |   |   |   job = unknown : no (0/0)
|   |   |   |   |   |   |   |   |   job = retired : no (0/0)
|   |   |   |   |   |   |   |   |   job = admin. : no (4/0)
|   |   |   |   |   |   |   |   |   job = services : no (0/0)
|   |   |   |   |   |   |   |   |   job = self-employed : no (0/0)
|   |   |   |   |   |   |   |   |   job = unemployed : no (1/0)
|   |   |   |   |   |   |   |   |   job = housemaid : no (0/0)
|   |   |   |   |   |   |   |   |   job = student : no (7/0)
|   |   |   |   |   |   |   campaign >= 1.5
|   |   |   |   |   |   |   |   age < 24.5 : no (5/0)
|   |   |   |   |   |   |   |   age >= 24.5
|   |   |   |   |   |   |   |   |   balance < 608.5
|   |   |   |   |   |   |   |   |   |   age < 25.5 : yes (2/0)
|   |   |   |   |   |   |   |   |   |   age >= 25.5
|   |   |   |   |   |   |   |   |   |   |   job = management : no (1/0)
|   |   |   |   |   |   |   |   |   |   |   job = technician : no (1/0)
|   |   |   |   |   |   |   |   |   |   |   job = entrepreneur : no (0/0)
|   |   |   |   |   |   |   |   |   |   |   job = blue-collar : no (0/0)
|   |   |   |   |   |   |   |   |   |   |   job = unknown : no (0/0)
|   |   |   |   |   |   |   |   |   |   |   job = retired : no (0/0)
|   |   |   |   |   |   |   |   |   |   |   job = admin. : yes (1/0)
|   |   |   |   |   |   |   |   |   |   |   job = services : no (0/0)
|   |   |   |   |   |   |   |   |   |   |   job = self-employed : no (1/0)
|   |   |   |   |   |   |   |   |   |   |   job = unemployed : no (1/0)
|   |   |   |   |   |   |   |   |   |   |   job = housemaid : no (0/0)
|   |   |   |   |   |   |   |   |   |   |   job = student
|   |   |   |   |   |   |   |   |   |   |   |   balance < 269 : no (2/0)
|   |   |   |   |   |   |   |   |   |   |   |   balance >= 269 : yes (1/0)
|   |   |   |   |   |   |   |   |   balance >= 608.5 : no (5/0)
|   |   |   |   |   month = jul
|   |   |   |   |   |   campaign < 2.5
|   |   |   |   |   |   |   day < 10.5
|   |   |   |   |   |   |   |   age < 20.5 : yes (1/0)
|   |   |   |   |   |   |   |   age >= 20.5
|   |   |   |   |   |   |   |   |   duration < 127.5
|   |   |   |   |   |   |   |   |   |   education = tertiary : no (12/0)
|   |   |   |   |   |   |   |   |   |   education = secondary
|   |   |   |   |   |   |   |   |   |   |   job = management : no (1/0)
|   |   |   |   |   |   |   |   |   |   |   job = technician
|   |   |   |   |   |   |   |   |   |   |   |   balance < 407 : yes (1/0)
|   |   |   |   |   |   |   |   |   |   |   |   balance >= 407 : no (1/0)
|   |   |   |   |   |   |   |   |   |   |   job = entrepreneur : no (0/0)
|   |   |   |   |   |   |   |   |   |   |   job = blue-collar : no (3/0)
|   |   |   |   |   |   |   |   |   |   |   job = unknown : no (0/0)
|   |   |   |   |   |   |   |   |   |   |   job = retired : no (0/0)
|   |   |   |   |   |   |   |   |   |   |   job = admin. : no (5/0)
|   |   |   |   |   |   |   |   |   |   |   job = services : no (2/0)
|   |   |   |   |   |   |   |   |   |   |   job = self-employed : no (0/0)
|   |   |   |   |   |   |   |   |   |   |   job = unemployed : no (0/0)
|   |   |   |   |   |   |   |   |   |   |   job = housemaid : no (0/0)
|   |   |   |   |   |   |   |   |   |   |   job = student : no (1/0)
|   |   |   |   |   |   |   |   |   |   education = unknown : no (1/0)
|   |   |   |   |   |   |   |   |   |   education = primary : no (3/0)
|   |   |   |   |   |   |   |   |   duration >= 127.5 : yes (1/0)
|   |   |   |   |   |   |   day >= 10.5 : no (64/0)
|   |   |   |   |   |   campaign >= 2.5 : no (111/0)
|   |   |   |   |   month = aug
|   |   |   |   |   |   day < 13.5 : no (17/0)
|   |   |   |   |   |   day >= 13.5
|   |   |   |   |   |   |   balance < 608
|   |   |   |   |   |   |   |   education = tertiary : no (1/0)
|   |   |   |   |   |   |   |   education = secondary
|   |   |   |   |   |   |   |   |   duration < 61 : no (3/0)
|   |   |   |   |   |   |   |   |   duration >= 61
|   |   |   |   |   |   |   |   |   |   day < 17.5
|   |   |   |   |   |   |   |   |   |   |   campaign < 1.5
|   |   |   |   |   |   |   |   |   |   |   |   age < 23 : no (1/0)
|   |   |   |   |   |   |   |   |   |   |   |   age >= 23 : yes (1/0)
|   |   |   |   |   |   |   |   |   |   |   campaign >= 1.5 : yes (1/0)
|   |   |   |   |   |   |   |   |   |   day >= 17.5 : yes (1/0)
|   |   |   |   |   |   |   |   education = unknown
|   |   |   |   |   |   |   |   |   day < 23 : no (1/0)
|   |   |   |   |   |   |   |   |   day >= 23 : yes (1/0)
|   |   |   |   |   |   |   |   education = primary : no (2/0)
|   |   |   |   |   |   |   balance >= 608 : no (9/0)
|   |   |   |   |   month = oct : no (15/0)
|   |   |   |   |   month = nov
|   |   |   |   |   |   job = management : no (2/0)
|   |   |   |   |   |   job = technician : no (2/0)
|   |   |   |   |   |   job = entrepreneur : no (0/0)
|   |   |   |   |   |   job = blue-collar : no (0/0)
|   |   |   |   |   |   job = unknown : no (1/0)
|   |   |   |   |   |   job = retired : no (0/0)
|   |   |   |   |   |   job = admin. : no (0/0)
|   |   |   |   |   |   job = services : no (1/0)
|   |   |   |   |   |   job = self-employed : no (0/0)
|   |   |   |   |   |   job = unemployed
|   |   |   |   |   |   |   age < 24 : yes (1/0)
|   |   |   |   |   |   |   age >= 24 : no (2/0)
|   |   |   |   |   |   job = housemaid : no (0/0)
|   |   |   |   |   |   job = student
|   |   |   |   |   |   |   age < 22.5 : no (1/0)
|   |   |   |   |   |   |   age >= 22.5
|   |   |   |   |   |   |   |   age < 26 : yes (1/0)
|   |   |   |   |   |   |   |   age >= 26 : no (1/0)
|   |   |   |   |   month = dec : no (2/0)
|   |   |   |   |   month = jan
|   |   |   |   |   |   age < 25 : yes (1/0)
|   |   |   |   |   |   age >= 25 : no (31/0)
|   |   |   |   |   month = feb
|   |   |   |   |   |   day < 12 : no (71/0)
|   |   |   |   |   |   day >= 12
|   |   |   |   |   |   |   balance < 1128.5
|   |   |   |   |   |   |   |   campaign < 1.5
|   |   |   |   |   |   |   |   |   job = management : no (0/0)
|   |   |   |   |   |   |   |   |   job = technician : no (0/0)
|   |   |   |   |   |   |   |   |   job = entrepreneur : no (0/0)
|   |   |   |   |   |   |   |   |   job = blue-collar : no (1/0)
|   |   |   |   |   |   |   |   |   job = unknown : no (0/0)
|   |   |   |   |   |   |   |   |   job = retired : no (0/0)
|   |   |   |   |   |   |   |   |   job = admin. : no (1/0)
|   |   |   |   |   |   |   |   |   job = services : no (1/0)
|   |   |   |   |   |   |   |   |   job = self-employed : no (1/0)
|   |   |   |   |   |   |   |   |   job = unemployed : no (0/0)
|   |   |   |   |   |   |   |   |   job = housemaid : no (0/0)
|   |   |   |   |   |   |   |   |   job = student : yes (1/0)
|   |   |   |   |   |   |   |   campaign >= 1.5 : no (5/0)
|   |   |   |   |   |   |   balance >= 1128.5
|   |   |   |   |   |   |   |   duration < 96 : yes (3/0)
|   |   |   |   |   |   |   |   duration >= 96
|   |   |   |   |   |   |   |   |   age < 25.5 : no (1/0)
|   |   |   |   |   |   |   |   |   age >= 25.5
|   |   |   |   |   |   |   |   |   |   age < 26.5 : yes (1/0)
|   |   |   |   |   |   |   |   |   |   age >= 26.5 : no (1/0)
|   |   |   |   |   month = mar
|   |   |   |   |   |   balance < 7.5 : yes (2/0)
|   |   |   |   |   |   balance >= 7.5
|   |   |   |   |   |   |   education = tertiary : no (10/0)
|   |   |   |   |   |   |   education = secondary
|   |   |   |   |   |   |   |   duration < 90 : no (8/0)
|   |   |   |   |   |   |   |   duration >= 90
|   |   |   |   |   |   |   |   |   duration < 96.5
|   |   |   |   |   |   |   |   |   |   campaign < 3.5 : yes (2/0)
|   |   |   |   |   |   |   |   |   |   campaign >= 3.5 : no (1/0)
|   |   |   |   |   |   |   |   |   duration >= 96.5 : no (2/0)
|   |   |   |   |   |   |   education = unknown : no (1/0)
|   |   |   |   |   |   |   education = primary : no (0/0)
|   |   |   |   |   month = apr
|   |   |   |   |   |   balance < 2222
|   |   |   |   |   |   |   age < 26.5
|   |   |   |   |   |   |   |   balance < 451.5
|   |   |   |   |   |   |   |   |   housing = yes : no (5/0)
|   |   |   |   |   |   |   |   |   housing = no
|   |   |   |   |   |   |   |   |   |   age < 20 : no (1/0)
|   |   |   |   |   |   |   |   |   |   age >= 20
|   |   |   |   |   |   |   |   |   |   |   education = tertiary : no (2/0)
|   |   |   |   |   |   |   |   |   |   |   education = secondary
|   |   |   |   |   |   |   |   |   |   |   |   job = management : no (0/0)
|   |   |   |   |   |   |   |   |   |   |   |   job = technician : no (0/0)
|   |   |   |   |   |   |   |   |   |   |   |   job = entrepreneur : no (0/0)
|   |   |   |   |   |   |   |   |   |   |   |   job = blue-collar : no (0/0)
|   |   |   |   |   |   |   |   |   |   |   |   job = unknown : no (0/0)
|   |   |   |   |   |   |   |   |   |   |   |   job = retired : no (0/0)
|   |   |   |   |   |   |   |   |   |   |   |   job = admin.
|   |   |   |   |   |   |   |   |   |   |   |   |   age < 23.5 : no (1/0)
|   |   |   |   |   |   |   |   |   |   |   |   |   age >= 23.5 : yes (1/0)
|   |   |   |   |   |   |   |   |   |   |   |   job = services : yes (1/0)
|   |   |   |   |   |   |   |   |   |   |   |   job = self-employed : no (0/0)
|   |   |   |   |   |   |   |   |   |   |   |   job = unemployed : no (0/0)
|   |   |   |   |   |   |   |   |   |   |   |   job = housemaid : no (0/0)
|   |   |   |   |   |   |   |   |   |   |   |   job = student : yes (2/0)
|   |   |   |   |   |   |   |   |   |   |   education = unknown : no (0/0)
|   |   |   |   |   |   |   |   |   |   |   education = primary : yes (1/0)
|   |   |   |   |   |   |   |   balance >= 451.5 : no (15/0)
|   |   |   |   |   |   |   age >= 26.5 : no (24/0)
|   |   |   |   |   |   balance >= 2222
|   |   |   |   |   |   |   education = tertiary
|   |   |   |   |   |   |   |   housing = yes : no (1/0)
|   |   |   |   |   |   |   |   housing = no : yes (5/0)
|   |   |   |   |   |   |   education = secondary
|   |   |   |   |   |   |   |   balance < 6304.5 : yes (1/0)
|   |   |   |   |   |   |   |   balance >= 6304.5 : no (2/0)
|   |   |   |   |   |   |   education = unknown : no (2/0)
|   |   |   |   |   |   |   education = primary : no (2/0)
|   |   |   |   |   month = sep
|   |   |   |   |   |   job = management : no (3/0)
|   |   |   |   |   |   job = technician : no (1/0)
|   |   |   |   |   |   job = entrepreneur : no (0/0)
|   |   |   |   |   |   job = blue-collar : no (0/0)
|   |   |   |   |   |   job = unknown : no (0/0)
|   |   |   |   |   |   job = retired : no (0/0)
|   |   |   |   |   |   job = admin.
|   |   |   |   |   |   |   balance < 541.5 : no (1/0)
|   |   |   |   |   |   |   balance >= 541.5
|   |   |   |   |   |   |   |   age < 26.5 : no (1/0)
|   |   |   |   |   |   |   |   age >= 26.5 : yes (2/0)
|   |   |   |   |   |   job = services : no (2/0)
|   |   |   |   |   |   job = self-employed : no (0/0)
|   |   |   |   |   |   job = unemployed : no (3/0)
|   |   |   |   |   |   job = housemaid : no (0/0)
|   |   |   |   |   |   job = student : no (7/0)
|   |   |   |   age >= 28.5
|   |   |   |   |   duration < 77.5
|   |   |   |   |   |   month = may : no (1440/0)
|   |   |   |   |   |   month = jun : no (1031/0)
|   |   |   |   |   |   month = jul
|   |   |   |   |   |   |   contact = unknown
|   |   |   |   |   |   |   |   education = tertiary : no (12/0)
|   |   |   |   |   |   |   |   education = secondary
|   |   |   |   |   |   |   |   |   day < 7.5 : no (15/0)
|   |   |   |   |   |   |   |   |   day >= 7.5
|   |   |   |   |   |   |   |   |   |   duration < 42.5 : no (7/0)
|   |   |   |   |   |   |   |   |   |   duration >= 42.5
|   |   |   |   |   |   |   |   |   |   |   duration < 68.5 : yes (1/0)
|   |   |   |   |   |   |   |   |   |   |   duration >= 68.5 : no (2/0)
|   |   |   |   |   |   |   |   education = unknown : no (0/0)
|   |   |   |   |   |   |   |   education = primary : no (9/0)
|   |   |   |   |   |   |   contact = cellular : no (748/0)
|   |   |   |   |   |   |   contact = telephone
|   |   |   |   |   |   |   |   housing = yes
|   |   |   |   |   |   |   |   |   campaign < 1.5
|   |   |   |   |   |   |   |   |   |   age < 46 : no (17/0)
|   |   |   |   |   |   |   |   |   |   age >= 46
|   |   |   |   |   |   |   |   |   |   |   balance < 209.5
|   |   |   |   |   |   |   |   |   |   |   |   day < 10.5
|   |   |   |   |   |   |   |   |   |   |   |   |   age < 52 : yes (1/0)
|   |   |   |   |   |   |   |   |   |   |   |   |   age >= 52 : no (1/0)
|   |   |   |   |   |   |   |   |   |   |   |   day >= 10.5 : no (2/0)
|   |   |   |   |   |   |   |   |   |   |   balance >= 209.5 : no (7/0)
|   |   |   |   |   |   |   |   |   campaign >= 1.5 : no (58/0)
|   |   |   |   |   |   |   |   housing = no : no (120/0)
|   |   |   |   |   |   month = aug
|   |   |   |   |   |   |   contact = unknown
|   |   |   |   |   |   |   |   job = management : no (3/0)
|   |   |   |   |   |   |   |   job = technician : no (5/0)
|   |   |   |   |   |   |   |   job = entrepreneur : no (2/0)
|   |   |   |   |   |   |   |   job = blue-collar : no (2/0)
|   |   |   |   |   |   |   |   job = unknown : no (0/0)
|   |   |   |   |   |   |   |   job = retired : no (0/0)
|   |   |   |   |   |   |   |   job = admin.
|   |   |   |   |   |   |   |   |   marital = married : no (1/0)
|   |   |   |   |   |   |   |   |   marital = single
|   |   |   |   |   |   |   |   |   |   loan = no : no (1/0)
|   |   |   |   |   |   |   |   |   |   loan = yes : yes (1/0)
|   |   |   |   |   |   |   |   |   marital = divorced : no (1/0)
|   |   |   |   |   |   |   |   job = services : no (3/0)
|   |   |   |   |   |   |   |   job = self-employed : no (1/0)
|   |   |   |   |   |   |   |   job = unemployed : no (1/0)
|   |   |   |   |   |   |   |   job = housemaid : no (1/0)
|   |   |   |   |   |   |   |   job = student : no (1/0)
|   |   |   |   |   |   |   contact = cellular : no (874/0)
|   |   |   |   |   |   |   contact = telephone : no (55/0)
|   |   |   |   |   |   month = oct
|   |   |   |   |   |   |   loan = no : no (42/0)
|   |   |   |   |   |   |   loan = yes
|   |   |   |   |   |   |   |   age < 49 : no (4/0)
|   |   |   |   |   |   |   |   age >= 49 : yes (1/0)
|   |   |   |   |   |   month = nov
|   |   |   |   |   |   |   balance < 9342.5 : no (495/0)
|   |   |   |   |   |   |   balance >= 9342.5
|   |   |   |   |   |   |   |   education = tertiary
|   |   |   |   |   |   |   |   |   duration < 68 : no (18/0)
|   |   |   |   |   |   |   |   |   duration >= 68
|   |   |   |   |   |   |   |   |   |   day < 15.5 : yes (1/0)
|   |   |   |   |   |   |   |   |   |   day >= 15.5 : no (3/0)
|   |   |   |   |   |   |   |   education = secondary : no (8/0)
|   |   |   |   |   |   |   |   education = unknown : yes (1/0)
|   |   |   |   |   |   |   |   education = primary : no (3/0)
|   |   |   |   |   |   month = dec : no (5/0)
|   |   |   |   |   |   month = jan : no (98/0)
|   |   |   |   |   |   month = feb
|   |   |   |   |   |   |   day < 12
|   |   |   |   |   |   |   |   duration < 70.5 : no (234/0)
|   |   |   |   |   |   |   |   duration >= 70.5
|   |   |   |   |   |   |   |   |   job = management : no (6/0)
|   |   |   |   |   |   |   |   |   job = technician
|   |   |   |   |   |   |   |   |   |   marital = married : no (1/0)
|   |   |   |   |   |   |   |   |   |   marital = single
|   |   |   |   |   |   |   |   |   |   |   duration < 72 : yes (1/0)
|   |   |   |   |   |   |   |   |   |   |   duration >= 72 : no (1/0)
|   |   |   |   |   |   |   |   |   |   marital = divorced : no (1/0)
|   |   |   |   |   |   |   |   |   job = entrepreneur : no (0/0)
|   |   |   |   |   |   |   |   |   job = blue-collar : no (3/0)
|   |   |   |   |   |   |   |   |   job = unknown : no (0/0)
|   |   |   |   |   |   |   |   |   job = retired : no (1/0)
|   |   |   |   |   |   |   |   |   job = admin. : no (3/0)
|   |   |   |   |   |   |   |   |   job = services : no (3/0)
|   |   |   |   |   |   |   |   |   job = self-employed : no (0/0)
|   |   |   |   |   |   |   |   |   job = unemployed : no (3/0)
|   |   |   |   |   |   |   |   |   job = housemaid : no (1/0)
|   |   |   |   |   |   |   |   |   job = student : no (0/0)
|   |   |   |   |   |   |   day >= 12
|   |   |   |   |   |   |   |   day < 14.5
|   |   |   |   |   |   |   |   |   age < 36.5 : no (1/0)
|   |   |   |   |   |   |   |   |   age >= 36.5 : yes (2/0)
|   |   |   |   |   |   |   |   day >= 14.5 : no (18/0)
|   |   |   |   |   |   month = mar
|   |   |   |   |   |   |   job = management
|   |   |   |   |   |   |   |   age < 33.5
|   |   |   |   |   |   |   |   |   age < 31.5 : no (1/0)
|   |   |   |   |   |   |   |   |   age >= 31.5 : yes (1/0)
|   |   |   |   |   |   |   |   age >= 33.5 : no (5/0)
|   |   |   |   |   |   |   job = technician : no (2/0)
|   |   |   |   |   |   |   job = entrepreneur : no (0/0)
|   |   |   |   |   |   |   job = blue-collar : no (2/0)
|   |   |   |   |   |   |   job = unknown : no (0/0)
|   |   |   |   |   |   |   job = retired : no (2/0)
|   |   |   |   |   |   |   job = admin. : no (5/0)
|   |   |   |   |   |   |   job = services : no (0/0)
|   |   |   |   |   |   |   job = self-employed : no (2/0)
|   |   |   |   |   |   |   job = unemployed : no (3/0)
|   |   |   |   |   |   |   job = housemaid : no (0/0)
|   |   |   |   |   |   |   job = student : no (0/0)
|   |   |   |   |   |   month = apr
|   |   |   |   |   |   |   education = tertiary
|   |   |   |   |   |   |   |   age < 44.5 : no (32/0)
|   |   |   |   |   |   |   |   age >= 44.5
|   |   |   |   |   |   |   |   |   day < 18.5 : no (6/0)
|   |   |   |   |   |   |   |   |   day >= 18.5
|   |   |   |   |   |   |   |   |   |   job = management
|   |   |   |   |   |   |   |   |   |   |   day < 20.5 : no (3/0)
|   |   |   |   |   |   |   |   |   |   |   day >= 20.5 : yes (1/0)
|   |   |   |   |   |   |   |   |   |   job = technician : no (0/0)
|   |   |   |   |   |   |   |   |   |   job = entrepreneur : no (1/0)
|   |   |   |   |   |   |   |   |   |   job = blue-collar : no (0/0)
|   |   |   |   |   |   |   |   |   |   job = unknown : no (0/0)
|   |   |   |   |   |   |   |   |   |   job = retired : no (1/0)
|   |   |   |   |   |   |   |   |   |   job = admin. : no (0/0)
|   |   |   |   |   |   |   |   |   |   job = services : no (0/0)
|   |   |   |   |   |   |   |   |   |   job = self-employed : yes (1/0)
|   |   |   |   |   |   |   |   |   |   job = unemployed : no (0/0)
|   |   |   |   |   |   |   |   |   |   job = housemaid : no (1/0)
|   |   |   |   |   |   |   |   |   |   job = student : no (0/0)
|   |   |   |   |   |   |   education = secondary : no (106/0)
|   |   |   |   |   |   |   education = unknown : no (6/0)
|   |   |   |   |   |   |   education = primary : no (27/0)
|   |   |   |   |   |   month = sep : no (27/0)
|   |   |   |   |   duration >= 77.5
|   |   |   |   |   |   contact = unknown
|   |   |   |   |   |   |   job = management : no (362/0)
|   |   |   |   |   |   |   job = technician
|   |   |   |   |   |   |   |   balance < 435 : no (171/0)
|   |   |   |   |   |   |   |   balance >= 435
|   |   |   |   |   |   |   |   |   month = may : no (100/0)
|   |   |   |   |   |   |   |   |   month = jun : no (46/0)
|   |   |   |   |   |   |   |   |   month = jul : no (2/0)
|   |   |   |   |   |   |   |   |   month = aug : no (1/0)
|   |   |   |   |   |   |   |   |   month = oct : yes (1/0)
|   |   |   |   |   |   |   |   |   month = nov : no (0/0)
|   |   |   |   |   |   |   |   |   month = dec : no (0/0)
|   |   |   |   |   |   |   |   |   month = jan : no (0/0)
|   |   |   |   |   |   |   |   |   month = feb : no (0/0)
|   |   |   |   |   |   |   |   |   month = mar : yes (1/0)
|   |   |   |   |   |   |   |   |   month = apr : no (0/0)
|   |   |   |   |   |   |   |   |   month = sep : no (0/0)
|   |   |   |   |   |   |   job = entrepreneur : no (81/0)
|   |   |   |   |   |   |   job = blue-collar
|   |   |   |   |   |   |   |   education = tertiary
|   |   |   |   |   |   |   |   |   age < 32.5 : yes (1/0)
|   |   |   |   |   |   |   |   |   age >= 32.5 : no (6/0)
|   |   |   |   |   |   |   |   education = secondary : no (279/0)
|   |   |   |   |   |   |   |   education = unknown : no (41/0)
|   |   |   |   |   |   |   |   education = primary
|   |   |   |   |   |   |   |   |   month = may : no (160/0)
|   |   |   |   |   |   |   |   |   month = jun : no (99/0)
|   |   |   |   |   |   |   |   |   month = jul : no (4/0)
|   |   |   |   |   |   |   |   |   month = aug : no (0/0)
|   |   |   |   |   |   |   |   |   month = oct : no (0/0)
|   |   |   |   |   |   |   |   |   month = nov : no (0/0)
|   |   |   |   |   |   |   |   |   month = dec : no (0/0)
|   |   |   |   |   |   |   |   |   month = jan : no (0/0)
|   |   |   |   |   |   |   |   |   month = feb : no (0/0)
|   |   |   |   |   |   |   |   |   month = mar : no (0/0)
|   |   |   |   |   |   |   |   |   month = apr : yes (2/0)
|   |   |   |   |   |   |   |   |   month = sep : no (0/0)
|   |   |   |   |   |   |   job = unknown : no (14/0)
|   |   |   |   |   |   |   job = retired : no (83/0)
|   |   |   |   |   |   |   job = admin.
|   |   |   |   |   |   |   |   balance < 294.5 : no (121/0)
|   |   |   |   |   |   |   |   balance >= 294.5
|   |   |   |   |   |   |   |   |   loan = no
|   |   |   |   |   |   |   |   |   |   balance < 296 : yes (1/0)
|   |   |   |   |   |   |   |   |   |   balance >= 296
|   |   |   |   |   |   |   |   |   |   |   month = may : no (51/0)
|   |   |   |   |   |   |   |   |   |   |   month = jun : no (46/0)
|   |   |   |   |   |   |   |   |   |   |   month = jul : no (0/0)
|   |   |   |   |   |   |   |   |   |   |   month = aug : no (0/0)
|   |   |   |   |   |   |   |   |   |   |   month = oct : no (0/0)
|   |   |   |   |   |   |   |   |   |   |   month = nov
|   |   |   |   |   |   |   |   |   |   |   |   balance < 6804.5 : yes (1/0)
|   |   |   |   |   |   |   |   |   |   |   |   balance >= 6804.5 : no (1/0)
|   |   |   |   |   |   |   |   |   |   |   month = dec : no (0/0)
|   |   |   |   |   |   |   |   |   |   |   month = jan : no (0/0)
|   |   |   |   |   |   |   |   |   |   |   month = feb : no (0/0)
|   |   |   |   |   |   |   |   |   |   |   month = mar : no (0/0)
|   |   |   |   |   |   |   |   |   |   |   month = apr : no (0/0)
|   |   |   |   |   |   |   |   |   |   |   month = sep : no (0/0)
|   |   |   |   |   |   |   |   |   loan = yes : no (16/0)
|   |   |   |   |   |   |   job = services
|   |   |   |   |   |   |   |   education = tertiary : no (7/0)
|   |   |   |   |   |   |   |   education = secondary : no (193/0)
|   |   |   |   |   |   |   |   education = unknown
|   |   |   |   |   |   |   |   |   day < 23.5 : no (5/0)
|   |   |   |   |   |   |   |   |   day >= 23.5
|   |   |   |   |   |   |   |   |   |   age < 44.5 : yes (1/0)
|   |   |   |   |   |   |   |   |   |   age >= 44.5 : no (1/0)
|   |   |   |   |   |   |   |   education = primary : no (18/0)
|   |   |   |   |   |   |   job = self-employed : no (43/0)
|   |   |   |   |   |   |   job = unemployed
|   |   |   |   |   |   |   |   age < 44.5 : no (26/0)
|   |   |   |   |   |   |   |   age >= 44.5
|   |   |   |   |   |   |   |   |   age < 46
|   |   |   |   |   |   |   |   |   |   balance < 321 : no (1/0)
|   |   |   |   |   |   |   |   |   |   balance >= 321 : yes (1/0)
|   |   |   |   |   |   |   |   |   age >= 46 : no (12/0)
|   |   |   |   |   |   |   job = housemaid
|   |   |   |   |   |   |   |   day < 29 : no (73/0)
|   |   |   |   |   |   |   |   day >= 29
|   |   |   |   |   |   |   |   |   age < 48.5 : no (2/0)
|   |   |   |   |   |   |   |   |   age >= 48.5 : yes (1/0)
|   |   |   |   |   |   |   job = student : no (11/0)
|   |   |   |   |   |   contact = cellular
|   |   |   |   |   |   |   month = may
|   |   |   |   |   |   |   |   age < 29.5
|   |   |   |   |   |   |   |   |   day < 21.5 : no (13/0)
|   |   |   |   |   |   |   |   |   day >= 21.5
|   |   |   |   |   |   |   |   |   |   job = management : no (0/0)
|   |   |   |   |   |   |   |   |   |   job = technician
|   |   |   |   |   |   |   |   |   |   |   balance < 592 : yes (1/0)
|   |   |   |   |   |   |   |   |   |   |   balance >= 592 : no (1/0)
|   |   |   |   |   |   |   |   |   |   job = entrepreneur : no (0/0)
|   |   |   |   |   |   |   |   |   |   job = blue-collar : no (0/0)
|   |   |   |   |   |   |   |   |   |   job = unknown : no (0/0)
|   |   |   |   |   |   |   |   |   |   job = retired : no (0/0)
|   |   |   |   |   |   |   |   |   |   job = admin. : no (0/0)
|   |   |   |   |   |   |   |   |   |   job = services : no (0/0)
|   |   |   |   |   |   |   |   |   |   job = self-employed : no (1/0)
|   |   |   |   |   |   |   |   |   |   job = unemployed : no (0/0)
|   |   |   |   |   |   |   |   |   |   job = housemaid : no (0/0)
|   |   |   |   |   |   |   |   |   |   job = student : no (0/0)
|   |   |   |   |   |   |   |   age >= 29.5 : no (374/0)
|   |   |   |   |   |   |   month = jun
|   |   |   |   |   |   |   |   balance < 5927.5
|   |   |   |   |   |   |   |   |   age < 30.5 : no (7/0)
|   |   |   |   |   |   |   |   |   age >= 30.5
|   |   |   |   |   |   |   |   |   |   job = management
|   |   |   |   |   |   |   |   |   |   |   age < 33
|   |   |   |   |   |   |   |   |   |   |   |   age < 31.5 : no (2/0)
|   |   |   |   |   |   |   |   |   |   |   |   age >= 31.5 : yes (1/0)
|   |   |   |   |   |   |   |   |   |   |   age >= 33 : no (10/0)
|   |   |   |   |   |   |   |   |   |   job = technician
|   |   |   |   |   |   |   |   |   |   |   balance < 4325.5
|   |   |   |   |   |   |   |   |   |   |   |   age < 34.5
|   |   |   |   |   |   |   |   |   |   |   |   |   education = tertiary
|   |   |   |   |   |   |   |   |   |   |   |   |   |   day < 11.5 : yes (2/0)
|   |   |   |   |   |   |   |   |   |   |   |   |   |   day >= 11.5 : no (1/0)
|   |   |   |   |   |   |   |   |   |   |   |   |   education = secondary : no (2/0)
|   |   |   |   |   |   |   |   |   |   |   |   |   education = unknown : no (0/0)
|   |   |   |   |   |   |   |   |   |   |   |   |   education = primary : no (0/0)
|   |   |   |   |   |   |   |   |   |   |   |   age >= 34.5 : no (9/0)
|   |   |   |   |   |   |   |   |   |   |   balance >= 4325.5 : yes (1/0)
|   |   |   |   |   |   |   |   |   |   job = entrepreneur : no (3/0)
|   |   |   |   |   |   |   |   |   |   job = blue-collar : no (3/0)
|   |   |   |   |   |   |   |   |   |   job = unknown : no (0/0)
|   |   |   |   |   |   |   |   |   |   job = retired : no (1/0)
|   |   |   |   |   |   |   |   |   |   job = admin.
|   |   |   |   |   |   |   |   |   |   |   balance < 8 : yes (1/0)
|   |   |   |   |   |   |   |   |   |   |   balance >= 8
|   |   |   |   |   |   |   |   |   |   |   |   campaign < 3.5
|   |   |   |   |   |   |   |   |   |   |   |   |   age < 50.5
|   |   |   |   |   |   |   |   |   |   |   |   |   |   education = tertiary
|   |   |   |   |   |   |   |   |   |   |   |   |   |   |   age < 33.5 : yes (1/0)
|   |   |   |   |   |   |   |   |   |   |   |   |   |   |   age >= 33.5 : no (2/0)
|   |   |   |   |   |   |   |   |   |   |   |   |   |   education = secondary : no (6/0)
|   |   |   |   |   |   |   |   |   |   |   |   |   |   education = unknown : no (0/0)
|   |   |   |   |   |   |   |   |   |   |   |   |   |   education = primary : no (0/0)
|   |   |   |   |   |   |   |   |   |   |   |   |   age >= 50.5 : yes (1/0)
|   |   |   |   |   |   |   |   |   |   |   |   campaign >= 3.5 : no (1/0)
|   |   |   |   |   |   |   |   |   |   job = services : no (2/0)
|   |   |   |   |   |   |   |   |   |   job = self-employed : no (3/0)
|   |   |   |   |   |   |   |   |   |   job = unemployed
|   |   |   |   |   |   |   |   |   |   |   housing = yes : no (1/0)
|   |   |   |   |   |   |   |   |   |   |   housing = no : yes (1/0)
|   |   |   |   |   |   |   |   |   |   job = housemaid : no (0/0)
|   |   |   |   |   |   |   |   |   |   job = student : no (0/0)
|   |   |   |   |   |   |   |   balance >= 5927.5 : no (8/0)
|   |   |   |   |   |   |   month = jul
|   |   |   |   |   |   |   |   job = management
|   |   |   |   |   |   |   |   |   marital = married : no (166/0)
|   |   |   |   |   |   |   |   |   marital = single
|   |   |   |   |   |   |   |   |   |   housing = yes
|   |   |   |   |   |   |   |   |   |   |   age < 47.5 : no (19/0)
|   |   |   |   |   |   |   |   |   |   |   age >= 47.5
|   |   |   |   |   |   |   |   |   |   |   |   age < 52 : yes (1/0)
|   |   |   |   |   |   |   |   |   |   |   |   age >= 52 : no (2/0)
|   |   |   |   |   |   |   |   |   |   housing = no : no (18/0)
|   |   |   |   |   |   |   |   |   marital = divorced : no (28/0)
|   |   |   |   |   |   |   |   job = technician : no (158/0)
|   |   |   |   |   |   |   |   job = entrepreneur : no (48/0)
|   |   |   |   |   |   |   |   job = blue-collar
|   |   |   |   |   |   |   |   |   age < 58.5 : no (189/0)
|   |   |   |   |   |   |   |   |   age >= 58.5
|   |   |   |   |   |   |   |   |   |   housing = yes : no (1/0)
|   |   |   |   |   |   |   |   |   |   housing = no
|   |   |   |   |   |   |   |   |   |   |   balance < 2180.5 : yes (1/0)
|   |   |   |   |   |   |   |   |   |   |   balance >= 2180.5 : no (1/0)
|   |   |   |   |   |   |   |   job = unknown : no (3/0)
|   |   |   |   |   |   |   |   job = retired : no (52/0)
|   |   |   |   |   |   |   |   job = admin. : no (144/0)
|   |   |   |   |   |   |   |   job = services : no (109/0)
|   |   |   |   |   |   |   |   job = self-employed : no (31/0)
|   |   |   |   |   |   |   |   job = unemployed : no (22/0)
|   |   |   |   |   |   |   |   job = housemaid : no (40/0)
|   |   |   |   |   |   |   |   job = student : no (2/0)
|   |   |   |   |   |   |   month = aug
|   |   |   |   |   |   |   |   duration < 81.5
|   |   |   |   |   |   |   |   |   campaign < 3.5
|   |   |   |   |   |   |   |   |   |   age < 33.5 : no (18/0)
|   |   |   |   |   |   |   |   |   |   age >= 33.5
|   |   |   |   |   |   |   |   |   |   |   job = management : no (12/0)
|   |   |   |   |   |   |   |   |   |   |   job = technician
|   |   |   |   |   |   |   |   |   |   |   |   campaign < 2.5 : no (10/0)
|   |   |   |   |   |   |   |   |   |   |   |   campaign >= 2.5
|   |   |   |   |   |   |   |   |   |   |   |   |   marital = married : yes (1/0)
|   |   |   |   |   |   |   |   |   |   |   |   |   marital = single : no (2/0)
|   |   |   |   |   |   |   |   |   |   |   |   |   marital = divorced : no (0/0)
|   |   |   |   |   |   |   |   |   |   |   job = entrepreneur : no (0/0)
|   |   |   |   |   |   |   |   |   |   |   job = blue-collar
|   |   |   |   |   |   |   |   |   |   |   |   campaign < 1.5 : yes (1/0)
|   |   |   |   |   |   |   |   |   |   |   |   campaign >= 1.5 : no (3/0)
|   |   |   |   |   |   |   |   |   |   |   job = unknown : no (0/0)
|   |   |   |   |   |   |   |   |   |   |   job = retired : no (4/0)
|   |   |   |   |   |   |   |   |   |   |   job = admin. : no (3/0)
|   |   |   |   |   |   |   |   |   |   |   job = services : no (7/0)
|   |   |   |   |   |   |   |   |   |   |   job = self-employed : no (1/0)
|   |   |   |   |   |   |   |   |   |   |   job = unemployed : no (0/0)
|   |   |   |   |   |   |   |   |   |   |   job = housemaid : no (0/0)
|   |   |   |   |   |   |   |   |   |   |   job = student : no (0/0)
|   |   |   |   |   |   |   |   |   campaign >= 3.5 : no (50/0)
|   |   |   |   |   |   |   |   duration >= 81.5
|   |   |   |   |   |   |   |   |   duration < 129.5
|   |   |   |   |   |   |   |   |   |   balance < 2668.5 : no (1056/0)
|   |   |   |   |   |   |   |   |   |   balance >= 2668.5
|   |   |   |   |   |   |   |   |   |   |   duration < 94.5
|   |   |   |   |   |   |   |   |   |   |   |   duration < 93.5 : no (45/0)
|   |   |   |   |   |   |   |   |   |   |   |   duration >= 93.5
|   |   |   |   |   |   |   |   |   |   |   |   |   balance < 2719.5 : yes (1/0)
|   |   |   |   |   |   |   |   |   |   |   |   |   balance >= 2719.5 : no (4/0)
|   |   |   |   |   |   |   |   |   |   |   duration >= 94.5 : no (117/0)
|   |   |   |   |   |   |   |   |   duration >= 129.5
|   |   |   |   |   |   |   |   |   |   job = management : no (8/0)
|   |   |   |   |   |   |   |   |   |   job = technician
|   |   |   |   |   |   |   |   |   |   |   balance < 5339 : no (6/0)
|   |   |   |   |   |   |   |   |   |   |   balance >= 5339
|   |   |   |   |   |   |   |   |   |   |   |   marital = married : yes (1/0)
|   |   |   |   |   |   |   |   |   |   |   |   marital = single : no (1/0)
|   |   |   |   |   |   |   |   |   |   |   |   marital = divorced : no (0/0)
|   |   |   |   |   |   |   |   |   |   job = entrepreneur : no (0/0)
|   |   |   |   |   |   |   |   |   |   job = blue-collar : no (1/0)
|   |   |   |   |   |   |   |   |   |   job = unknown : no (1/0)
|   |   |   |   |   |   |   |   |   |   job = retired : no (0/0)
|   |   |   |   |   |   |   |   |   |   job = admin. : no (1/0)
|   |   |   |   |   |   |   |   |   |   job = services : no (0/0)
|   |   |   |   |   |   |   |   |   |   job = self-employed : no (1/0)
|   |   |   |   |   |   |   |   |   |   job = unemployed : no (0/0)
|   |   |   |   |   |   |   |   |   |   job = housemaid : no (0/0)
|   |   |   |   |   |   |   |   |   |   job = student : no (0/0)
|   |   |   |   |   |   |   month = oct
|   |   |   |   |   |   |   |   age < 46.5
|   |   |   |   |   |   |   |   |   day < 21 : no (20/0)
|   |   |   |   |   |   |   |   |   day >= 21
|   |   |   |   |   |   |   |   |   |   marital = married
|   |   |   |   |   |   |   |   |   |   |   age < 35.5 : yes (1/0)
|   |   |   |   |   |   |   |   |   |   |   age >= 35.5 : no (1/0)
|   |   |   |   |   |   |   |   |   |   marital = single : no (4/0)
|   |   |   |   |   |   |   |   |   |   marital = divorced : no (0/0)
|   |   |   |   |   |   |   |   age >= 46.5
|   |   |   |   |   |   |   |   |   age < 53.5
|   |   |   |   |   |   |   |   |   |   job = management
|   |   |   |   |   |   |   |   |   |   |   marital = married : yes (2/0)
|   |   |   |   |   |   |   |   |   |   |   marital = single : yes (1/0)
|   |   |   |   |   |   |   |   |   |   |   marital = divorced
|   |   |   |   |   |   |   |   |   |   |   |   duration < 125.5 : yes (1/0)
|   |   |   |   |   |   |   |   |   |   |   |   duration >= 125.5 : no (1/0)
|   |   |   |   |   |   |   |   |   |   job = technician : no (0/0)
|   |   |   |   |   |   |   |   |   |   job = entrepreneur : yes (1/0)
|   |   |   |   |   |   |   |   |   |   job = blue-collar : yes (1/0)
|   |   |   |   |   |   |   |   |   |   job = unknown : no (0/0)
|   |   |   |   |   |   |   |   |   |   job = retired : no (0/0)
|   |   |   |   |   |   |   |   |   |   job = admin. : no (2/0)
|   |   |   |   |   |   |   |   |   |   job = services : yes (1/0)
|   |   |   |   |   |   |   |   |   |   job = self-employed : no (0/0)
|   |   |   |   |   |   |   |   |   |   job = unemployed : no (0/0)
|   |   |   |   |   |   |   |   |   |   job = housemaid
|   |   |   |   |   |   |   |   |   |   |   age < 47.5 : yes (1/0)
|   |   |   |   |   |   |   |   |   |   |   age >= 47.5 : no (1/0)
|   |   |   |   |   |   |   |   |   |   job = student : no (0/0)
|   |   |   |   |   |   |   |   |   age >= 53.5 : no (7/0)
|   |   |   |   |   |   |   month = nov
|   |   |   |   |   |   |   |   duration < 102.5
|   |   |   |   |   |   |   |   |   day < 3.5
|   |   |   |   |   |   |   |   |   |   marital = married : yes (1/0)
|   |   |   |   |   |   |   |   |   |   marital = single : no (2/0)
|   |   |   |   |   |   |   |   |   |   marital = divorced : no (0/0)
|   |   |   |   |   |   |   |   |   day >= 3.5 : no (240/0)
|   |   |   |   |   |   |   |   duration >= 102.5 : no (246/0)
|   |   |   |   |   |   |   month = dec : no (6/0)
|   |   |   |   |   |   |   month = jan
|   |   |   |   |   |   |   |   education = tertiary
|   |   |   |   |   |   |   |   |   job = management
|   |   |   |   |   |   |   |   |   |   balance < 2955.5 : no (12/0)
|   |   |   |   |   |   |   |   |   |   balance >= 2955.5 : yes (1/0)
|   |   |   |   |   |   |   |   |   job = technician : no (7/0)
|   |   |   |   |   |   |   |   |   job = entrepreneur : no (3/0)
|   |   |   |   |   |   |   |   |   job = blue-collar : no (0/0)
|   |   |   |   |   |   |   |   |   job = unknown : no (0/0)
|   |   |   |   |   |   |   |   |   job = retired : no (2/0)
|   |   |   |   |   |   |   |   |   job = admin. : no (4/0)
|   |   |   |   |   |   |   |   |   job = services : no (0/0)
|   |   |   |   |   |   |   |   |   job = self-employed : no (4/0)
|   |   |   |   |   |   |   |   |   job = unemployed : no (4/0)
|   |   |   |   |   |   |   |   |   job = housemaid : no (0/0)
|   |   |   |   |   |   |   |   |   job = student : no (0/0)
|   |   |   |   |   |   |   |   education = secondary : no (63/0)
|   |   |   |   |   |   |   |   education = unknown : no (7/0)
|   |   |   |   |   |   |   |   education = primary : no (15/0)
|   |   |   |   |   |   |   month = feb
|   |   |   |   |   |   |   |   job = management
|   |   |   |   |   |   |   |   |   duration < 87.5
|   |   |   |   |   |   |   |   |   |   campaign < 1.5 : no (6/0)
|   |   |   |   |   |   |   |   |   |   campaign >= 1.5
|   |   |   |   |   |   |   |   |   |   |   balance < 202 : no (2/0)
|   |   |   |   |   |   |   |   |   |   |   balance >= 202 : yes (2/0)
|   |   |   |   |   |   |   |   |   duration >= 87.5 : no (34/0)
|   |   |   |   |   |   |   |   job = technician
|   |   |   |   |   |   |   |   |   balance < 1025.5
|   |   |   |   |   |   |   |   |   |   day < 13 : no (18/0)
|   |   |   |   |   |   |   |   |   |   day >= 13
|   |   |   |   |   |   |   |   |   |   |   education = tertiary : no (1/0)
|   |   |   |   |   |   |   |   |   |   |   education = secondary : yes (1/0)
|   |   |   |   |   |   |   |   |   |   |   education = unknown : no (0/0)
|   |   |   |   |   |   |   |   |   |   |   education = primary : no (0/0)
|   |   |   |   |   |   |   |   |   balance >= 1025.5
|   |   |   |   |   |   |   |   |   |   balance < 2512.5
|   |   |   |   |   |   |   |   |   |   |   day < 14.5
|   |   |   |   |   |   |   |   |   |   |   |   balance < 1269.5 : yes (1/0)
|   |   |   |   |   |   |   |   |   |   |   |   balance >= 1269.5
|   |   |   |   |   |   |   |   |   |   |   |   |   marital = married : no (1/0)
|   |   |   |   |   |   |   |   |   |   |   |   |   marital = single
|   |   |   |   |   |   |   |   |   |   |   |   |   |   day < 3.5 : yes (1/0)
|   |   |   |   |   |   |   |   |   |   |   |   |   |   day >= 3.5 : no (1/0)
|   |   |   |   |   |   |   |   |   |   |   |   |   marital = divorced : no (1/0)
|   |   |   |   |   |   |   |   |   |   |   day >= 14.5 : yes (2/0)
|   |   |   |   |   |   |   |   |   |   balance >= 2512.5
|   |   |   |   |   |   |   |   |   |   |   age < 45 : no (6/0)
|   |   |   |   |   |   |   |   |   |   |   age >= 45
|   |   |   |   |   |   |   |   |   |   |   |   balance < 3160.5 : no (2/0)
|   |   |   |   |   |   |   |   |   |   |   |   balance >= 3160.5 : yes (1/0)
|   |   |   |   |   |   |   |   job = entrepreneur : no (10/0)
|   |   |   |   |   |   |   |   job = blue-collar : no (23/0)
|   |   |   |   |   |   |   |   job = unknown : no (0/0)
|   |   |   |   |   |   |   |   job = retired
|   |   |   |   |   |   |   |   |   housing = yes : no (2/0)
|   |   |   |   |   |   |   |   |   housing = no
|   |   |   |   |   |   |   |   |   |   age < 60.5 : no (5/0)
|   |   |   |   |   |   |   |   |   |   age >= 60.5
|   |   |   |   |   |   |   |   |   |   |   education = tertiary : no (1/0)
|   |   |   |   |   |   |   |   |   |   |   education = secondary : no (3/0)
|   |   |   |   |   |   |   |   |   |   |   education = unknown : no (0/0)
|   |   |   |   |   |   |   |   |   |   |   education = primary : yes (1/0)
|   |   |   |   |   |   |   |   job = admin.
|   |   |   |   |   |   |   |   |   day < 7.5 : no (30/0)
|   |   |   |   |   |   |   |   |   day >= 7.5
|   |   |   |   |   |   |   |   |   |   balance < 256 : no (3/0)
|   |   |   |   |   |   |   |   |   |   balance >= 256
|   |   |   |   |   |   |   |   |   |   |   age < 49.5
|   |   |   |   |   |   |   |   |   |   |   |   day < 10
|   |   |   |   |   |   |   |   |   |   |   |   |   marital = married : no (1/0)
|   |   |   |   |   |   |   |   |   |   |   |   |   marital = single : yes (1/0)
|   |   |   |   |   |   |   |   |   |   |   |   |   marital = divorced : no (0/0)
|   |   |   |   |   |   |   |   |   |   |   |   day >= 10 : yes (4/0)
|   |   |   |   |   |   |   |   |   |   |   age >= 49.5 : no (1/0)
|   |   |   |   |   |   |   |   job = services : no (15/0)
|   |   |   |   |   |   |   |   job = self-employed : no (13/0)
|   |   |   |   |   |   |   |   job = unemployed
|   |   |   |   |   |   |   |   |   day < 14 : no (23/0)
|   |   |   |   |   |   |   |   |   day >= 14
|   |   |   |   |   |   |   |   |   |   day < 21 : yes (1/0)
|   |   |   |   |   |   |   |   |   |   day >= 21
|   |   |   |   |   |   |   |   |   |   |   marital = married : no (1/0)
|   |   |   |   |   |   |   |   |   |   |   marital = single : yes (1/0)
|   |   |   |   |   |   |   |   |   |   |   marital = divorced : no (0/0)
|   |   |   |   |   |   |   |   job = housemaid : no (2/0)
|   |   |   |   |   |   |   |   job = student : no (4/0)
|   |   |   |   |   |   |   month = mar
|   |   |   |   |   |   |   |   education = tertiary
|   |   |   |   |   |   |   |   |   age < 30.5 : no (3/0)
|   |   |   |   |   |   |   |   |   age >= 30.5
|   |   |   |   |   |   |   |   |   |   balance < 137 : yes (4/0)
|   |   |   |   |   |   |   |   |   |   balance >= 137
|   |   |   |   |   |   |   |   |   |   |   balance < 256.5 : no (3/0)
|   |   |   |   |   |   |   |   |   |   |   balance >= 256.5
|   |   |   |   |   |   |   |   |   |   |   |   day < 14
|   |   |   |   |   |   |   |   |   |   |   |   |   age < 63.5
|   |   |   |   |   |   |   |   |   |   |   |   |   |   housing = yes
|   |   |   |   |   |   |   |   |   |   |   |   |   |   |   balance < 3759 : yes (2/0)
|   |   |   |   |   |   |   |   |   |   |   |   |   |   |   balance >= 3759 : no (1/0)
|   |   |   |   |   |   |   |   |   |   |   |   |   |   housing = no
|   |   |   |   |   |   |   |   |   |   |   |   |   |   |   age < 45
|   |   |   |   |   |   |   |   |   |   |   |   |   |   |   |   balance < 1781 : yes (2/0)
|   |   |   |   |   |   |   |   |   |   |   |   |   |   |   |   balance >= 1781
|   |   |   |   |   |   |   |   |   |   |   |   |   |   |   |   |   balance < 5958 : no (1/0)
|   |   |   |   |   |   |   |   |   |   |   |   |   |   |   |   |   balance >= 5958 : yes (1/0)
|   |   |   |   |   |   |   |   |   |   |   |   |   |   |   age >= 45 : yes (4/0)
|   |   |   |   |   |   |   |   |   |   |   |   |   age >= 63.5 : no (1/0)
|   |   |   |   |   |   |   |   |   |   |   |   day >= 14 : no (4/0)
|   |   |   |   |   |   |   |   education = secondary
|   |   |   |   |   |   |   |   |   job = management : no (0/0)
|   |   |   |   |   |   |   |   |   job = technician
|   |   |   |   |   |   |   |   |   |   loan = no
|   |   |   |   |   |   |   |   |   |   |   balance < 5092.5 : no (1/0)
|   |   |   |   |   |   |   |   |   |   |   balance >= 5092.5 : yes (1/0)
|   |   |   |   |   |   |   |   |   |   loan = yes : yes (1/0)
|   |   |   |   |   |   |   |   |   job = entrepreneur : no (0/0)
|   |   |   |   |   |   |   |   |   job = blue-collar : no (1/0)
|   |   |   |   |   |   |   |   |   job = unknown : no (0/0)
|   |   |   |   |   |   |   |   |   job = retired : no (0/0)
|   |   |   |   |   |   |   |   |   job = admin.
|   |   |   |   |   |   |   |   |   |   day < 17
|   |   |   |   |   |   |   |   |   |   |   day < 4
|   |   |   |   |   |   |   |   |   |   |   |   age < 34 : yes (1/0)
|   |   |   |   |   |   |   |   |   |   |   |   age >= 34 : no (1/0)
|   |   |   |   |   |   |   |   |   |   |   day >= 4 : yes (2/0)
|   |   |   |   |   |   |   |   |   |   day >= 17 : no (3/0)
|   |   |   |   |   |   |   |   |   job = services
|   |   |   |   |   |   |   |   |   |   marital = married : no (1/0)
|   |   |   |   |   |   |   |   |   |   marital = single : no (0/0)
|   |   |   |   |   |   |   |   |   |   marital = divorced : yes (1/0)
|   |   |   |   |   |   |   |   |   job = self-employed : no (0/0)
|   |   |   |   |   |   |   |   |   job = unemployed : no (0/0)
|   |   |   |   |   |   |   |   |   job = housemaid : no (0/0)
|   |   |   |   |   |   |   |   |   job = student : no (1/0)
|   |   |   |   |   |   |   |   education = unknown : no (2/0)
|   |   |   |   |   |   |   |   education = primary : no (5/0)
|   |   |   |   |   |   |   month = apr
|   |   |   |   |   |   |   |   housing = yes
|   |   |   |   |   |   |   |   |   balance < 710 : no (76/0)
|   |   |   |   |   |   |   |   |   balance >= 710
|   |   |   |   |   |   |   |   |   |   campaign < 7.5
|   |   |   |   |   |   |   |   |   |   |   job = management
|   |   |   |   |   |   |   |   |   |   |   |   age < 32.5
|   |   |   |   |   |   |   |   |   |   |   |   |   duration < 100 : no (1/0)
|   |   |   |   |   |   |   |   |   |   |   |   |   duration >= 100 : yes (1/0)
|   |   |   |   |   |   |   |   |   |   |   |   age >= 32.5 : no (6/0)
|   |   |   |   |   |   |   |   |   |   |   job = technician
|   |   |   |   |   |   |   |   |   |   |   |   balance < 1527 : no (3/0)
|   |   |   |   |   |   |   |   |   |   |   |   balance >= 1527 : yes (1/0)
|   |   |   |   |   |   |   |   |   |   |   job = entrepreneur : no (2/0)
|   |   |   |   |   |   |   |   |   |   |   job = blue-collar : no (19/0)
|   |   |   |   |   |   |   |   |   |   |   job = unknown : no (0/0)
|   |   |   |   |   |   |   |   |   |   |   job = retired : no (1/0)
|   |   |   |   |   |   |   |   |   |   |   job = admin.
|   |   |   |   |   |   |   |   |   |   |   |   balance < 2750.5 : no (5/0)
|   |   |   |   |   |   |   |   |   |   |   |   balance >= 2750.5 : yes (1/0)
|   |   |   |   |   |   |   |   |   |   |   job = services : no (8/0)
|   |   |   |   |   |   |   |   |   |   |   job = self-employed : no (0/0)
|   |   |   |   |   |   |   |   |   |   |   job = unemployed : no (0/0)
|   |   |   |   |   |   |   |   |   |   |   job = housemaid : no (1/0)
|   |   |   |   |   |   |   |   |   |   |   job = student : no (0/0)
|   |   |   |   |   |   |   |   |   |   campaign >= 7.5
|   |   |   |   |   |   |   |   |   |   |   job = management : no (0/0)
|   |   |   |   |   |   |   |   |   |   |   job = technician : no (1/0)
|   |   |   |   |   |   |   |   |   |   |   job = entrepreneur : no (0/0)
|   |   |   |   |   |   |   |   |   |   |   job = blue-collar : no (0/0)
|   |   |   |   |   |   |   |   |   |   |   job = unknown : no (0/0)
|   |   |   |   |   |   |   |   |   |   |   job = retired : no (0/0)
|   |   |   |   |   |   |   |   |   |   |   job = admin. : yes (1/0)
|   |   |   |   |   |   |   |   |   |   |   job = services : no (0/0)
|   |   |   |   |   |   |   |   |   |   |   job = self-employed : no (0/0)
|   |   |   |   |   |   |   |   |   |   |   job = unemployed : no (0/0)
|   |   |   |   |   |   |   |   |   |   |   job = housemaid : no (0/0)
|   |   |   |   |   |   |   |   |   |   |   job = student : no (0/0)
|   |   |   |   |   |   |   |   housing = no
|   |   |   |   |   |   |   |   |   day < 23.5
|   |   |   |   |   |   |   |   |   |   balance < 5 : no (7/0)
|   |   |   |   |   |   |   |   |   |   balance >= 5
|   |   |   |   |   |   |   |   |   |   |   day < 7.5 : no (6/0)
|   |   |   |   |   |   |   |   |   |   |   day >= 7.5
|   |   |   |   |   |   |   |   |   |   |   |   day < 13
|   |   |   |   |   |   |   |   |   |   |   |   |   job = management : no (0/0)
|   |   |   |   |   |   |   |   |   |   |   |   |   job = technician
|   |   |   |   |   |   |   |   |   |   |   |   |   |   education = tertiary : no (1/0)
|   |   |   |   |   |   |   |   |   |   |   |   |   |   education = secondary : yes (1/0)
|   |   |   |   |   |   |   |   |   |   |   |   |   |   education = unknown : no (0/0)
|   |   |   |   |   |   |   |   |   |   |   |   |   |   education = primary : no (0/0)
|   |   |   |   |   |   |   |   |   |   |   |   |   job = entrepreneur : no (1/0)
|   |   |   |   |   |   |   |   |   |   |   |   |   job = blue-collar : no (1/0)
|   |   |   |   |   |   |   |   |   |   |   |   |   job = unknown : no (0/0)
|   |   |   |   |   |   |   |   |   |   |   |   |   job = retired : no (0/0)
|   |   |   |   |   |   |   |   |   |   |   |   |   job = admin. : no (1/0)
|   |   |   |   |   |   |   |   |   |   |   |   |   job = services : no (1/0)
|   |   |   |   |   |   |   |   |   |   |   |   |   job = self-employed : no (0/0)
|   |   |   |   |   |   |   |   |   |   |   |   |   job = unemployed : no (0/0)
|   |   |   |   |   |   |   |   |   |   |   |   |   job = housemaid : no (0/0)
|   |   |   |   |   |   |   |   |   |   |   |   |   job = student : no (0/0)
|   |   |   |   |   |   |   |   |   |   |   |   day >= 13
|   |   |   |   |   |   |   |   |   |   |   |   |   education = tertiary
|   |   |   |   |   |   |   |   |   |   |   |   |   |   age < 29.5 : no (3/0)
|   |   |   |   |   |   |   |   |   |   |   |   |   |   age >= 29.5
|   |   |   |   |   |   |   |   |   |   |   |   |   |   |   duration < 81.5 : yes (1/0)
|   |   |   |   |   |   |   |   |   |   |   |   |   |   |   duration >= 81.5
|   |   |   |   |   |   |   |   |   |   |   |   |   |   |   |   balance < 7494.5
|   |   |   |   |   |   |   |   |   |   |   |   |   |   |   |   |   job = management
|   |   |   |   |   |   |   |   |   |   |   |   |   |   |   |   |   |   campaign < 3.5 : yes (4/0)
|   |   |   |   |   |   |   |   |   |   |   |   |   |   |   |   |   |   campaign >= 3.5 : no (1/0)
|   |   |   |   |   |   |   |   |   |   |   |   |   |   |   |   |   job = technician : no (0/0)
|   |   |   |   |   |   |   |   |   |   |   |   |   |   |   |   |   job = entrepreneur : no (0/0)
|   |   |   |   |   |   |   |   |   |   |   |   |   |   |   |   |   job = blue-collar : no (0/0)
|   |   |   |   |   |   |   |   |   |   |   |   |   |   |   |   |   job = unknown : no (0/0)
|   |   |   |   |   |   |   |   |   |   |   |   |   |   |   |   |   job = retired : no (0/0)
|   |   |   |   |   |   |   |   |   |   |   |   |   |   |   |   |   job = admin. : no (1/0)
|   |   |   |   |   |   |   |   |   |   |   |   |   |   |   |   |   job = services : no (0/0)
|   |   |   |   |   |   |   |   |   |   |   |   |   |   |   |   |   job = self-employed : no (1/0)
|   |   |   |   |   |   |   |   |   |   |   |   |   |   |   |   |   job = unemployed : yes (1/0)
|   |   |   |   |   |   |   |   |   |   |   |   |   |   |   |   |   job = housemaid : no (0/0)
|   |   |   |   |   |   |   |   |   |   |   |   |   |   |   |   |   job = student : no (0/0)
|   |   |   |   |   |   |   |   |   |   |   |   |   |   |   |   balance >= 7494.5 : no (2/0)
|   |   |   |   |   |   |   |   |   |   |   |   |   education = secondary
|   |   |   |   |   |   |   |   |   |   |   |   |   |   duration < 99 : no (4/0)
|   |   |   |   |   |   |   |   |   |   |   |   |   |   duration >= 99
|   |   |   |   |   |   |   |   |   |   |   |   |   |   |   age < 33.5 : yes (3/0)
|   |   |   |   |   |   |   |   |   |   |   |   |   |   |   age >= 33.5
|   |   |   |   |   |   |   |   |   |   |   |   |   |   |   |   day < 15 : no (2/0)
|   |   |   |   |   |   |   |   |   |   |   |   |   |   |   |   day >= 15 : yes (3/0)
|   |   |   |   |   |   |   |   |   |   |   |   |   education = unknown : no (2/0)
|   |   |   |   |   |   |   |   |   |   |   |   |   education = primary : no (7/0)
|   |   |   |   |   |   |   |   |   day >= 23.5 : no (23/0)
|   |   |   |   |   |   |   month = sep
|   |   |   |   |   |   |   |   duration < 102.5
|   |   |   |   |   |   |   |   |   job = management
|   |   |   |   |   |   |   |   |   |   duration < 90.5 : yes (1/0)
|   |   |   |   |   |   |   |   |   |   duration >= 90.5
|   |   |   |   |   |   |   |   |   |   |   housing = yes : yes (1/0)
|   |   |   |   |   |   |   |   |   |   |   housing = no : no (3/0)
|   |   |   |   |   |   |   |   |   job = technician : no (2/0)
|   |   |   |   |   |   |   |   |   job = entrepreneur : no (0/0)
|   |   |   |   |   |   |   |   |   job = blue-collar : no (0/0)
|   |   |   |   |   |   |   |   |   job = unknown : no (0/0)
|   |   |   |   |   |   |   |   |   job = retired : no (2/0)
|   |   |   |   |   |   |   |   |   job = admin. : no (0/0)
|   |   |   |   |   |   |   |   |   job = services : no (0/0)
|   |   |   |   |   |   |   |   |   job = self-employed : no (1/0)
|   |   |   |   |   |   |   |   |   job = unemployed : no (1/0)
|   |   |   |   |   |   |   |   |   job = housemaid : no (0/0)
|   |   |   |   |   |   |   |   |   job = student : no (0/0)
|   |   |   |   |   |   |   |   duration >= 102.5 : no (14/0)
|   |   |   |   |   |   contact = telephone
|   |   |   |   |   |   |   month = may : no (37/0)
|   |   |   |   |   |   |   month = jun : no (8/0)
|   |   |   |   |   |   |   month = jul : no (149/0)
|   |   |   |   |   |   |   month = aug
|   |   |   |   |   |   |   |   marital = married
|   |   |   |   |   |   |   |   |   job = management : no (3/0)
|   |   |   |   |   |   |   |   |   job = technician : no (6/0)
|   |   |   |   |   |   |   |   |   job = entrepreneur : no (0/0)
|   |   |   |   |   |   |   |   |   job = blue-collar : no (3/0)
|   |   |   |   |   |   |   |   |   job = unknown : no (0/0)
|   |   |   |   |   |   |   |   |   job = retired : no (4/0)
|   |   |   |   |   |   |   |   |   job = admin. : no (2/0)
|   |   |   |   |   |   |   |   |   job = services : no (1/0)
|   |   |   |   |   |   |   |   |   job = self-employed : no (0/0)
|   |   |   |   |   |   |   |   |   job = unemployed : no (0/0)
|   |   |   |   |   |   |   |   |   job = housemaid
|   |   |   |   |   |   |   |   |   |   balance < 187.5 : yes (1/0)
|   |   |   |   |   |   |   |   |   |   balance >= 187.5 : no (1/0)
|   |   |   |   |   |   |   |   |   job = student : no (0/0)
|   |   |   |   |   |   |   |   marital = single : no (9/0)
|   |   |   |   |   |   |   |   marital = divorced : no (2/0)
|   |   |   |   |   |   |   month = oct
|   |   |   |   |   |   |   |   education = tertiary : no (0/0)
|   |   |   |   |   |   |   |   education = secondary : yes (2/0)
|   |   |   |   |   |   |   |   education = unknown : no (0/0)
|   |   |   |   |   |   |   |   education = primary
|   |   |   |   |   |   |   |   |   job = management : no (0/0)
|   |   |   |   |   |   |   |   |   job = technician : no (0/0)
|   |   |   |   |   |   |   |   |   job = entrepreneur : no (0/0)
|   |   |   |   |   |   |   |   |   job = blue-collar : no (0/0)
|   |   |   |   |   |   |   |   |   job = unknown : no (0/0)
|   |   |   |   |   |   |   |   |   job = retired : no (2/0)
|   |   |   |   |   |   |   |   |   job = admin. : yes (1/0)
|   |   |   |   |   |   |   |   |   job = services : no (0/0)
|   |   |   |   |   |   |   |   |   job = self-employed : no (1/0)
|   |   |   |   |   |   |   |   |   job = unemployed : no (0/0)
|   |   |   |   |   |   |   |   |   job = housemaid : no (0/0)
|   |   |   |   |   |   |   |   |   job = student : no (0/0)
|   |   |   |   |   |   |   month = nov : no (56/0)
|   |   |   |   |   |   |   month = dec : yes (1/0)
|   |   |   |   |   |   |   month = jan : no (17/0)
|   |   |   |   |   |   |   month = feb
|   |   |   |   |   |   |   |   education = tertiary
|   |   |   |   |   |   |   |   |   age < 49 : yes (1/0)
|   |   |   |   |   |   |   |   |   age >= 49 : no (2/0)
|   |   |   |   |   |   |   |   education = secondary : no (10/0)
|   |   |   |   |   |   |   |   education = unknown : no (1/0)
|   |   |   |   |   |   |   |   education = primary : no (4/0)
|   |   |   |   |   |   |   month = mar : no (4/0)
|   |   |   |   |   |   |   month = apr : no (22/0)
|   |   |   |   |   |   |   month = sep : no (2/0)
|   |   |   age >= 68.5
|   |   |   |   education = tertiary
|   |   |   |   |   month = may : no (0/0)
|   |   |   |   |   month = jun
|   |   |   |   |   |   campaign < 3 : yes (1/0)
|   |   |   |   |   |   campaign >= 3 : no (1/0)
|   |   |   |   |   month = jul : no (1/0)
|   |   |   |   |   month = aug : no (3/0)
|   |   |   |   |   month = oct : no (3/0)
|   |   |   |   |   month = nov : no (1/0)
|   |   |   |   |   month = dec : no (0/0)
|   |   |   |   |   month = jan : no (0/0)
|   |   |   |   |   month = feb : yes (3/0)
|   |   |   |   |   month = mar : no (0/0)
|   |   |   |   |   month = apr : no (1/0)
|   |   |   |   |   month = sep : yes (1/0)
|   |   |   |   education = secondary
|   |   |   |   |   month = may : no (0/0)
|   |   |   |   |   month = jun : no (0/0)
|   |   |   |   |   month = jul : no (1/0)
|   |   |   |   |   month = aug : no (5/0)
|   |   |   |   |   month = oct : no (5/0)
|   |   |   |   |   month = nov : no (0/0)
|   |   |   |   |   month = dec : no (3/0)
|   |   |   |   |   month = jan : no (0/0)
|   |   |   |   |   month = feb
|   |   |   |   |   |   balance < 1592 : no (1/0)
|   |   |   |   |   |   balance >= 1592 : yes (1/0)
|   |   |   |   |   month = mar
|   |   |   |   |   |   age < 74 : yes (1/0)
|   |   |   |   |   |   age >= 74 : no (1/0)
|   |   |   |   |   month = apr : no (4/0)
|   |   |   |   |   month = sep : no (2/0)
|   |   |   |   education = unknown : no (7/0)
|   |   |   |   education = primary
|   |   |   |   |   day < 14.5 : no (15/0)
|   |   |   |   |   day >= 14.5
|   |   |   |   |   |   duration < 73.5 : no (4/0)
|   |   |   |   |   |   duration >= 73.5
|   |   |   |   |   |   |   balance < 5259
|   |   |   |   |   |   |   |   age < 72
|   |   |   |   |   |   |   |   |   day < 20.5 : yes (3/0)
|   |   |   |   |   |   |   |   |   day >= 20.5 : no (1/0)
|   |   |   |   |   |   |   |   age >= 72
|   |   |   |   |   |   |   |   |   balance < 385.5
|   |   |   |   |   |   |   |   |   |   age < 75.5 : no (1/0)
|   |   |   |   |   |   |   |   |   |   age >= 75.5
|   |   |   |   |   |   |   |   |   |   |   balance < 23 : no (1/0)
|   |   |   |   |   |   |   |   |   |   |   balance >= 23 : yes (2/0)
|   |   |   |   |   |   |   |   |   balance >= 385.5
|   |   |   |   |   |   |   |   |   |   campaign < 2.5
|   |   |   |   |   |   |   |   |   |   |   contact = unknown : no (0/0)
|   |   |   |   |   |   |   |   |   |   |   contact = cellular : yes (1/0)
|   |   |   |   |   |   |   |   |   |   |   contact = telephone : no (1/0)
|   |   |   |   |   |   |   |   |   |   campaign >= 2.5 : no (4/0)
|   |   |   |   |   |   |   balance >= 5259 : no (3/0)
|   |   duration >= 130.5
|   |   |   balance < 301.5
|   |   |   |   housing = yes
|   |   |   |   |   job = management
|   |   |   |   |   |   month = may
|   |   |   |   |   |   |   duration < 307 : no (232/0)
|   |   |   |   |   |   |   duration >= 307
|   |   |   |   |   |   |   |   campaign < 2.5 : no (52/0)
|   |   |   |   |   |   |   |   campaign >= 2.5
|   |   |   |   |   |   |   |   |   contact = unknown : no (17/0)
|   |   |   |   |   |   |   |   |   contact = cellular
|   |   |   |   |   |   |   |   |   |   age < 34.5 : no (2/0)
|   |   |   |   |   |   |   |   |   |   age >= 34.5 : yes (1/0)
|   |   |   |   |   |   |   |   |   contact = telephone : no (1/0)
|   |   |   |   |   |   month = jun
|   |   |   |   |   |   |   marital = married
|   |   |   |   |   |   |   |   duration < 256 : no (17/0)
|   |   |   |   |   |   |   |   duration >= 256
|   |   |   |   |   |   |   |   |   duration < 267 : yes (1/0)
|   |   |   |   |   |   |   |   |   duration >= 267 : no (4/0)
|   |   |   |   |   |   |   marital = single : no (15/0)
|   |   |   |   |   |   |   marital = divorced : no (7/0)
|   |   |   |   |   |   month = jul : no (129/0)
|   |   |   |   |   |   month = aug
|   |   |   |   |   |   |   age < 30.5
|   |   |   |   |   |   |   |   marital = married : yes (1/0)
|   |   |   |   |   |   |   |   marital = single : no (0/0)
|   |   |   |   |   |   |   |   marital = divorced : no (1/0)
|   |   |   |   |   |   |   age >= 30.5 : no (52/0)
|   |   |   |   |   |   month = oct : yes (4/0)
|   |   |   |   |   |   month = nov : no (57/0)
|   |   |   |   |   |   month = dec
|   |   |   |   |   |   |   balance < 51 : no (1/0)
|   |   |   |   |   |   |   balance >= 51 : yes (1/0)
|   |   |   |   |   |   month = jan : no (7/0)
|   |   |   |   |   |   month = feb
|   |   |   |   |   |   |   duration < 202 : no (13/0)
|   |   |   |   |   |   |   duration >= 202
|   |   |   |   |   |   |   |   balance < 23
|   |   |   |   |   |   |   |   |   age < 39.5
|   |   |   |   |   |   |   |   |   |   day < 8.5
|   |   |   |   |   |   |   |   |   |   |   age < 31 : no (1/0)
|   |   |   |   |   |   |   |   |   |   |   age >= 31
|   |   |   |   |   |   |   |   |   |   |   |   marital = married : yes (1/0)
|   |   |   |   |   |   |   |   |   |   |   |   marital = single : no (1/0)
|   |   |   |   |   |   |   |   |   |   |   |   marital = divorced : no (0/0)
|   |   |   |   |   |   |   |   |   |   day >= 8.5 : yes (3/0)
|   |   |   |   |   |   |   |   |   age >= 39.5 : no (3/0)
|   |   |   |   |   |   |   |   balance >= 23 : no (5/0)
|   |   |   |   |   |   month = mar : yes (3/0)
|   |   |   |   |   |   month = apr
|   |   |   |   |   |   |   day < 16.5 : no (13/0)
|   |   |   |   |   |   |   day >= 16.5
|   |   |   |   |   |   |   |   duration < 208.5 : no (4/0)
|   |   |   |   |   |   |   |   duration >= 208.5
|   |   |   |   |   |   |   |   |   balance < 72
|   |   |   |   |   |   |   |   |   |   duration < 313.5
|   |   |   |   |   |   |   |   |   |   |   duration < 224.5 : yes (2/0)
|   |   |   |   |   |   |   |   |   |   |   duration >= 224.5 : no (2/0)
|   |   |   |   |   |   |   |   |   |   duration >= 313.5 : yes (3/0)
|   |   |   |   |   |   |   |   |   balance >= 72 : no (8/0)
|   |   |   |   |   |   month = sep
|   |   |   |   |   |   |   loan = no : yes (1/0)
|   |   |   |   |   |   |   loan = yes : no (1/0)
|   |   |   |   |   job = technician
|   |   |   |   |   |   contact = unknown : no (319/0)
|   |   |   |   |   |   contact = cellular
|   |   |   |   |   |   |   month = may
|   |   |   |   |   |   |   |   age < 34.5 : no (50/0)
|   |   |   |   |   |   |   |   age >= 34.5
|   |   |   |   |   |   |   |   |   age < 35.5
|   |   |   |   |   |   |   |   |   |   day < 19.5 : no (2/0)
|   |   |   |   |   |   |   |   |   |   day >= 19.5 : yes (1/0)
|   |   |   |   |   |   |   |   |   age >= 35.5 : no (30/0)
|   |   |   |   |   |   |   month = jun
|   |   |   |   |   |   |   |   marital = married
|   |   |   |   |   |   |   |   |   education = tertiary : no (1/0)
|   |   |   |   |   |   |   |   |   education = secondary : yes (1/0)
|   |   |   |   |   |   |   |   |   education = unknown : no (0/0)
|   |   |   |   |   |   |   |   |   education = primary : no (0/0)
|   |   |   |   |   |   |   |   marital = single
|   |   |   |   |   |   |   |   |   loan = no : yes (2/0)
|   |   |   |   |   |   |   |   |   loan = yes : no (1/0)
|   |   |   |   |   |   |   |   marital = divorced : no (1/0)
|   |   |   |   |   |   |   month = jul
|   |   |   |   |   |   |   |   loan = no
|   |   |   |   |   |   |   |   |   duration < 217 : no (53/0)
|   |   |   |   |   |   |   |   |   duration >= 217
|   |   |   |   |   |   |   |   |   |   day < 4.5 : yes (1/0)
|   |   |   |   |   |   |   |   |   |   day >= 4.5
|   |   |   |   |   |   |   |   |   |   |   balance < 239.5
|   |   |   |   |   |   |   |   |   |   |   |   day < 22.5 : no (25/0)
|   |   |   |   |   |   |   |   |   |   |   |   day >= 22.5
|   |   |   |   |   |   |   |   |   |   |   |   |   day < 23.5 : yes (2/0)
|   |   |   |   |   |   |   |   |   |   |   |   |   day >= 23.5 : no (8/0)
|   |   |   |   |   |   |   |   |   |   |   balance >= 239.5 : yes (1/0)
|   |   |   |   |   |   |   |   loan = yes : no (31/0)
|   |   |   |   |   |   |   month = aug : no (50/0)
|   |   |   |   |   |   |   month = oct : yes (2/0)
|   |   |   |   |   |   |   month = nov : no (25/0)
|   |   |   |   |   |   |   month = dec : yes (1/0)
|   |   |   |   |   |   |   month = jan : no (9/0)
|   |   |   |   |   |   |   month = feb : no (17/0)
|   |   |   |   |   |   |   month = mar
|   |   |   |   |   |   |   |   marital = married : no (2/0)
|   |   |   |   |   |   |   |   marital = single : yes (1/0)
|   |   |   |   |   |   |   |   marital = divorced : no (0/0)
|   |   |   |   |   |   |   month = apr
|   |   |   |   |   |   |   |   campaign < 1.5
|   |   |   |   |   |   |   |   |   day < 21 : no (14/0)
|   |   |   |   |   |   |   |   |   day >= 21
|   |   |   |   |   |   |   |   |   |   balance < 2 : yes (1/0)
|   |   |   |   |   |   |   |   |   |   balance >= 2 : no (2/0)
|   |   |   |   |   |   |   |   campaign >= 1.5 : no (16/0)
|   |   |   |   |   |   |   month = sep : no (0/0)
|   |   |   |   |   |   contact = telephone : no (13/0)
|   |   |   |   |   job = entrepreneur
|   |   |   |   |   |   education = tertiary : no (65/0)
|   |   |   |   |   |   education = secondary
|   |   |   |   |   |   |   balance < -11.5
|   |   |   |   |   |   |   |   day < 12.5 : no (6/0)
|   |   |   |   |   |   |   |   day >= 12.5
|   |   |   |   |   |   |   |   |   day < 22 : yes (1/0)
|   |   |   |   |   |   |   |   |   day >= 22 : no (3/0)
|   |   |   |   |   |   |   balance >= -11.5 : no (52/0)
|   |   |   |   |   |   education = unknown : no (13/0)
|   |   |   |   |   |   education = primary
|   |   |   |   |   |   |   month = may
|   |   |   |   |   |   |   |   duration < 389.5 : no (14/0)
|   |   |   |   |   |   |   |   duration >= 389.5 : yes (1/0)
|   |   |   |   |   |   |   month = jun : no (1/0)
|   |   |   |   |   |   |   month = jul : no (5/0)
|   |   |   |   |   |   |   month = aug : no (0/0)
|   |   |   |   |   |   |   month = oct : no (0/0)
|   |   |   |   |   |   |   month = nov : no (3/0)
|   |   |   |   |   |   |   month = dec : no (0/0)
|   |   |   |   |   |   |   month = jan : no (1/0)
|   |   |   |   |   |   |   month = feb : no (2/0)
|   |   |   |   |   |   |   month = mar : no (0/0)
|   |   |   |   |   |   |   month = apr : no (0/0)
|   |   |   |   |   |   |   month = sep : yes (1/0)
|   |   |   |   |   job = blue-collar
|   |   |   |   |   |   age < 44.5
|   |   |   |   |   |   |   month = may
|   |   |   |   |   |   |   |   age < 34.5
|   |   |   |   |   |   |   |   |   contact = unknown
|   |   |   |   |   |   |   |   |   |   balance < 2.5
|   |   |   |   |   |   |   |   |   |   |   marital = married
|   |   |   |   |   |   |   |   |   |   |   |   duration < 185
|   |   |   |   |   |   |   |   |   |   |   |   |   day < 20.5
|   |   |   |   |   |   |   |   |   |   |   |   |   |   duration < 177 : no (8/0)
|   |   |   |   |   |   |   |   |   |   |   |   |   |   duration >= 177 : yes (1/0)
|   |   |   |   |   |   |   |   |   |   |   |   |   day >= 20.5 : no (11/0)
|   |   |   |   |   |   |   |   |   |   |   |   duration >= 185 : no (49/0)
|   |   |   |   |   |   |   |   |   |   |   marital = single : no (43/0)
|   |   |   |   |   |   |   |   |   |   |   marital = divorced : no (6/0)
|   |   |   |   |   |   |   |   |   |   balance >= 2.5 : no (148/0)
|   |   |   |   |   |   |   |   |   contact = cellular
|   |   |   |   |   |   |   |   |   |   duration < 257.5 : no (64/0)
|   |   |   |   |   |   |   |   |   |   duration >= 257.5
|   |   |   |   |   |   |   |   |   |   |   campaign < 4.5
|   |   |   |   |   |   |   |   |   |   |   |   day < 5.5
|   |   |   |   |   |   |   |   |   |   |   |   |   balance < 183 : no (3/0)
|   |   |   |   |   |   |   |   |   |   |   |   |   balance >= 183 : yes (1/0)
|   |   |   |   |   |   |   |   |   |   |   |   day >= 5.5 : no (32/0)
|   |   |   |   |   |   |   |   |   |   |   campaign >= 4.5 : yes (1/0)
|   |   |   |   |   |   |   |   |   contact = telephone : no (1/0)
|   |   |   |   |   |   |   |   age >= 34.5 : no (335/0)
|   |   |   |   |   |   |   month = jun
|   |   |   |   |   |   |   |   duration < 381 : no (103/0)
|   |   |   |   |   |   |   |   duration >= 381
|   |   |   |   |   |   |   |   |   balance < -102.5 : no (2/0)
|   |   |   |   |   |   |   |   |   balance >= -102.5 : yes (2/0)
|   |   |   |   |   |   |   month = jul
|   |   |   |   |   |   |   |   duration < 254.5 : no (92/0)
|   |   |   |   |   |   |   |   duration >= 254.5
|   |   |   |   |   |   |   |   |   education = tertiary : no (1/0)
|   |   |   |   |   |   |   |   |   education = secondary
|   |   |   |   |   |   |   |   |   |   loan = no
|   |   |   |   |   |   |   |   |   |   |   age < 43.5
|   |   |   |   |   |   |   |   |   |   |   |   balance < 76.5 : no (18/0)
|   |   |   |   |   |   |   |   |   |   |   |   balance >= 76.5
|   |   |   |   |   |   |   |   |   |   |   |   |   day < 9.5 : no (3/0)
|   |   |   |   |   |   |   |   |   |   |   |   |   day >= 9.5
|   |   |   |   |   |   |   |   |   |   |   |   |   |   campaign < 2.5 : yes (2/0)
|   |   |   |   |   |   |   |   |   |   |   |   |   |   campaign >= 2.5 : no (1/0)
|   |   |   |   |   |   |   |   |   |   |   age >= 43.5 : yes (1/0)
|   |   |   |   |   |   |   |   |   |   loan = yes : no (7/0)
|   |   |   |   |   |   |   |   |   education = unknown : no (1/0)
|   |   |   |   |   |   |   |   |   education = primary : no (12/0)
|   |   |   |   |   |   |   month = aug : no (0/0)
|   |   |   |   |   |   |   month = oct : no (0/0)
|   |   |   |   |   |   |   month = nov : no (33/0)
|   |   |   |   |   |   |   month = dec : no (0/0)
|   |   |   |   |   |   |   month = jan : no (7/0)
|   |   |   |   |   |   |   month = feb
|   |   |   |   |   |   |   |   day < 3.5
|   |   |   |   |   |   |   |   |   duration < 169.5 : yes (1/0)
|   |   |   |   |   |   |   |   |   duration >= 169.5 : no (4/0)
|   |   |   |   |   |   |   |   day >= 3.5 : no (11/0)
|   |   |   |   |   |   |   month = mar : no (0/0)
|   |   |   |   |   |   |   month = apr
|   |   |   |   |   |   |   |   balance < 5.5
|   |   |   |   |   |   |   |   |   marital = married : no (7/0)
|   |   |   |   |   |   |   |   |   marital = single
|   |   |   |   |   |   |   |   |   |   balance < 1.5 : no (2/0)
|   |   |   |   |   |   |   |   |   |   balance >= 1.5 : yes (1/0)
|   |   |   |   |   |   |   |   |   marital = divorced : yes (1/0)
|   |   |   |   |   |   |   |   balance >= 5.5 : no (33/0)
|   |   |   |   |   |   |   month = sep : no (0/0)
|   |   |   |   |   |   age >= 44.5 : no (299/0)
|   |   |   |   |   job = unknown : no (4/0)
|   |   |   |   |   job = retired
|   |   |   |   |   |   contact = unknown : no (48/0)
|   |   |   |   |   |   contact = cellular
|   |   |   |   |   |   |   duration < 368 : no (24/0)
|   |   |   |   |   |   |   duration >= 368 : yes (1/0)
|   |   |   |   |   |   contact = telephone : no (5/0)
|   |   |   |   |   job = admin.
|   |   |   |   |   |   contact = unknown : no (279/0)
|   |   |   |   |   |   contact = cellular
|   |   |   |   |   |   |   month = may
|   |   |   |   |   |   |   |   duration < 361.5
|   |   |   |   |   |   |   |   |   day < 4.5 : yes (1/0)
|   |   |   |   |   |   |   |   |   day >= 4.5 : no (76/0)
|   |   |   |   |   |   |   |   duration >= 361.5
|   |   |   |   |   |   |   |   |   day < 10 : no (3/0)
|   |   |   |   |   |   |   |   |   day >= 10
|   |   |   |   |   |   |   |   |   |   duration < 383
|   |   |   |   |   |   |   |   |   |   |   marital = married : no (1/0)
|   |   |   |   |   |   |   |   |   |   |   marital = single : no (1/0)
|   |   |   |   |   |   |   |   |   |   |   marital = divorced : yes (1/0)
|   |   |   |   |   |   |   |   |   |   duration >= 383
|   |   |   |   |   |   |   |   |   |   |   balance < 119.5 : yes (3/0)
|   |   |   |   |   |   |   |   |   |   |   balance >= 119.5 : no (1/0)
|   |   |   |   |   |   |   month = jun
|   |   |   |   |   |   |   |   age < 40
|   |   |   |   |   |   |   |   |   balance < 65.5 : no (2/0)
|   |   |   |   |   |   |   |   |   balance >= 65.5
|   |   |   |   |   |   |   |   |   |   age < 33 : yes (1/0)
|   |   |   |   |   |   |   |   |   |   age >= 33 : no (1/0)
|   |   |   |   |   |   |   |   age >= 40 : yes (1/0)
|   |   |   |   |   |   |   month = jul
|   |   |   |   |   |   |   |   duration < 296.5 : no (72/0)
|   |   |   |   |   |   |   |   duration >= 296.5
|   |   |   |   |   |   |   |   |   loan = no : no (15/0)
|   |   |   |   |   |   |   |   |   loan = yes
|   |   |   |   |   |   |   |   |   |   duration < 300 : yes (1/0)
|   |   |   |   |   |   |   |   |   |   duration >= 300 : no (5/0)
|   |   |   |   |   |   |   month = aug
|   |   |   |   |   |   |   |   age < 30 : yes (1/0)
|   |   |   |   |   |   |   |   age >= 30
|   |   |   |   |   |   |   |   |   age < 56.5 : no (10/0)
|   |   |   |   |   |   |   |   |   age >= 56.5 : yes (1/0)
|   |   |   |   |   |   |   month = oct : no (0/0)
|   |   |   |   |   |   |   month = nov
|   |   |   |   |   |   |   |   balance < 60 : no (9/0)
|   |   |   |   |   |   |   |   balance >= 60
|   |   |   |   |   |   |   |   |   duration < 175 : yes (1/0)
|   |   |   |   |   |   |   |   |   duration >= 175 : no (4/0)
|   |   |   |   |   |   |   month = dec : no (0/0)
|   |   |   |   |   |   |   month = jan : no (3/0)
|   |   |   |   |   |   |   month = feb : no (14/0)
|   |   |   |   |   |   |   month = mar
|   |   |   |   |   |   |   |   education = tertiary : yes (1/0)
|   |   |   |   |   |   |   |   education = secondary
|   |   |   |   |   |   |   |   |   age < 34 : no (1/0)
|   |   |   |   |   |   |   |   |   age >= 34
|   |   |   |   |   |   |   |   |   |   day < 11.5 : no (2/0)
|   |   |   |   |   |   |   |   |   |   day >= 11.5 : yes (2/0)
|   |   |   |   |   |   |   |   education = unknown : no (0/0)
|   |   |   |   |   |   |   |   education = primary : no (0/0)
|   |   |   |   |   |   |   month = apr
|   |   |   |   |   |   |   |   age < 34.5
|   |   |   |   |   |   |   |   |   day < 25 : no (7/0)
|   |   |   |   |   |   |   |   |   day >= 25 : yes (3/0)
|   |   |   |   |   |   |   |   age >= 34.5 : no (18/0)
|   |   |   |   |   |   |   month = sep : yes (1/0)
|   |   |   |   |   |   contact = telephone : no (16/0)
|   |   |   |   |   job = services
|   |   |   |   |   |   month = may
|   |   |   |   |   |   |   contact = unknown : no (252/0)
|   |   |   |   |   |   |   contact = cellular
|   |   |   |   |   |   |   |   duration < 380
|   |   |   |   |   |   |   |   |   campaign < 1.5 : no (49/0)
|   |   |   |   |   |   |   |   |   campaign >= 1.5
|   |   |   |   |   |   |   |   |   |   duration < 159.5
|   |   |   |   |   |   |   |   |   |   |   marital = married : no (3/0)
|   |   |   |   |   |   |   |   |   |   |   marital = single
|   |   |   |   |   |   |   |   |   |   |   |   age < 35.5 : yes (2/0)
|   |   |   |   |   |   |   |   |   |   |   |   age >= 35.5 : no (2/0)
|   |   |   |   |   |   |   |   |   |   |   marital = divorced : no (3/0)
|   |   |   |   |   |   |   |   |   |   duration >= 159.5 : no (41/0)
|   |   |   |   |   |   |   |   duration >= 380
|   |   |   |   |   |   |   |   |   marital = married : no (1/0)
|   |   |   |   |   |   |   |   |   marital = single
|   |   |   |   |   |   |   |   |   |   balance < 1 : yes (2/0)
|   |   |   |   |   |   |   |   |   |   balance >= 1 : no (2/0)
|   |   |   |   |   |   |   |   |   marital = divorced : no (0/0)
|   |   |   |   |   |   |   contact = telephone : no (6/0)
|   |   |   |   |   |   month = jun
|   |   |   |   |   |   |   day < 4.5 : no (32/0)
|   |   |   |   |   |   |   day >= 4.5
|   |   |   |   |   |   |   |   education = tertiary : no (1/0)
|   |   |   |   |   |   |   |   education = secondary : no (11/0)
|   |   |   |   |   |   |   |   education = unknown : no (2/0)
|   |   |   |   |   |   |   |   education = primary
|   |   |   |   |   |   |   |   |   campaign < 5 : no (2/0)
|   |   |   |   |   |   |   |   |   campaign >= 5 : yes (1/0)
|   |   |   |   |   |   month = jul : no (112/0)
|   |   |   |   |   |   month = aug : no (9/0)
|   |   |   |   |   |   month = oct : no (0/0)
|   |   |   |   |   |   month = nov : no (17/0)
|   |   |   |   |   |   month = dec : no (1/0)
|   |   |   |   |   |   month = jan : no (7/0)
|   |   |   |   |   |   month = feb : no (11/0)
|   |   |   |   |   |   month = mar
|   |   |   |   |   |   |   marital = married
|   |   |   |   |   |   |   |   balance < 156 : yes (1/0)
|   |   |   |   |   |   |   |   balance >= 156 : no (1/0)
|   |   |   |   |   |   |   marital = single : yes (1/0)
|   |   |   |   |   |   |   marital = divorced : no (0/0)
|   |   |   |   |   |   month = apr : no (30/0)
|   |   |   |   |   |   month = sep : no (0/0)
|   |   |   |   |   job = self-employed
|   |   |   |   |   |   age < 60.5
|   |   |   |   |   |   |   day < 4.5
|   |   |   |   |   |   |   |   month = may : yes (1/0)
|   |   |   |   |   |   |   |   month = jun : no (3/0)
|   |   |   |   |   |   |   |   month = jul : no (1/0)
|   |   |   |   |   |   |   |   month = aug : no (0/0)
|   |   |   |   |   |   |   |   month = oct : no (0/0)
|   |   |   |   |   |   |   |   month = nov : no (0/0)
|   |   |   |   |   |   |   |   month = dec : no (0/0)
|   |   |   |   |   |   |   |   month = jan : no (0/0)
|   |   |   |   |   |   |   |   month = feb : no (4/0)
|   |   |   |   |   |   |   |   month = mar : yes (1/0)
|   |   |   |   |   |   |   |   month = apr : no (0/0)
|   |   |   |   |   |   |   |   month = sep : no (0/0)
|   |   |   |   |   |   |   day >= 4.5 : no (139/0)
|   |   |   |   |   |   age >= 60.5 : yes (2/0)
|   |   |   |   |   job = unemployed
|   |   |   |   |   |   duration < 368
|   |   |   |   |   |   |   duration < 162.5
|   |   |   |   |   |   |   |   duration < 160.5 : no (23/0)
|   |   |   |   |   |   |   |   duration >= 160.5 : yes (1/0)
|   |   |   |   |   |   |   duration >= 162.5 : no (79/0)
|   |   |   |   |   |   duration >= 368
|   |   |   |   |   |   |   day < 7 : yes (2/0)
|   |   |   |   |   |   |   day >= 7 : no (3/0)
|   |   |   |   |   job = housemaid
|   |   |   |   |   |   day < 29.5 : no (77/0)
|   |   |   |   |   |   day >= 29.5
|   |   |   |   |   |   |   age < 40.5 : yes (1/0)
|   |   |   |   |   |   |   age >= 40.5 : no (3/0)
|   |   |   |   |   job = student
|   |   |   |   |   |   age < 29.5 : no (33/0)
|   |   |   |   |   |   age >= 29.5
|   |   |   |   |   |   |   education = tertiary
|   |   |   |   |   |   |   |   contact = unknown : no (2/0)
|   |   |   |   |   |   |   |   contact = cellular
|   |   |   |   |   |   |   |   |   balance < 116 : no (1/0)
|   |   |   |   |   |   |   |   |   balance >= 116 : yes (1/0)
|   |   |   |   |   |   |   |   contact = telephone : no (0/0)
|   |   |   |   |   |   |   education = secondary : no (4/0)
|   |   |   |   |   |   |   education = unknown : no (0/0)
|   |   |   |   |   |   |   education = primary : no (0/0)
|   |   |   |   housing = no
|   |   |   |   |   campaign < 1.5
|   |   |   |   |   |   loan = no
|   |   |   |   |   |   |   duration < 205.5
|   |   |   |   |   |   |   |   month = may
|   |   |   |   |   |   |   |   |   job = management : no (8/0)
|   |   |   |   |   |   |   |   |   job = technician : no (12/0)
|   |   |   |   |   |   |   |   |   job = entrepreneur : no (3/0)
|   |   |   |   |   |   |   |   |   job = blue-collar : no (15/0)
|   |   |   |   |   |   |   |   |   job = unknown : no (2/0)
|   |   |   |   |   |   |   |   |   job = retired : no (3/0)
|   |   |   |   |   |   |   |   |   job = admin.
|   |   |   |   |   |   |   |   |   |   contact = unknown : no (8/0)
|   |   |   |   |   |   |   |   |   |   contact = cellular : yes (1/0)
|   |   |   |   |   |   |   |   |   |   contact = telephone : no (0/0)
|   |   |   |   |   |   |   |   |   job = services : no (6/0)
|   |   |   |   |   |   |   |   |   job = self-employed : no (2/0)
|   |   |   |   |   |   |   |   |   job = unemployed : no (0/0)
|   |   |   |   |   |   |   |   |   job = housemaid : no (1/0)
|   |   |   |   |   |   |   |   |   job = student
|   |   |   |   |   |   |   |   |   |   balance < 1.5 : no (1/0)
|   |   |   |   |   |   |   |   |   |   balance >= 1.5
|   |   |   |   |   |   |   |   |   |   |   day < 24 : no (1/0)
|   |   |   |   |   |   |   |   |   |   |   day >= 24 : yes (1/0)
|   |   |   |   |   |   |   |   month = jun
|   |   |   |   |   |   |   |   |   job = management : no (12/0)
|   |   |   |   |   |   |   |   |   job = technician : no (9/0)
|   |   |   |   |   |   |   |   |   job = entrepreneur : no (2/0)
|   |   |   |   |   |   |   |   |   job = blue-collar
|   |   |   |   |   |   |   |   |   |   marital = married : no (19/0)
|   |   |   |   |   |   |   |   |   |   marital = single : no (2/0)
|   |   |   |   |   |   |   |   |   |   marital = divorced
|   |   |   |   |   |   |   |   |   |   |   day < 13.5 : no (3/0)
|   |   |   |   |   |   |   |   |   |   |   day >= 13.5
|   |   |   |   |   |   |   |   |   |   |   |   default = no : yes (1/0)
|   |   |   |   |   |   |   |   |   |   |   |   default = yes : no (1/0)
|   |   |   |   |   |   |   |   |   job = unknown : no (1/0)
|   |   |   |   |   |   |   |   |   job = retired : no (4/0)
|   |   |   |   |   |   |   |   |   job = admin.
|   |   |   |   |   |   |   |   |   |   contact = unknown : no (3/0)
|   |   |   |   |   |   |   |   |   |   contact = cellular
|   |   |   |   |   |   |   |   |   |   |   marital = married : no (0/0)
|   |   |   |   |   |   |   |   |   |   |   marital = single : no (1/0)
|   |   |   |   |   |   |   |   |   |   |   marital = divorced : yes (1/0)
|   |   |   |   |   |   |   |   |   |   contact = telephone : no (0/0)
|   |   |   |   |   |   |   |   |   job = services
|   |   |   |   |   |   |   |   |   |   day < 3
|   |   |   |   |   |   |   |   |   |   |   duration < 186.5 : no (1/0)
|   |   |   |   |   |   |   |   |   |   |   duration >= 186.5 : yes (1/0)
|   |   |   |   |   |   |   |   |   |   day >= 3 : no (4/0)
|   |   |   |   |   |   |   |   |   job = self-employed : no (5/0)
|   |   |   |   |   |   |   |   |   job = unemployed : no (0/0)
|   |   |   |   |   |   |   |   |   job = housemaid : no (13/0)
|   |   |   |   |   |   |   |   |   job = student : no (2/0)
|   |   |   |   |   |   |   |   month = jul
|   |   |   |   |   |   |   |   |   job = management : no (10/0)
|   |   |   |   |   |   |   |   |   job = technician : no (6/0)
|   |   |   |   |   |   |   |   |   job = entrepreneur : no (1/0)
|   |   |   |   |   |   |   |   |   job = blue-collar : no (7/0)
|   |   |   |   |   |   |   |   |   job = unknown : no (1/0)
|   |   |   |   |   |   |   |   |   job = retired : no (3/0)
|   |   |   |   |   |   |   |   |   job = admin. : no (5/0)
|   |   |   |   |   |   |   |   |   job = services : no (12/0)
|   |   |   |   |   |   |   |   |   job = self-employed : no (1/0)
|   |   |   |   |   |   |   |   |   job = unemployed : yes (1/0)
|   |   |   |   |   |   |   |   |   job = housemaid : no (2/0)
|   |   |   |   |   |   |   |   |   job = student
|   |   |   |   |   |   |   |   |   |   day < 15.5 : yes (1/0)
|   |   |   |   |   |   |   |   |   |   day >= 15.5 : no (1/0)
|   |   |   |   |   |   |   |   month = aug
|   |   |   |   |   |   |   |   |   job = management : no (17/0)
|   |   |   |   |   |   |   |   |   job = technician : no (10/0)
|   |   |   |   |   |   |   |   |   job = entrepreneur : no (0/0)
|   |   |   |   |   |   |   |   |   job = blue-collar : no (5/0)
|   |   |   |   |   |   |   |   |   job = unknown : no (0/0)
|   |   |   |   |   |   |   |   |   job = retired
|   |   |   |   |   |   |   |   |   |   day < 14.5 : no (5/0)
|   |   |   |   |   |   |   |   |   |   day >= 14.5
|   |   |   |   |   |   |   |   |   |   |   balance < 217.5
|   |   |   |   |   |   |   |   |   |   |   |   marital = married : no (2/0)
|   |   |   |   |   |   |   |   |   |   |   |   marital = single : no (0/0)
|   |   |   |   |   |   |   |   |   |   |   |   marital = divorced : yes (1/0)
|   |   |   |   |   |   |   |   |   |   |   balance >= 217.5 : yes (1/0)
|   |   |   |   |   |   |   |   |   job = admin. : no (1/0)
|   |   |   |   |   |   |   |   |   job = services : no (2/0)
|   |   |   |   |   |   |   |   |   job = self-employed : no (1/0)
|   |   |   |   |   |   |   |   |   job = unemployed : yes (1/0)
|   |   |   |   |   |   |   |   |   job = housemaid : no (7/0)
|   |   |   |   |   |   |   |   |   job = student
|   |   |   |   |   |   |   |   |   |   age < 19 : yes (1/0)
|   |   |   |   |   |   |   |   |   |   age >= 19 : no (1/0)
|   |   |   |   |   |   |   |   month = oct
|   |   |   |   |   |   |   |   |   balance < 15.5 : no (5/0)
|   |   |   |   |   |   |   |   |   balance >= 15.5
|   |   |   |   |   |   |   |   |   |   day < 15
|   |   |   |   |   |   |   |   |   |   |   age < 34.5 : yes (1/0)
|   |   |   |   |   |   |   |   |   |   |   age >= 34.5 : no (2/0)
|   |   |   |   |   |   |   |   |   |   day >= 15 : yes (6/0)
|   |   |   |   |   |   |   |   month = nov
|   |   |   |   |   |   |   |   |   day < 15
|   |   |   |   |   |   |   |   |   |   day < 2.5 : no (1/0)
|   |   |   |   |   |   |   |   |   |   day >= 2.5
|   |   |   |   |   |   |   |   |   |   |   job = management : yes (2/0)
|   |   |   |   |   |   |   |   |   |   |   job = technician : no (0/0)
|   |   |   |   |   |   |   |   |   |   |   job = entrepreneur : yes (1/0)
|   |   |   |   |   |   |   |   |   |   |   job = blue-collar : no (1/0)
|   |   |   |   |   |   |   |   |   |   |   job = unknown : no (0/0)
|   |   |   |   |   |   |   |   |   |   |   job = retired : no (1/0)
|   |   |   |   |   |   |   |   |   |   |   job = admin. : no (1/0)
|   |   |   |   |   |   |   |   |   |   |   job = services : no (0/0)
|   |   |   |   |   |   |   |   |   |   |   job = self-employed : yes (1/0)
|   |   |   |   |   |   |   |   |   |   |   job = unemployed : no (0/0)
|   |   |   |   |   |   |   |   |   |   |   job = housemaid : no (0/0)
|   |   |   |   |   |   |   |   |   |   |   job = student : no (0/0)
|   |   |   |   |   |   |   |   |   day >= 15 : no (26/0)
|   |   |   |   |   |   |   |   month = dec : no (1/0)
|   |   |   |   |   |   |   |   month = jan
|   |   |   |   |   |   |   |   |   day < 27.5
|   |   |   |   |   |   |   |   |   |   balance < 233.5 : no (1/0)
|   |   |   |   |   |   |   |   |   |   balance >= 233.5 : yes (1/0)
|   |   |   |   |   |   |   |   |   day >= 27.5 : no (24/0)
|   |   |   |   |   |   |   |   month = feb
|   |   |   |   |   |   |   |   |   duration < 146.5 : no (8/0)
|   |   |   |   |   |   |   |   |   duration >= 146.5
|   |   |   |   |   |   |   |   |   |   duration < 148
|   |   |   |   |   |   |   |   |   |   |   education = tertiary : yes (1/0)
|   |   |   |   |   |   |   |   |   |   |   education = secondary : no (1/0)
|   |   |   |   |   |   |   |   |   |   |   education = unknown : no (0/0)
|   |   |   |   |   |   |   |   |   |   |   education = primary : no (0/0)
|   |   |   |   |   |   |   |   |   |   duration >= 148
|   |   |   |   |   |   |   |   |   |   |   day < 7.5 : no (18/0)
|   |   |   |   |   |   |   |   |   |   |   day >= 7.5
|   |   |   |   |   |   |   |   |   |   |   |   age < 30.5
|   |   |   |   |   |   |   |   |   |   |   |   |   age < 26.5
|   |   |   |   |   |   |   |   |   |   |   |   |   |   education = tertiary : no (1/0)
|   |   |   |   |   |   |   |   |   |   |   |   |   |   education = secondary : yes (1/0)
|   |   |   |   |   |   |   |   |   |   |   |   |   |   education = unknown : no (0/0)
|   |   |   |   |   |   |   |   |   |   |   |   |   |   education = primary : no (0/0)
|   |   |   |   |   |   |   |   |   |   |   |   |   age >= 26.5 : yes (1/0)
|   |   |   |   |   |   |   |   |   |   |   |   age >= 30.5 : no (1/0)
|   |   |   |   |   |   |   |   month = mar : yes (2/0)
|   |   |   |   |   |   |   |   month = apr
|   |   |   |   |   |   |   |   |   marital = married
|   |   |   |   |   |   |   |   |   |   education = tertiary
|   |   |   |   |   |   |   |   |   |   |   job = management
|   |   |   |   |   |   |   |   |   |   |   |   balance < 148.5 : no (2/0)
|   |   |   |   |   |   |   |   |   |   |   |   balance >= 148.5 : yes (1/0)
|   |   |   |   |   |   |   |   |   |   |   job = technician : no (0/0)
|   |   |   |   |   |   |   |   |   |   |   job = entrepreneur : no (0/0)
|   |   |   |   |   |   |   |   |   |   |   job = blue-collar : no (0/0)
|   |   |   |   |   |   |   |   |   |   |   job = unknown : no (0/0)
|   |   |   |   |   |   |   |   |   |   |   job = retired : no (1/0)
|   |   |   |   |   |   |   |   |   |   |   job = admin. : no (0/0)
|   |   |   |   |   |   |   |   |   |   |   job = services : yes (1/0)
|   |   |   |   |   |   |   |   |   |   |   job = self-employed : no (0/0)
|   |   |   |   |   |   |   |   |   |   |   job = unemployed : no (0/0)
|   |   |   |   |   |   |   |   |   |   |   job = housemaid : no (0/0)
|   |   |   |   |   |   |   |   |   |   |   job = student : no (0/0)
|   |   |   |   |   |   |   |   |   |   education = secondary
|   |   |   |   |   |   |   |   |   |   |   balance < 229 : no (6/0)
|   |   |   |   |   |   |   |   |   |   |   balance >= 229 : yes (1/0)
|   |   |   |   |   |   |   |   |   |   education = unknown : no (2/0)
|   |   |   |   |   |   |   |   |   |   education = primary
|   |   |   |   |   |   |   |   |   |   |   age < 61 : yes (1/0)
|   |   |   |   |   |   |   |   |   |   |   age >= 61 : no (1/0)
|   |   |   |   |   |   |   |   |   marital = single
|   |   |   |   |   |   |   |   |   |   job = management : yes (1/0)
|   |   |   |   |   |   |   |   |   |   job = technician : no (0/0)
|   |   |   |   |   |   |   |   |   |   job = entrepreneur : no (1/0)
|   |   |   |   |   |   |   |   |   |   job = blue-collar : yes (2/0)
|   |   |   |   |   |   |   |   |   |   job = unknown : no (0/0)
|   |   |   |   |   |   |   |   |   |   job = retired : no (0/0)
|   |   |   |   |   |   |   |   |   |   job = admin. : no (1/0)
|   |   |   |   |   |   |   |   |   |   job = services : yes (1/0)
|   |   |   |   |   |   |   |   |   |   job = self-employed : no (1/0)
|   |   |   |   |   |   |   |   |   |   job = unemployed : yes (1/0)
|   |   |   |   |   |   |   |   |   |   job = housemaid : yes (1/0)
|   |   |   |   |   |   |   |   |   |   job = student : yes (1/0)
|   |   |   |   |   |   |   |   |   marital = divorced : no (0/0)
|   |   |   |   |   |   |   |   month = sep
|   |   |   |   |   |   |   |   |   day < 8.5
|   |   |   |   |   |   |   |   |   |   age < 18.5 : yes (1/0)
|   |   |   |   |   |   |   |   |   |   age >= 18.5 : no (2/0)
|   |   |   |   |   |   |   |   |   day >= 8.5 : no (6/0)
|   |   |   |   |   |   |   duration >= 205.5
|   |   |   |   |   |   |   |   month = may
|   |   |   |   |   |   |   |   |   day < 4.5 : yes (1/0)
|   |   |   |   |   |   |   |   |   day >= 4.5
|   |   |   |   |   |   |   |   |   |   duration < 268 : no (24/0)
|   |   |   |   |   |   |   |   |   |   duration >= 268
|   |   |   |   |   |   |   |   |   |   |   contact = unknown : no (27/0)
|   |   |   |   |   |   |   |   |   |   |   contact = cellular
|   |   |   |   |   |   |   |   |   |   |   |   day < 12.5 : no (4/0)
|   |   |   |   |   |   |   |   |   |   |   |   day >= 12.5
|   |   |   |   |   |   |   |   |   |   |   |   |   age < 28 : no (3/0)
|   |   |   |   |   |   |   |   |   |   |   |   |   age >= 28
|   |   |   |   |   |   |   |   |   |   |   |   |   |   day < 14 : yes (1/0)
|   |   |   |   |   |   |   |   |   |   |   |   |   |   day >= 14
|   |   |   |   |   |   |   |   |   |   |   |   |   |   |   balance < 3 : no (3/0)
|   |   |   |   |   |   |   |   |   |   |   |   |   |   |   balance >= 3
|   |   |   |   |   |   |   |   |   |   |   |   |   |   |   |   balance < 56
|   |   |   |   |   |   |   |   |   |   |   |   |   |   |   |   |   age < 42 : yes (1/0)
|   |   |   |   |   |   |   |   |   |   |   |   |   |   |   |   |   age >= 42 : no (1/0)
|   |   |   |   |   |   |   |   |   |   |   |   |   |   |   |   balance >= 56 : yes (2/0)
|   |   |   |   |   |   |   |   |   |   |   contact = telephone : no (1/0)
|   |   |   |   |   |   |   |   month = jun
|   |   |   |   |   |   |   |   |   job = management
|   |   |   |   |   |   |   |   |   |   day < 8
|   |   |   |   |   |   |   |   |   |   |   marital = married
|   |   |   |   |   |   |   |   |   |   |   |   day < 4 : no (1/0)
|   |   |   |   |   |   |   |   |   |   |   |   day >= 4 : yes (1/0)
|   |   |   |   |   |   |   |   |   |   |   marital = single : no (0/0)
|   |   |   |   |   |   |   |   |   |   |   marital = divorced : no (1/0)
|   |   |   |   |   |   |   |   |   |   day >= 8 : no (4/0)
|   |   |   |   |   |   |   |   |   job = technician : no (11/0)
|   |   |   |   |   |   |   |   |   job = entrepreneur : no (7/0)
|   |   |   |   |   |   |   |   |   job = blue-collar
|   |   |   |   |   |   |   |   |   |   age < 35
|   |   |   |   |   |   |   |   |   |   |   age < 29.5 : yes (1/0)
|   |   |   |   |   |   |   |   |   |   |   age >= 29.5
|   |   |   |   |   |   |   |   |   |   |   |   balance < 162 : no (1/0)
|   |   |   |   |   |   |   |   |   |   |   |   balance >= 162 : yes (1/0)
|   |   |   |   |   |   |   |   |   |   age >= 35 : no (16/0)
|   |   |   |   |   |   |   |   |   job = unknown : no (2/0)
|   |   |   |   |   |   |   |   |   job = retired
|   |   |   |   |   |   |   |   |   |   age < 61.5 : no (10/0)
|   |   |   |   |   |   |   |   |   |   age >= 61.5 : yes (1/0)
|   |   |   |   |   |   |   |   |   job = admin.
|   |   |   |   |   |   |   |   |   |   balance < -4.5 : no (3/0)
|   |   |   |   |   |   |   |   |   |   balance >= -4.5
|   |   |   |   |   |   |   |   |   |   |   day < 3.5
|   |   |   |   |   |   |   |   |   |   |   |   duration < 273.5 : yes (1/0)
|   |   |   |   |   |   |   |   |   |   |   |   duration >= 273.5
|   |   |   |   |   |   |   |   |   |   |   |   |   contact = unknown : no (0/0)
|   |   |   |   |   |   |   |   |   |   |   |   |   contact = cellular : yes (1/0)
|   |   |   |   |   |   |   |   |   |   |   |   |   contact = telephone : no (1/0)
|   |   |   |   |   |   |   |   |   |   |   day >= 3.5
|   |   |   |   |   |   |   |   |   |   |   |   contact = unknown : no (5/0)
|   |   |   |   |   |   |   |   |   |   |   |   contact = cellular
|   |   |   |   |   |   |   |   |   |   |   |   |   age < 25.5 : no (1/0)
|   |   |   |   |   |   |   |   |   |   |   |   |   age >= 25.5 : yes (1/0)
|   |   |   |   |   |   |   |   |   |   |   |   contact = telephone : no (0/0)
|   |   |   |   |   |   |   |   |   job = services : no (4/0)
|   |   |   |   |   |   |   |   |   job = self-employed : no (5/0)
|   |   |   |   |   |   |   |   |   job = unemployed : no (5/0)
|   |   |   |   |   |   |   |   |   job = housemaid
|   |   |   |   |   |   |   |   |   |   education = tertiary : no (0/0)
|   |   |   |   |   |   |   |   |   |   education = secondary : yes (1/0)
|   |   |   |   |   |   |   |   |   |   education = unknown : no (0/0)
|   |   |   |   |   |   |   |   |   |   education = primary : no (5/0)
|   |   |   |   |   |   |   |   |   job = student : yes (2/0)
|   |   |   |   |   |   |   |   month = jul
|   |   |   |   |   |   |   |   |   education = tertiary
|   |   |   |   |   |   |   |   |   |   balance < 281 : no (18/0)
|   |   |   |   |   |   |   |   |   |   balance >= 281 : yes (1/0)
|   |   |   |   |   |   |   |   |   education = secondary
|   |   |   |   |   |   |   |   |   |   balance < 200 : no (37/0)
|   |   |   |   |   |   |   |   |   |   balance >= 200
|   |   |   |   |   |   |   |   |   |   |   age < 61.5 : no (3/0)
|   |   |   |   |   |   |   |   |   |   |   age >= 61.5 : yes (1/0)
|   |   |   |   |   |   |   |   |   education = unknown
|   |   |   |   |   |   |   |   |   |   age < 32 : yes (1/0)
|   |   |   |   |   |   |   |   |   |   age >= 32 : no (2/0)
|   |   |   |   |   |   |   |   |   education = primary : no (17/0)
|   |   |   |   |   |   |   |   month = aug
|   |   |   |   |   |   |   |   |   age < 43
|   |   |   |   |   |   |   |   |   |   duration < 251
|   |   |   |   |   |   |   |   |   |   |   job = management : no (1/0)
|   |   |   |   |   |   |   |   |   |   |   job = technician : no (6/0)
|   |   |   |   |   |   |   |   |   |   |   job = entrepreneur : no (0/0)
|   |   |   |   |   |   |   |   |   |   |   job = blue-collar : no (1/0)
|   |   |   |   |   |   |   |   |   |   |   job = unknown : no (0/0)
|   |   |   |   |   |   |   |   |   |   |   job = retired : no (0/0)
|   |   |   |   |   |   |   |   |   |   |   job = admin. : no (0/0)
|   |   |   |   |   |   |   |   |   |   |   job = services : no (0/0)
|   |   |   |   |   |   |   |   |   |   |   job = self-employed : no (0/0)
|   |   |   |   |   |   |   |   |   |   |   job = unemployed : no (0/0)
|   |   |   |   |   |   |   |   |   |   |   job = housemaid : no (0/0)
|   |   |   |   |   |   |   |   |   |   |   job = student
|   |   |   |   |   |   |   |   |   |   |   |   balance < 28 : yes (1/0)
|   |   |   |   |   |   |   |   |   |   |   |   balance >= 28
|   |   |   |   |   |   |   |   |   |   |   |   |   age < 24 : no (1/0)
|   |   |   |   |   |   |   |   |   |   |   |   |   age >= 24 : yes (1/0)
|   |   |   |   |   |   |   |   |   |   duration >= 251 : no (23/0)
|   |   |   |   |   |   |   |   |   age >= 43
|   |   |   |   |   |   |   |   |   |   job = management : no (2/0)
|   |   |   |   |   |   |   |   |   |   job = technician
|   |   |   |   |   |   |   |   |   |   |   duration < 242 : yes (2/0)
|   |   |   |   |   |   |   |   |   |   |   duration >= 242 : no (1/0)
|   |   |   |   |   |   |   |   |   |   job = entrepreneur : no (0/0)
|   |   |   |   |   |   |   |   |   |   job = blue-collar : no (4/0)
|   |   |   |   |   |   |   |   |   |   job = unknown : no (1/0)
|   |   |   |   |   |   |   |   |   |   job = retired
|   |   |   |   |   |   |   |   |   |   |   day < 20.5
|   |   |   |   |   |   |   |   |   |   |   |   duration < 278 : no (2/0)
|   |   |   |   |   |   |   |   |   |   |   |   duration >= 278 : yes (3/0)
|   |   |   |   |   |   |   |   |   |   |   day >= 20.5 : no (3/0)
|   |   |   |   |   |   |   |   |   |   job = admin.
